
static float NN_WEIGHTS[3760] = {
  +0.037143935f,
  +0.007626466f,
  -0.129127800f,
  -0.035213206f,
  -0.002656601f,
  -0.017267879f,
  +0.039171036f,
  -0.012792198f,
  +0.039489951f,
  +0.052922416f,
  +0.005595903f,
  +0.029811155f,
  +0.023454329f,
  +0.015804715f,
  +0.000877498f,
  -0.064113259f,
  +0.002406236f,
  +0.030573990f,
  +0.019146904f,
  +0.024320703f,
  +0.026737183f,
  +0.039157104f,
  +0.039256737f,
  +0.015619768f,
  +0.034745418f,
  +0.071850643f,
  -0.003738109f,
  +0.042786639f,
  +0.049652327f,
  -0.015282806f,
  +0.025392802f,
  +0.013086704f,
  -0.029436560f,
  +0.013715961f,
  +0.025511879f,
  +0.001066294f,
  -0.003158997f,
  -0.003873881f,
  +0.001892180f,
  -0.004737136f,
  -0.001719346f,
  +0.040317371f,
  +0.081906609f,
  +0.027658343f,
  +0.055298094f,
  +0.036667891f,
  -0.004019273f,
  +0.012635232f,
  -0.024448683f,
  -0.026353253f,
  +0.037442070f,
  +0.045731355f,
  -0.040523898f,
  -0.002577374f,
  -0.027302625f,
  +0.049698982f,
  +0.014802478f,
  -0.017919153f,
  -0.023730356f,
  +0.014868956f,
  +0.031848494f,
  -0.001124792f,
  +0.014789023f,
  +0.024916265f,
  +0.022050977f,
  +0.048293557f,
  -0.019677592f,
  -0.010331281f,
  -0.030490972f,
  +0.030370217f,
  +0.026510803f,
  +0.027824743f,
  +0.047759000f,
  +0.001695292f,
  -0.013601568f,
  -0.016043413f,
  -0.008487971f,
  -0.005631896f,
  -0.029493062f,
  -0.039437272f,
  +0.001064513f,
  +0.007447630f,
  -0.002881918f,
  -0.035587065f,
  +0.028355088f,
  -0.027165359f,
  -0.011272441f,
  +0.028557638f,
  -0.041514985f,
  +0.022173747f,
  +0.049529742f,
  -0.028248338f,
  -0.055974826f,
  -0.031430420f,
  +0.015919102f,
  +0.024972225f,
  +0.055032864f,
  +0.039305586f,
  -0.033090133f,
  -0.005201545f,
  +0.027790803f,
  +0.034497228f,
  -0.021458486f,
  +0.014014676f,
  +0.005735449f,
  +0.034007143f,
  +0.018576359f,
  +0.029354289f,
  +0.023616750f,
  -0.049013246f,
  -0.011830444f,
  -0.000062847f,
  +0.004717549f,
  +0.045229662f,
  +0.015619465f,
  +0.048292082f,
  -0.036979843f,
  +0.003878393f,
  -0.031832285f,
  -0.008047590f,
  -0.030016007f,
  -0.034253348f,
  +0.001742979f,
  -0.037461303f,
  +0.016605835f,
  -0.015464875f,
  -0.022448435f,
  -0.009299223f,
  +0.029432461f,
  -0.006379753f,
  +0.031598423f,
  -0.024348900f,
  -0.024412636f,
  +0.004228603f,
  +0.029020656f,
  -0.003949892f,
  +0.022707406f,
  +0.018318377f,
  -0.039618488f,
  +0.022843283f,
  +0.016662586f,
  -0.004119641f,
  +0.048315816f,
  +0.011009452f,
  -0.016230961f,
  -0.025363429f,
  -0.014502071f,
  +0.010906868f,
  -0.009727642f,
  +0.004250638f,
  -0.016877411f,
  +0.019786905f,
  +0.029194865f,
  -0.029258393f,
  +0.011212502f,
  -0.052998412f,
  -0.001733985f,
  -0.020486630f,
  -0.026902337f,
  -0.026039023f,
  -0.033353146f,
  -0.023828043f,
  +0.034522347f,
  +0.032606624f,
  +0.038253445f,
  +0.003863879f,
  +0.034840804f,
  +0.002494086f,
  -0.015095722f,
  +0.005476404f,
  +0.010591775f,
  -0.020411257f,
  +0.017676901f,
  +0.028036077f,
  +0.024154041f,
  +0.032805517f,
  +0.027144404f,
  +0.020077538f,
  -0.038749468f,
  -0.025265422f,
  +0.039608005f,
  -0.030678134f,
  -0.008867200f,
  -0.033439837f,
  +0.019573603f,
  -0.007282093f,
  +0.029483665f,
  +0.016759485f,
  +0.030126106f,
  -0.010900173f,
  +0.002045003f,
  -0.029276634f,
  +0.046264969f,
  -0.047244344f,
  +0.014160700f,
  +0.011238813f,
  -0.018670585f,
  +0.010179192f,
  -0.019128060f,
  +0.009856600f,
  -0.030010721f,
  -0.043978598f,
  +0.028546687f,
  +0.022791464f,
  -0.036260210f,
  +0.022867735f,
  -0.018470179f,
  +0.027950745f,
  -0.031571455f,
  +0.002123229f,
  -0.020304792f,
  -0.016156351f,
  -0.000655796f,
  -0.016598627f,
  -0.019544112f,
  -0.033181362f,
  +0.031278554f,
  -0.012456301f,
  +0.009023242f,
  -0.027119333f,
  +0.013487466f,
  +0.005401526f,
  +0.015627902f,
  -0.036007628f,
  +0.010900173f,
  +0.013967176f,
  -0.030220669f,
  -0.000406917f,
  +0.029994529f,
  -0.001225412f,
  +0.025672574f,
  -0.001244429f,
  -0.027605265f,
  +0.009386279f,
  -0.030501258f,
  -0.008848146f,
  -0.019669533f,
  -0.020271890f,
  -0.002263546f,
  +0.024239007f,
  +0.004408594f,
  +0.037783902f,
  -0.039593652f,
  +0.021350430f,
  -0.012881514f,
  +0.016264139f,
  -0.003923751f,
  -0.037504498f,
  +0.030182388f,
  +0.039865896f,
  -0.002277907f,
  -0.027312910f,
  -0.022454094f,
  +0.003317681f,
  -0.017254118f,
  -0.021533832f,
  +0.021578655f,
  -0.008444050f,
  -0.021626469f,
  -0.034677763f,
  -0.018658584f,
  +0.017093591f,
  -0.026030874f,
  +0.019759048f,
  +0.020875178f,
  +0.036907572f,
  -0.036361810f,
  -0.022972241f,
  -0.019925080f,
  +0.026849454f,
  -0.012286481f,
  +0.028541228f,
  -0.039316807f,
  +0.039042722f,
  -0.024519701f,
  +0.021300616f,
  -0.030728366f,
  -0.007389788f,
  -0.038670722f,
  -0.034236915f,
  +0.029426809f,
  +0.015147448f,
  +0.013485819f,
  +0.035216484f,
  -0.012143528f,
  -0.011618705f,
  +0.006167017f,
  -0.022400880f,
  +0.002298143f,
  -0.034483753f,
  +0.009808175f,
  +0.030691873f,
  -0.023789952f,
  +0.030042302f,
  +0.029143754f,
  -0.046032000f,
  -0.000135341f,
  -0.001596332f,
  -0.018227056f,
  +0.034269098f,
  +0.024265669f,
  +0.004305655f,
  +0.008720931f,
  +0.018308876f,
  -0.014945691f,
  +0.024279056f,
  -0.019863689f,
  +0.016181240f,
  -0.018616810f,
  +0.021652617f,
  +0.003615730f,
  -0.036968678f,
  -0.002268184f,
  +0.013223447f,
  -0.028818257f,
  -0.017822154f,
  -0.044505116f,
  -0.024295686f,
  +0.002419860f,
  +0.010875698f,
  +0.039221648f,
  +0.020991687f,
  +0.027555723f,
  -0.035224661f,
  +0.018909227f,
  +0.020040417f,
  -0.005930133f,
  -0.032742351f,
  -0.030064877f,
  +0.004240841f,
  +0.014137683f,
  +0.008115757f,
  +0.010825627f,
  +0.018684801f,
  -0.032349166f,
  -0.034664944f,
  +0.101067044f,
  +0.025353964f,
  +0.018691916f,
  -0.023449773f,
  +0.002857232f,
  +0.039496217f,
  +0.001771189f,
  -0.014625707f,
  +0.000439588f,
  -0.000981555f,
  -0.027360348f,
  -0.017072385f,
  -0.028432382f,
  +0.009598617f,
  -0.008516733f,
  +0.012456630f,
  +0.021689627f,
  -0.029267991f,
  +0.010137092f,
  -0.007106551f,
  -0.017902507f,
  -0.014731698f,
  +0.009985722f,
  +0.008240527f,
  -0.050084762f,
  -0.006691080f,
  -0.037074238f,
  -0.035867333f,
  -0.034024179f,
  -0.027518917f,
  +0.028383482f,
  -0.002655123f,
  -0.019049723f,
  +0.028582219f,
  -0.015767109f,
  +0.000525192f,
  -0.022980295f,
  +0.001763571f,
  -0.037000686f,
  +0.051453140f,
  +0.006049585f,
  +0.030344874f,
  -0.085914798f,
  -0.054351401f,
  +0.037828494f,
  +0.005861267f,
  +0.023542246f,
  -0.036898114f,
  +0.028540533f,
  -0.010651901f,
  -0.000600972f,
  -0.035582453f,
  -0.017254777f,
  -0.006731885f,
  -0.018852640f,
  -0.088371731f,
  +0.032576736f,
  +0.039795216f,
  -0.002759989f,
  +0.024581891f,
  +0.007862357f,
  -0.010584006f,
  +0.044103414f,
  -0.022236722f,
  +0.049463637f,
  +0.046467207f,
  -0.020777851f,
  +0.007258089f,
  -0.005356156f,
  +0.001917224f,
  +0.038186215f,
  +0.038319644f,
  +0.014023576f,
  -0.026783457f,
  -0.036586482f,
  +0.004134115f,
  +0.046226148f,
  -0.003523290f,
  +0.036951832f,
  -0.012197253f,
  +0.011513268f,
  +0.009312211f,
  +0.101628639f,
  -0.028087137f,
  +0.045692615f,
  +0.035573911f,
  -0.027558006f,
  -0.033071749f,
  +0.004169552f,
  -0.066520527f,
  -0.028447919f,
  -0.022353258f,
  -0.063011326f,
  -0.033192839f,
  -0.091245219f,
  +0.008361165f,
  +0.009077188f,
  +0.007145368f,
  +0.039125811f,
  +0.006969310f,
  -0.019944001f,
  -0.004960649f,
  +0.013325255f,
  -0.030737098f,
  -0.029967487f,
  +0.020812713f,
  +0.003026972f,
  -0.037994366f,
  -0.000129057f,
  -0.017894546f,
  -0.013174340f,
  -0.021388482f,
  +0.001440071f,
  -0.047612783f,
  +0.027905587f,
  -0.017772080f,
  -0.022395691f,
  -0.007814802f,
  -0.015642587f,
  +0.000569042f,
  -0.033951115f,
  +0.035088945f,
  -0.026521772f,
  -0.016484488f,
  -0.009983296f,
  -0.002570894f,
  -0.005694096f,
  +0.034424059f,
  -0.003527937f,
  -0.031208970f,
  +0.006868929f,
  -0.029560188f,
  -0.009389219f,
  -0.026378939f,
  -0.026306957f,
  +0.004423373f,
  -0.005653102f,
  +0.022625748f,
  -0.003944442f,
  -0.000320300f,
  -0.036675490f,
  -0.036861196f,
  +0.038083788f,
  -0.019864848f,
  +0.027014490f,
  +0.034645025f,
  +0.030004084f,
  -0.024696469f,
  +0.006796766f,
  -0.035690304f,
  -0.005002223f,
  +0.031027280f,
  -0.018920738f,
  +0.028194681f,
  -0.007967304f,
  +0.011164903f,
  -0.058222476f,
  +0.007283423f,
  -0.019642590f,
  +0.037193827f,
  +0.035587236f,
  +0.025985483f,
  +0.039752301f,
  -0.020396508f,
  +0.021059111f,
  -0.016581062f,
  +0.013325026f,
  +0.037279364f,
  +0.049366526f,
  -0.023519751f,
  -0.012164274f,
  -0.022658547f,
  +0.009461604f,
  +0.007501718f,
  +0.027988512f,
  -0.022504764f,
  -0.012093006f,
  +0.028698560f,
  +0.015196901f,
  -0.012926832f,
  -0.043295108f,
  -0.017491572f,
  +0.011063933f,
  -0.017965989f,
  +0.007674519f,
  +0.002829477f,
  +0.015800923f,
  +0.018054213f,
  -0.025998026f,
  -0.024301820f,
  +0.008041233f,
  +0.014540371f,
  +0.035099234f,
  +0.031677868f,
  -0.000983790f,
  +0.001033874f,
  -0.032579187f,
  +0.013244743f,
  +0.002258707f,
  -0.021563485f,
  -0.000346445f,
  -0.009708024f,
  +0.031971905f,
  -0.046391629f,
  +0.013107125f,
  -0.039554875f,
  +0.020351328f,
  +0.032357361f,
  +0.022356667f,
  -0.019263484f,
  +0.006793920f,
  +0.018153392f,
  -0.027783863f,
  +0.019613713f,
  -0.014347889f,
  +0.021316543f,
  +0.038520575f,
  +0.014668357f,
  -0.035119429f,
  -0.026502829f,
  -0.034193739f,
  +0.038019728f,
  -0.033357665f,
  +0.016609360f,
  -0.026926413f,
  +0.016366787f,
  +0.013272680f,
  -0.038291182f,
  -0.039060939f,
  -0.009563383f,
  +0.020725947f,
  -0.007447151f,
  +0.035327807f,
  -0.016117360f,
  +0.009931497f,
  -0.023993062f,
  +0.033920009f,
  -0.013184469f,
  +0.020097669f,
  +0.036526885f,
  +0.028518375f,
  +0.004522857f,
  -0.024611471f,
  -0.009374565f,
  -0.015925176f,
  +0.035821099f,
  +0.018645722f,
  +0.019362882f,
  -0.038390830f,
  +0.030928183f,
  -0.017059283f,
  -0.037661631f,
  +0.022243194f,
  -0.028777767f,
  -0.003871128f,
  -0.001352444f,
  -0.017879147f,
  +0.038791109f,
  -0.023567298f,
  +0.006635953f,
  -0.033445105f,
  -0.000658737f,
  -0.026208613f,
  -0.012163008f,
  +0.039811868f,
  +0.020978389f,
  +0.015043214f,
  +0.036891688f,
  +0.021102060f,
  -0.003362287f,
  -0.017059853f,
  -0.010845350f,
  -0.035441641f,
  +0.002479646f,
  -0.030144952f,
  -0.006833009f,
  -0.023745993f,
  -0.013596026f,
  -0.006881025f,
  +0.019015398f,
  +0.021596216f,
  +0.028879512f,
  -0.006188355f,
  -0.008529063f,
  +0.044706102f,
  +0.017110940f,
  -0.004703209f,
  +0.017302997f,
  +0.024011604f,
  +0.024797244f,
  +0.000648367f,
  -0.010391535f,
  +0.001680266f,
  -0.005141069f,
  +0.009001024f,
  +0.020784518f,
  +0.035285015f,
  +0.001276819f,
  -0.022910884f,
  +0.035905551f,
  -0.015148264f,
  -0.007775661f,
  +0.005600084f,
  +0.008031494f,
  -0.009340787f,
  +0.032703053f,
  -0.029045148f,
  -0.027299251f,
  +0.031593550f,
  +0.012308013f,
  +0.030547034f,
  -0.018038245f,
  +0.033654850f,
  +0.061995264f,
  -0.026266921f,
  -0.010119502f,
  -0.039901268f,
  +0.034074347f,
  -0.006476801f,
  +0.015598029f,
  +0.017263314f,
  +0.028626876f,
  -0.021709679f,
  -0.024754524f,
  +0.034237575f,
  +0.037127782f,
  +0.014395102f,
  +0.011521593f,
  -0.037702531f,
  +0.037547413f,
  -0.017261947f,
  -0.026033290f,
  -0.012938054f,
  -0.001774959f,
  +0.039397616f,
  -0.017114140f,
  -0.022137817f,
  +0.029800113f,
  -0.009056351f,
  -0.040881470f,
  -0.012317718f,
  -0.026116485f,
  +0.029897969f,
  +0.024447542f,
  +0.010889556f,
  +0.005685478f,
  -0.013378051f,
  -0.017168134f,
  -0.006634422f,
  +0.061689705f,
  -0.015304550f,
  -0.021619059f,
  -0.029317565f,
  -0.012364348f,
  -0.036501080f,
  -0.002443071f,
  -0.003152539f,
  +0.051057931f,
  -0.045106072f,
  -0.013483021f,
  +0.038711492f,
  -0.035640530f,
  -0.009749331f,
  +0.031806953f,
  -0.027421227f,
  -0.031986017f,
  +0.030301411f,
  -0.009544270f,
  +0.007534791f,
  +0.022446714f,
  +0.007279045f,
  -0.015047327f,
  +0.036116134f,
  -0.022681216f,
  +0.004367836f,
  +0.021220759f,
  +0.029933020f,
  +0.002632260f,
  +0.001201138f,
  -0.000623123f,
  -0.040356468f,
  +0.040445630f,
  -0.012608171f,
  -0.007874681f,
  +0.011751867f,
  -0.028403897f,
  -0.023711974f,
  -0.028583236f,
  -0.005850631f,
  -0.020870222f,
  +0.009972699f,
  -0.001598186f,
  +0.021510001f,
  -0.026623599f,
  -0.029132402f,
  -0.001003850f,
  -0.016413724f,
  -0.016370768f,
  -0.040224764f,
  -0.012317336f,
  -0.009464993f,
  -0.021763263f,
  -0.035224400f,
  +0.019479418f,
  -0.057562239f,
  +0.001050698f,
  +0.002715137f,
  -0.041665226f,
  -0.059996277f,
  +0.021237236f,
  -0.016856458f,
  -0.044513796f,
  -0.023184046f,
  -0.023582676f,
  -0.029881556f,
  -0.027594669f,
  -0.002086017f,
  +0.013934729f,
  -0.108340144f,
  -0.009635677f,
  +0.015669916f,
  +0.037325699f,
  +0.009624997f,
  -0.032252811f,
  -0.019346055f,
  +0.033381488f,
  +0.033739876f,
  -0.016414473f,
  -0.040899657f,
  +0.032666836f,
  -0.049820438f,
  +0.028272182f,
  +0.040336426f,
  -0.000809781f,
  -0.006207276f,
  -0.029185552f,
  +0.013122490f,
  -0.008001007f,
  +0.029763773f,
  -0.050830849f,
  +0.059501048f,
  +0.033241194f,
  +0.027542684f,
  +0.026017576f,
  +0.025396129f,
  +0.035008367f,
  +0.049039006f,
  +0.039981637f,
  +0.013275473f,
  -0.015700731f,
  -0.031522844f,
  +0.038811892f,
  -0.017447991f,
  +0.022188749f,
  +0.040407561f,
  -0.008487254f,
  -0.043372523f,
  -0.007119692f,
  +0.092944913f,
  +0.030106235f,
  -0.037694983f,
  +0.001605755f,
  -0.105777718f,
  -0.028253088f,
  -0.007467601f,
  -0.009509102f,
  +0.008316630f,
  +0.021963459f,
  -0.074032716f,
  -0.077133119f,
  -0.059823163f,
  +0.047416218f,
  +0.038667064f,
  -0.039701480f,
  -0.011259573f,
  -0.016932057f,
  -0.007885963f,
  -0.036698040f,
  +0.025184687f,
  +0.005179398f,
  +0.015561957f,
  +0.030146044f,
  +0.032871138f,
  +0.037200760f,
  -0.002671711f,
  +0.021439899f,
  -0.041710820f,
  -0.033271488f,
  -0.010113795f,
  +0.010466474f,
  +0.033841033f,
  -0.032156076f,
  -0.025183545f,
  +0.005490168f,
  +0.005796235f,
  +0.010420442f,
  -0.038790196f,
  +0.007867079f,
  +0.010982841f,
  -0.018650122f,
  -0.003730436f,
  -0.005511664f,
  +0.027088504f,
  +0.011534679f,
  -0.024269750f,
  +0.013633559f,
  +0.005936956f,
  -0.026879791f,
  +0.002136382f,
  -0.012467552f,
  +0.012900628f,
  -0.018250333f,
  +0.026435576f,
  -0.036087401f,
  -0.027860342f,
  +0.031683702f,
  +0.005926505f,
  +0.031144936f,
  +0.009753428f,
  +0.026015159f,
  +0.001008749f,
  +0.027717428f,
  +0.017595056f,
  -0.011020209f,
  -0.015773440f,
  -0.031583168f,
  +0.022811983f,
  +0.009110715f,
  +0.016763981f,
  +0.032871533f,
  +0.011286852f,
  +0.013683212f,
  +0.005176577f,
  +0.047555953f,
  +0.011748516f,
  -0.019579016f,
  -0.023170179f,
  -0.000057328f,
  -0.007730920f,
  -0.037783682f,
  -0.038256969f,
  +0.019643560f,
  -0.001517784f,
  +0.032821197f,
  +0.056333348f,
  -0.037615038f,
  -0.036988143f,
  -0.006939206f,
  -0.014269829f,
  -0.027485106f,
  -0.026083324f,
  -0.011949440f,
  +0.002450783f,
  +0.033082847f,
  +0.022547275f,
  +0.002050884f,
  -0.023744717f,
  -0.027513564f,
  -0.007316091f,
  +0.020083986f,
  -0.025048111f,
  +0.016103622f,
  -0.003035199f,
  +0.001068532f,
  -0.028792899f,
  +0.008446399f,
  +0.007771854f,
  -0.023049667f,
  -0.026281931f,
  +0.008137297f,
  -0.007844683f,
  -0.026060874f,
  +0.037364502f,
  +0.016261896f,
  +0.012642073f,
  -0.023095511f,
  -0.019222187f,
  -0.030381726f,
  -0.003803538f,
  -0.003755950f,
  +0.038904224f,
  +0.011793114f,
  +0.033378039f,
  +0.038227256f,
  +0.030239832f,
  -0.011260830f,
  -0.000347696f,
  +0.033911932f,
  +0.019294698f,
  -0.009872321f,
  +0.015824910f,
  +0.003354681f,
  +0.036757886f,
  -0.005932428f,
  +0.002145838f,
  -0.025877450f,
  -0.031974699f,
  -0.017392809f,
  +0.010299161f,
  +0.005774580f,
  -0.026100684f,
  -0.001140051f,
  -0.013240959f,
  -0.015801094f,
  -0.024013612f,
  +0.015794724f,
  +0.001603671f,
  -0.005817150f,
  +0.052065711f,
  -0.043245021f,
  +0.029303778f,
  +0.002400208f,
  +0.032320779f,
  +0.022828910f,
  +0.011346266f,
  -0.032851767f,
  +0.002968539f,
  -0.033781704f,
  -0.034688409f,
  -0.030486699f,
  +0.001664724f,
  -0.025759891f,
  -0.026199996f,
  +0.010822933f,
  +0.009500295f,
  +0.017828505f,
  +0.007124055f,
  -0.011234708f,
  -0.028768729f,
  +0.031802531f,
  +0.029247563f,
  +0.036535937f,
  +0.008794751f,
  +0.022364303f,
  +0.018069712f,
  +0.003450590f,
  +0.001112014f,
  -0.004026969f,
  -0.010822447f,
  -0.026148278f,
  +0.022231411f,
  -0.032511912f,
  +0.023713898f,
  -0.030611131f,
  -0.015657442f,
  -0.003452819f,
  -0.025256049f,
  +0.038134675f,
  -0.003510851f,
  -0.019122280f,
  -0.027416591f,
  -0.037050240f,
  +0.005860191f,
  +0.013056140f,
  -0.007838540f,
  +0.020558763f,
  +0.000990085f,
  -0.009171139f,
  +0.010740962f,
  +0.028331732f,
  -0.016924899f,
  -0.002508930f,
  +0.020000689f,
  +0.032637406f,
  +0.012436547f,
  +0.040248021f,
  +0.051348135f,
  +0.020183476f,
  -0.006559703f,
  +0.028833184f,
  -0.018935490f,
  -0.034734070f,
  -0.019109195f,
  -0.006066587f,
  -0.037055325f,
  -0.008774268f,
  -0.025721325f,
  -0.004559625f,
  +0.000870692f,
  +0.025488989f,
  -0.029163906f,
  -0.006170586f,
  -0.023669077f,
  -0.019178472f,
  +0.009498380f,
  +0.002203417f,
  -0.024689700f,
  +0.007766095f,
  +0.008708093f,
  +0.041616995f,
  -0.007546172f,
  -0.028883519f,
  +0.025767576f,
  -0.026368055f,
  +0.015374530f,
  +0.003661901f,
  +0.037550632f,
  +0.013247425f,
  +0.041168362f,
  +0.017133769f,
  +0.011624953f,
  -0.010849940f,
  +0.010245072f,
  -0.032401569f,
  +0.018065374f,
  -0.030023586f,
  -0.033267703f,
  -0.009232266f,
  +0.011382565f,
  +0.026782766f,
  -0.007022265f,
  +0.023766410f,
  +0.009591153f,
  +0.010783307f,
  -0.008249232f,
  -0.015932243f,
  -0.011573698f,
  -0.017086046f,
  -0.011491861f,
  +0.006203737f,
  +0.011362126f,
  +0.078253537f,
  +0.012026534f,
  +0.019217821f,
  +0.035629634f,
  -0.017558796f,
  -0.011482956f,
  +0.012243971f,
  -0.004767727f,
  +0.027132269f,
  -0.029452961f,
  -0.015853846f,
  -0.010086966f,
  +0.019665521f,
  -0.015174150f,
  -0.033276655f,
  +0.032597981f,
  +0.030739412f,
  +0.038398862f,
  -0.001511676f,
  -0.022269608f,
  -0.023665311f,
  -0.030932173f,
  -0.030198567f,
  +0.015371073f,
  +0.015386909f,
  +0.034044370f,
  +0.019380860f,
  -0.025981210f,
  +0.002863085f,
  +0.000602003f,
  -0.026274083f,
  +0.055070259f,
  -0.003264926f,
  -0.028591007f,
  -0.018243240f,
  -0.045825094f,
  +0.035294782f,
  -0.003727581f,
  -0.001253786f,
  +0.026385758f,
  +0.011737030f,
  +0.003936214f,
  +0.016712092f,
  +0.029647740f,
  +0.016332395f,
  +0.000249546f,
  -0.014150421f,
  +0.002290429f,
  -0.024452602f,
  -0.048900165f,
  -0.011090555f,
  +0.006649543f,
  -0.004259493f,
  -0.018816810f,
  -0.057037946f,
  +0.016891096f,
  -0.002236558f,
  +0.021127101f,
  -0.020325152f,
  -0.048653215f,
  -0.061714705f,
  +0.013070513f,
  -0.009864127f,
  -0.018072547f,
  -0.034100804f,
  -0.025589449f,
  +0.008832004f,
  -0.014554513f,
  -0.036065824f,
  -0.004972086f,
  -0.004181362f,
  -0.001016098f,
  +0.020974191f,
  -0.144112468f,
  -0.072523378f,
  +0.033374269f,
  +0.003679071f,
  +0.004877481f,
  +0.013126303f,
  +0.056544010f,
  +0.040952560f,
  +0.041884508f,
  -0.020510841f,
  +0.013665118f,
  +0.006882236f,
  -0.042877536f,
  -0.054729808f,
  +0.040609498f,
  +0.017443869f,
  +0.011738710f,
  +0.010361306f,
  -0.001684924f,
  -0.035759818f,
  -0.013433944f,
  -0.009185925f,
  -0.002789082f,
  +0.086911976f,
  +0.022478705f,
  -0.001757468f,
  -0.004248825f,
  -0.034471240f,
  +0.006731598f,
  +0.022625245f,
  +0.017783385f,
  -0.052800830f,
  -0.007843759f,
  -0.038543366f,
  -0.016438007f,
  +0.013651107f,
  +0.003086926f,
  -0.004229815f,
  +0.005144428f,
  +0.001966574f,
  +0.059722945f,
  +0.026304334f,
  -0.061571702f,
  +0.037318144f,
  -0.132333949f,
  -0.028339414f,
  -0.011622771f,
  -0.039602965f,
  -0.006764083f,
  +0.018787660f,
  -0.130824775f,
  +0.002673582f,
  -0.052242290f,
  -0.007165495f,
  +0.006140847f,
  +0.016143363f,
  +0.014404528f,
  -0.015499622f,
  +0.010431975f,
  -0.019140564f,
  -0.002198536f,
  -0.025638161f,
  +0.033713352f,
  -0.007181640f,
  +0.006786248f,
  +0.019448046f,
  -0.032048855f,
  -0.033418611f,
  +0.027591739f,
  -0.046762478f,
  +0.005404884f,
  -0.034008708f,
  -0.018900419f,
  -0.044615936f,
  +0.000214907f,
  +0.023685999f,
  -0.004582535f,
  +0.008981179f,
  +0.001908537f,
  +0.016306020f,
  +0.011856470f,
  +0.018999007f,
  +0.028904758f,
  +0.003550056f,
  +0.003878003f,
  -0.026206249f,
  -0.005568417f,
  +0.010864533f,
  +0.017470650f,
  -0.010862958f,
  -0.027570320f,
  +0.011883963f,
  -0.031009097f,
  -0.041009318f,
  +0.063667066f,
  +0.034473177f,
  -0.034143858f,
  +0.033369515f,
  -0.002299134f,
  +0.016310763f,
  +0.012930334f,
  -0.002056826f,
  -0.008483347f,
  +0.028751876f,
  +0.010032797f,
  +0.009341720f,
  +0.026019018f,
  -0.016743183f,
  +0.004607029f,
  +0.003347148f,
  +0.025322983f,
  +0.025381617f,
  +0.034158051f,
  -0.008253072f,
  +0.017116964f,
  +0.062857449f,
  +0.015545492f,
  -0.000585292f,
  -0.037305735f,
  -0.026789352f,
  +0.044570584f,
  +0.014476717f,
  -0.004872609f,
  -0.023649991f,
  -0.002670111f,
  +0.001499570f,
  +0.035581898f,
  +0.029417586f,
  +0.030122574f,
  +0.018540666f,
  -0.016491581f,
  -0.027485058f,
  +0.002185404f,
  -0.036568206f,
  -0.035478171f,
  +0.015756041f,
  -0.021748360f,
  -0.015425887f,
  -0.004479446f,
  -0.047308002f,
  -0.003942538f,
  -0.042267531f,
  -0.023391621f,
  +0.001008578f,
  +0.015627578f,
  +0.032924596f,
  +0.002401114f,
  -0.017335024f,
  +0.009324759f,
  -0.037240982f,
  +0.013659827f,
  -0.008816758f,
  -0.017158786f,
  -0.009282787f,
  +0.033376742f,
  -0.002016623f,
  +0.004075912f,
  -0.037326697f,
  -0.030065959f,
  +0.036950700f,
  +0.015249264f,
  +0.016618967f,
  -0.003539763f,
  -0.004294224f,
  -0.028722364f,
  -0.022600612f,
  +0.039375316f,
  -0.033897486f,
  -0.012271397f,
  -0.029593974f,
  +0.006348375f,
  -0.038346805f,
  -0.031133076f,
  -0.003699410f,
  +0.036062986f,
  -0.029507726f,
  +0.004242755f,
  -0.013933923f,
  +0.017299220f,
  +0.034257714f,
  -0.032078814f,
  -0.026886636f,
  -0.020457203f,
  -0.031108126f,
  +0.021118306f,
  +0.011140078f,
  +0.009607997f,
  -0.018180896f,
  -0.020604003f,
  -0.024197223f,
  -0.000360614f,
  -0.013865344f,
  -0.031212125f,
  +0.035060603f,
  +0.024241846f,
  -0.005196005f,
  +0.019301329f,
  +0.028759722f,
  +0.001660202f,
  +0.000710517f,
  -0.009090424f,
  +0.025734935f,
  +0.032026056f,
  +0.018248290f,
  -0.034035966f,
  -0.005502276f,
  +0.017869927f,
  -0.038120545f,
  -0.004180588f,
  -0.039462037f,
  +0.012790922f,
  -0.038192652f,
  +0.000251316f,
  -0.002636906f,
  -0.035412341f,
  -0.001646496f,
  -0.037505530f,
  -0.005239271f,
  +0.009703435f,
  -0.038214564f,
  +0.022615533f,
  +0.016033012f,
  +0.014326062f,
  -0.020779708f,
  +0.033721339f,
  -0.019940887f,
  +0.032626655f,
  +0.009853885f,
  +0.018394493f,
  +0.033949215f,
  +0.023524839f,
  +0.006632764f,
  +0.017438166f,
  -0.025694307f,
  +0.011530820f,
  +0.018374778f,
  -0.013779491f,
  +0.016296223f,
  -0.012248276f,
  +0.009152960f,
  +0.008056458f,
  +0.028942402f,
  -0.002461195f,
  +0.046092317f,
  +0.006523822f,
  -0.024123790f,
  -0.033528041f,
  +0.005210862f,
  +0.014847543f,
  -0.012310643f,
  -0.030566489f,
  +0.025325101f,
  +0.025671478f,
  +0.019799689f,
  -0.002970491f,
  +0.029218342f,
  -0.013232283f,
  -0.004538883f,
  -0.032412551f,
  +0.028586481f,
  +0.003074014f,
  -0.019094311f,
  -0.020828515f,
  +0.003486663f,
  -0.012563985f,
  +0.031515576f,
  -0.037568003f,
  +0.015048370f,
  -0.025381532f,
  -0.013634525f,
  +0.027081329f,
  +0.091866679f,
  -0.026976027f,
  -0.012869515f,
  -0.032406509f,
  -0.023387745f,
  -0.020310143f,
  -0.035291478f,
  +0.037925433f,
  -0.012363136f,
  +0.043636825f,
  +0.001016844f,
  +0.003464611f,
  -0.032787260f,
  -0.003242924f,
  -0.018789820f,
  +0.011508811f,
  +0.028543238f,
  +0.039456900f,
  -0.028386343f,
  +0.036999632f,
  -0.009829425f,
  +0.034761857f,
  -0.011033549f,
  +0.023471233f,
  +0.005868152f,
  +0.044212174f,
  +0.024340307f,
  +0.006921194f,
  -0.033546306f,
  -0.026287872f,
  +0.012512350f,
  -0.002183325f,
  +0.020321017f,
  +0.040393881f,
  -0.020870043f,
  +0.020470049f,
  +0.057694525f,
  +0.012020012f,
  -0.036148071f,
  +0.009884462f,
  -0.007764965f,
  +0.014544982f,
  -0.071751326f,
  +0.004153990f,
  +0.026485829f,
  +0.028570252f,
  -0.050001159f,
  +0.026432641f,
  +0.018606732f,
  +0.000552823f,
  +0.018406726f,
  -0.000423816f,
  -0.025577789f,
  -0.004983246f,
  -0.025270019f,
  +0.014863994f,
  +0.018609077f,
  -0.008255824f,
  -0.006928492f,
  -0.018594051f,
  -0.008870658f,
  +0.006419815f,
  -0.033464056f,
  +0.091412835f,
  -0.024027916f,
  +0.025450971f,
  -0.033694196f,
  -0.053353071f,
  +0.005320411f,
  +0.034823585f,
  +0.002979632f,
  +0.029627776f,
  -0.007129432f,
  +0.018323729f,
  -0.011793466f,
  -0.014324776f,
  -0.010664048f,
  -0.011526743f,
  -0.014583584f,
  +0.006486850f,
  -0.004407719f,
  -0.036516890f,
  +0.036254354f,
  -0.005909413f,
  +0.013966071f,
  +0.016165359f,
  -0.023950111f,
  -0.034506537f,
  -0.015890140f,
  +0.014390409f,
  +0.019963698f,
  -0.043187194f,
  -0.051315863f,
  +0.000314225f,
  -0.011916626f,
  -0.046313763f,
  +0.031237025f,
  -0.011044550f,
  +0.012604570f,
  -0.015629696f,
  -0.024921305f,
  +0.008049725f,
  +0.000483382f,
  +0.020967713f,
  +0.008619519f,
  -0.066563703f,
  -0.046393406f,
  -0.000676333f,
  -0.032923322f,
  +0.025020525f,
  -0.018933108f,
  -0.017244458f,
  -0.013078053f,
  -0.011398921f,
  -0.025649171f,
  -0.016407775f,
  +0.023297964f,
  -0.084593773f,
  -0.038532857f,
  +0.002923208f,
  -0.030531473f,
  +0.004708972f,
  +0.019535292f,
  -0.041888636f,
  -0.027663724f,
  +0.013018924f,
  -0.079984739f,
  -0.019328577f,
  +0.020629358f,
  -0.005996495f,
  -0.003009191f,
  -0.028033581f,
  -0.019171447f,
  -0.043187466f,
  +0.061848737f,
  -0.069197550f,
  -0.024604997f,
  +0.036209676f,
  -0.031575378f,
  +0.028180614f,
  -0.032430775f,
  +0.013934273f,
  -0.022694046f,
  +0.005009886f,
  +0.009755012f,
  +0.067681342f,
  +0.003678974f,
  -0.049345601f,
  -0.018838894f,
  -0.178859457f,
  +0.001752648f,
  +0.019389102f,
  +0.003123656f,
  -0.036482733f,
  -0.022994902f,
  -0.086318471f,
  -0.013632897f,
  -0.030801710f,
  +0.008005692f,
  -0.031782065f,
  +0.025098000f,
  +0.003452439f,
  -0.001389373f,
  +0.024516027f,
  +0.013618939f,
  -0.031157121f,
  +0.019965932f,
  -0.029906314f,
  -0.010370825f,
  +0.002809222f,
  -0.029471520f,
  -0.047925543f,
  +0.004070383f,
  +0.001497408f,
  +0.019713227f,
  -0.029696748f,
  +0.014886227f,
  -0.001023460f,
  -0.040692259f,
  +0.033745456f,
  -0.003588907f,
  +0.005488515f,
  -0.019929927f,
  -0.030852830f,
  +0.028677117f,
  -0.037990138f,
  +0.021407377f,
  -0.017351588f,
  +0.033175629f,
  +0.025198080f,
  -0.032285824f,
  +0.015555569f,
  -0.032352835f,
  +0.010312136f,
  +0.009195536f,
  -0.045695316f,
  +0.024035459f,
  +0.009490810f,
  -0.009100434f,
  +0.046611644f,
  +0.023350026f,
  +0.032398913f,
  +0.001623482f,
  -0.006091632f,
  +0.007844254f,
  +0.030235518f,
  -0.004782401f,
  -0.018821275f,
  +0.039077085f,
  +0.011553304f,
  +0.011860422f,
  -0.034416229f,
  -0.036865469f,
  +0.018842388f,
  -0.015488707f,
  -0.007216285f,
  +0.030841358f,
  +0.026295582f,
  +0.003596236f,
  +0.010862217f,
  +0.036861211f,
  +0.003546641f,
  -0.020761782f,
  -0.007198426f,
  -0.028388742f,
  -0.023393378f,
  -0.022639506f,
  +0.026779156f,
  -0.025412932f,
  -0.030301886f,
  -0.000538683f,
  +0.036793929f,
  -0.002232980f,
  +0.010958575f,
  +0.006122228f,
  +0.029341724f,
  -0.010272440f,
  -0.016971273f,
  +0.039328884f,
  -0.030485755f,
  +0.029658783f,
  +0.038877901f,
  +0.032241564f,
  -0.023991834f,
  -0.030995565f,
  +0.042381495f,
  +0.004521636f,
  -0.037712283f,
  -0.025185239f,
  +0.004114531f,
  +0.016107831f,
  -0.035453957f,
  +0.018622335f,
  -0.029612616f,
  -0.005564820f,
  +0.005316287f,
  -0.010395588f,
  -0.016516712f,
  +0.000814573f,
  +0.015051261f,
  +0.033229660f,
  -0.012088791f,
  -0.007119063f,
  -0.026329732f,
  +0.027395127f,
  +0.027561761f,
  -0.021623950f,
  +0.013466258f,
  +0.001370862f,
  +0.024706949f,
  -0.021593977f,
  -0.038911764f,
  +0.038250085f,
  +0.003816705f,
  -0.001917586f,
  -0.009590942f,
  -0.033314757f,
  -0.017440252f,
  +0.006801607f,
  -0.022806993f,
  -0.028156234f,
  -0.011695659f,
  -0.016311467f,
  +0.017352935f,
  -0.012097996f,
  +0.015303958f,
  +0.035124313f,
  -0.038252044f,
  -0.012186434f,
  +0.023922753f,
  +0.021717489f,
  +0.011533551f,
  -0.032154977f,
  +0.037111718f,
  -0.013272418f,
  +0.001777962f,
  -0.024789771f,
  -0.024257861f,
  -0.038784388f,
  -0.018674443f,
  -0.032785375f,
  +0.027578432f,
  +0.039544057f,
  -0.001425017f,
  -0.052554145f,
  +0.039604712f,
  +0.004841384f,
  -0.002931286f,
  +0.027333107f,
  -0.032973401f,
  +0.009831879f,
  -0.014792679f,
  +0.000765841f,
  -0.006531890f,
  -0.000894543f,
  -0.002566133f,
  +0.002922162f,
  -0.038260911f,
  +0.022551216f,
  -0.016915841f,
  +0.007171547f,
  +0.036669664f,
  -0.063754186f,
  -0.008101709f,
  -0.046622470f,
  -0.028735543f,
  +0.018369343f,
  +0.005962141f,
  +0.002461587f,
  -0.018613469f,
  -0.015212338f,
  -0.032778919f,
  +0.037982468f,
  +0.007429946f,
  +0.003868688f,
  +0.024659503f,
  -0.026433619f,
  -0.034119766f,
  +0.024006758f,
  +0.014532650f,
  -0.016799292f,
  -0.036490157f,
  -0.012049325f,
  -0.000937425f,
  +0.006739657f,
  +0.000199549f,
  -0.007185332f,
  -0.025573390f,
  -0.004239350f,
  -0.009793358f,
  +0.013526671f,
  +0.033230823f,
  +0.010847322f,
  +0.055563636f,
  +0.036836792f,
  +0.025865782f,
  -0.012823904f,
  +0.024319541f,
  -0.004374249f,
  -0.033499252f,
  -0.018237369f,
  -0.034555212f,
  +0.006702594f,
  -0.029285161f,
  +0.033885565f,
  +0.005275670f,
  -0.009647038f,
  -0.003086556f,
  +0.000169009f,
  +0.007187486f,
  -0.007074989f,
  -0.018229861f,
  -0.018161224f,
  +0.009341016f,
  +0.003455938f,
  -0.004594937f,
  +0.065036841f,
  -0.013624109f,
  +0.032342326f,
  -0.023457985f,
  -0.006303217f,
  +0.035118800f,
  +0.011126872f,
  +0.011089866f,
  -0.016908227f,
  -0.016047185f,
  -0.035297733f,
  +0.024448749f,
  +0.019821510f,
  -0.010595923f,
  -0.029301187f,
  +0.031151738f,
  -0.014983848f,
  +0.028106581f,
  -0.008820338f,
  +0.026378194f,
  -0.006120377f,
  +0.037625063f,
  -0.032339595f,
  -0.009443036f,
  +0.015158430f,
  -0.024744049f,
  +0.029799832f,
  +0.021660220f,
  -0.027151709f,
  +0.019186672f,
  -0.029370714f,
  +0.026173323f,
  +0.034633957f,
  -0.004522847f,
  +0.029140264f,
  -0.007231854f,
  +0.032823887f,
  +0.028201126f,
  -0.002960712f,
  +0.031963352f,
  -0.013969500f,
  -0.016189519f,
  -0.023183038f,
  -0.006290495f,
  +0.021693999f,
  -0.035273604f,
  +0.005361842f,
  +0.027589047f,
  +0.009384344f,
  -0.002076789f,
  -0.034863424f,
  -0.033465423f,
  +0.028388444f,
  +0.028046552f,
  -0.031315058f,
  -0.005029652f,
  +0.006622631f,
  +0.033358693f,
  +0.037649032f,
  +0.009179015f,
  +0.033561222f,
  +0.020251691f,
  +0.027625214f,
  +0.084332176f,
  -0.023805158f,
  -0.026371406f,
  +0.008795651f,
  -0.032581732f,
  +0.009120665f,
  -0.009174662f,
  +0.000158087f,
  -0.015511823f,
  -0.008261877f,
  -0.006854237f,
  +0.008708160f,
  -0.037147615f,
  -0.022008780f,
  +0.029986892f,
  -0.044444039f,
  -0.036817156f,
  +0.024215799f,
  +0.003525689f,
  -0.031562250f,
  -0.002243396f,
  -0.049093422f,
  -0.054786135f,
  -0.043372240f,
  -0.034050744f,
  -0.013685361f,
  -0.017399579f,
  +0.017824667f,
  +0.017154921f,
  -0.055509496f,
  -0.026511714f,
  -0.022991586f,
  -0.054918401f,
  +0.012849603f,
  -0.003788676f,
  -0.006083544f,
  -0.044274144f,
  +0.015503023f,
  +0.008731471f,
  +0.014825989f,
  +0.023265207f,
  +0.032856941f,
  -0.129387617f,
  -0.012181117f,
  +0.025787313f,
  -0.037314661f,
  +0.033343643f,
  -0.036011010f,
  +0.041785996f,
  +0.054482173f,
  +0.041546833f,
  +0.006217810f,
  -0.064228907f,
  +0.039094161f,
  -0.107526757f,
  -0.065865405f,
  +0.052079935f,
  -0.028786510f,
  +0.017671674f,
  +0.023733240f,
  -0.060735796f,
  -0.025587300f,
  +0.036392756f,
  -0.066700585f,
  -0.048253849f,
  +0.051431660f,
  +0.014441058f,
  -0.003333046f,
  -0.015628306f,
  +0.010581646f,
  -0.034389649f,
  +0.023275543f,
  -0.071201988f,
  -0.009045414f,
  +0.016327284f,
  -0.004842969f,
  -0.002373235f,
  +0.000581842f,
  -0.024207266f,
  -0.005922748f,
  +0.033259440f,
  -0.007034948f,
  +0.077636443f,
  +0.012925294f,
  -0.062658206f,
  -0.007888830f,
  -0.149110124f,
  -0.036415793f,
  -0.006136201f,
  -0.021501355f,
  -0.012427626f,
  -0.023822982f,
  -0.106192000f,
  -0.012508428f,
  -0.023050608f,
  +0.013828816f,
  -0.009910621f,
  +0.039671276f,
  +0.019151792f,
  -0.017152330f,
  -0.023847153f,
  +0.038924251f,
  -0.002328455f,
  +0.024659682f,
  +0.026172150f,
  +0.020426633f,
  +0.005365530f,
  -0.000112273f,
  -0.058125127f,
  +0.037976887f,
  +0.016751293f,
  -0.040627040f,
  -0.036528870f,
  -0.012031517f,
  -0.014082344f,
  -0.053541109f,
  -0.023681756f,
  +0.012836155f,
  +0.026831266f,
  +0.015561759f,
  -0.031020498f,
  -0.021986973f,
  +0.001514200f,
  -0.013132133f,
  -0.024831474f,
  -0.004140202f,
  +0.020765517f,
  +0.007608436f,
  +0.024528872f,
  +0.021931030f,
  +0.079618856f,
  +0.039422985f,
  -0.024331974f,
  -0.003520541f,
  -0.033854418f,
  +0.001586315f,
  +0.015178736f,
  +0.010688718f,
  +0.034205984f,
  -0.009194022f,
  +0.013141226f,
  -0.002394076f,
  -0.004754614f,
  +0.021616831f,
  -0.031594560f,
  +0.036405083f,
  -0.013222419f,
  +0.004326578f,
  +0.027179752f,
  -0.038892459f,
  +0.004032273f,
  -0.022175234f,
  +0.043601751f,
  -0.012376268f,
  -0.017238876f,
  -0.002750372f,
  -0.044982780f,
  +0.048936762f,
  +0.019468257f,
  +0.045022130f,
  -0.001069067f,
  +0.021215457f,
  +0.007842101f,
  +0.021977130f,
  +0.029025871f,
  +0.044344973f,
  +0.017389765f,
  +0.008203393f,
  +0.013241116f,
  -0.006470725f,
  -0.018369876f,
  -0.001561403f,
  -0.002628289f,
  -0.029504299f,
  +0.032669004f,
  +0.034206454f,
  +0.025531370f,
  -0.010868976f,
  -0.021614326f,
  +0.015597478f,
  -0.030950101f,
  +0.000190721f,
  +0.024452616f,
  +0.012229261f,
  -0.000582375f,
  -0.037706152f,
  -0.035078462f,
  -0.000353687f,
  -0.003889896f,
  +0.012191188f,
  -0.033743728f,
  -0.035662159f,
  -0.036538895f,
  +0.003154404f,
  -0.015681373f,
  +0.024031989f,
  +0.025742386f,
  +0.045391738f,
  -0.003133813f,
  -0.012750775f,
  +0.028268168f,
  -0.027886195f,
  -0.017194677f,
  +0.024104137f,
  +0.033537630f,
  -0.008206479f,
  -0.033856519f,
  +0.013329912f,
  +0.027966369f,
  +0.026150059f,
  +0.005289547f,
  -0.018084964f,
  +0.002947863f,
  -0.027187023f,
  -0.023427103f,
  -0.010750749f,
  +0.006194488f,
  -0.024945904f,
  -0.015219403f,
  +0.005685713f,
  -0.010825675f,
  +0.030273762f,
  +0.032712419f,
  -0.004395850f,
  -0.005390242f,
  -0.030518170f,
  +0.011202101f,
  +0.014792070f,
  -0.019124517f,
  -0.005676094f,
  +0.011950613f,
  -0.017852129f,
  +0.003077185f,
  -0.059111234f,
  -0.025278982f,
  -0.019674135f,
  -0.008666642f,
  +0.033382397f,
  -0.015325649f,
  +0.008516733f,
  +0.007159565f,
  -0.026166307f,
  -0.012008054f,
  +0.007604297f,
  -0.024953425f,
  -0.028360821f,
  +0.030973744f,
  +0.034082953f,
  +0.026339818f,
  -0.027024709f,
  +0.037155356f,
  -0.027107812f,
  +0.009680562f,
  +0.002232570f,
  +0.001716588f,
  +0.010655675f,
  +0.030188818f,
  -0.017352298f,
  -0.010281974f,
  +0.002720164f,
  -0.034585886f,
  +0.005825781f,
  +0.000121132f,
  +0.007554457f,
  -0.016230714f,
  -0.012929981f,
  -0.035122287f,
  +0.038736533f,
  +0.000423804f,
  -0.006410368f,
  +0.034328651f,
  +0.015671119f,
  +0.015196711f,
  +0.034171771f,
  +0.027774487f,
  -0.001014262f,
  -0.036784086f,
  +0.029915024f,
  +0.027399790f,
  +0.024054896f,
  -0.006628040f,
  +0.030647527f,
  -0.008017045f,
  +0.003864112f,
  +0.023650287f,
  +0.037346996f,
  +0.031018410f,
  +0.034868557f,
  +0.039383668f,
  -0.019387698f,
  +0.050605923f,
  +0.011007463f,
  -0.004952125f,
  -0.011458519f,
  -0.005446311f,
  +0.010828517f,
  -0.025611479f,
  +0.002037889f,
  -0.017052893f,
  -0.027539985f,
  +0.023583731f,
  +0.004740909f,
  -0.002693038f,
  +0.044935375f,
  +0.001608036f,
  +0.016034670f,
  -0.037506022f,
  -0.013966692f,
  +0.031162482f,
  -0.006629193f,
  +0.019061029f,
  +0.051252075f,
  +0.010175049f,
  +0.051489774f,
  +0.020491086f,
  +0.034794852f,
  +0.021442831f,
  +0.036698196f,
  +0.018273532f,
  +0.023965042f,
  +0.059943389f,
  -0.017940328f,
  +0.013821812f,
  -0.039456535f,
  +0.018824043f,
  +0.013319835f,
  +0.007606053f,
  -0.028702242f,
  +0.017305609f,
  +0.003341556f,
  -0.000144936f,
  +0.007648770f,
  +0.014483959f,
  +0.009442216f,
  +0.001111262f,
  -0.049029175f,
  +0.011255501f,
  -0.026050946f,
  +0.005555478f,
  -0.037791491f,
  -0.014087589f,
  +0.013837258f,
  +0.022546932f,
  -0.000357151f,
  +0.048931692f,
  +0.002497608f,
  +0.044766225f,
  -0.025006494f,
  +0.016260263f,
  +0.017196318f,
  -0.044538472f,
  +0.017407637f,
  -0.011783069f,
  +0.028944742f,
  +0.037054475f,
  -0.009385913f,
  -0.061494980f,
  -0.021900402f,
  -0.032698702f,
  +0.028806299f,
  -0.002028001f,
  +0.010139152f,
  +0.042841054f,
  -0.041241433f,
  -0.008266805f,
  +0.021145811f,
  +0.030955087f,
  -0.026102588f,
  +0.012161780f,
  -0.002048161f,
  +0.005559439f,
  +0.007050749f,
  +0.028940331f,
  -0.028518284f,
  -0.031496048f,
  +0.029513884f,
  +0.029392302f,
  +0.016944561f,
  +0.001500580f,
  +0.018479457f,
  +0.012016179f,
  +0.019270310f,
  +0.018078927f,
  +0.012390585f,
  -0.039152995f,
  -0.027101904f,
  -0.034290388f,
  +0.033742752f,
  -0.005064058f,
  +0.021396447f,
  -0.007726476f,
  -0.025919089f,
  -0.050974205f,
  +0.019287787f,
  -0.030079845f,
  +0.010204337f,
  -0.020777179f,
  -0.005206989f,
  -0.011101895f,
  +0.013547787f,
  -0.048447698f,
  -0.032458641f,
  -0.026270360f,
  -0.020028086f,
  -0.039094426f,
  +0.015094209f,
  +0.013350956f,
  -0.005998961f,
  -0.009067819f,
  +0.029541355f,
  -0.018673640f,
  -0.044668235f,
  -0.027214304f,
  -0.035259996f,
  -0.030422786f,
  -0.059998456f,
  -0.004386883f,
  -0.008833748f,
  -0.072056428f,
  -0.060793318f,
  +0.055133473f,
  -0.027346920f,
  +0.024431385f,
  -0.031705797f,
  +0.032896541f,
  +0.000082544f,
  +0.053390998f,
  +0.034074947f,
  -0.037839323f,
  +0.040591180f,
  -0.071712188f,
  -0.044074327f,
  +0.036173392f,
  -0.013430530f,
  -0.013547927f,
  +0.005751934f,
  -0.083094507f,
  +0.007983439f,
  -0.014944879f,
  -0.060803402f,
  -0.077635124f,
  +0.062486947f,
  +0.017173955f,
  +0.015285360f,
  +0.031979397f,
  -0.022207873f,
  -0.008835522f,
  +0.020866519f,
  -0.010550573f,
  -0.018318869f,
  -0.006470457f,
  +0.034894682f,
  -0.009959771f,
  +0.012206767f,
  -0.030647313f,
  -0.002900844f,
  -0.002034261f,
  +0.015620652f,
  +0.051468741f,
  -0.001435425f,
  -0.019741561f,
  +0.044436254f,
  -0.208920911f,
  -0.028234126f,
  -0.005103976f,
  -0.006582326f,
  -0.003285932f,
  -0.003530013f,
  -0.108585551f,
  -0.007805587f,
  -0.002661232f,
  -0.018354096f,
  +0.032614592f,
  -0.026179256f,
  +0.004350752f,
  -0.005947087f,
  -0.035602931f,
  +0.010586843f,
  -0.032694869f,
  -0.006651942f,
  -0.010163756f,
  -0.056585480f,
  -0.018280433f,
  +0.008540682f,
  -0.088184416f,
  +0.025096793f,
  -0.042651903f,
  -0.043997981f,
  -0.038058173f,
  -0.013227443f,
  +0.038521681f,
  -0.031678844f,
  +0.045484778f,
  -0.000958702f,
  +0.002136696f,
  +0.037191305f,
  +0.005640328f,
  +0.020048104f,
  -0.003226329f,
  -0.038594674f,
  +0.025831303f,
  +0.012665175f,
  -0.044125523f,
  +0.011747780f,
  -0.007561173f,
  +0.001783770f,
  +0.058640905f,
  -0.010980878f,
  +0.007954810f,
  -0.005932187f,
  -0.000542077f,
  +0.034519862f,
  +0.032082975f,
  +0.009427454f,
  -0.026071191f,
  -0.030561052f,
  -0.014798269f,
  +0.038704228f,
  -0.037393462f,
  -0.019214222f,
  +0.007556569f,
  +0.033405609f,
  +0.041715607f,
  +0.000456429f,
  +0.031042751f,
  -0.057701554f,
  +0.021513272f,
  -0.013791534f,
  +0.048267379f,
  -0.019328833f,
  +0.041167799f,
  +0.031764824f,
  -0.044213112f,
  -0.002809439f,
  -0.030870598f,
  +0.012421551f,
  -0.031216737f,
  -0.029125797f,
  +0.032323841f,
  -0.042691849f,
  -0.012414457f,
  +0.001627674f,
  +0.033030283f,
  -0.039267611f,
  +0.045560699f,
  +0.018700562f,
  +0.005831413f,
  -0.019773543f,
  +0.025222588f,
  +0.003089812f,
  -0.000528820f,
  -0.014057757f,
  -0.005406078f,
  -0.039631221f,
  -0.029327946f,
  -0.027957512f,
  +0.021335416f,
  +0.005007321f,
  +0.021260232f,
  -0.031399291f,
  +0.037782598f,
  -0.010538382f,
  -0.039100174f,
  +0.008933432f,
  -0.032331273f,
  +0.009898204f,
  +0.013531833f,
  -0.022048738f,
  +0.010323595f,
  -0.020744562f,
  +0.016023364f,
  -0.022504404f,
  -0.039048769f,
  +0.009479241f,
  -0.001473838f,
  +0.038442355f,
  +0.030369872f,
  -0.039435901f,
  -0.020646581f,
  -0.040945701f,
  +0.005429685f,
  +0.010768842f,
  -0.002093576f,
  +0.000832167f,
  -0.016383136f,
  -0.018203102f,
  +0.000874974f,
  -0.037495345f,
  -0.035272412f,
  +0.013280947f,
  +0.011486415f,
  +0.019103752f,
  -0.028168596f,
  -0.006913487f,
  -0.017539745f,
  -0.036749415f,
  -0.007769424f,
  -0.010613803f,
  -0.022005942f,
  -0.019674344f,
  +0.003744550f,
  +0.032143589f,
  -0.017807860f,
  -0.039577816f,
  -0.008460388f,
  +0.021742683f,
  +0.024854124f,
  +0.009738984f,
  -0.003251204f,
  -0.021112148f,
  +0.004280396f,
  +0.031196710f,
  -0.015920756f,
  +0.010173794f,
  +0.008832205f,
  +0.009820346f,
  -0.035140827f,
  -0.029095411f,
  +0.012099348f,
  +0.035994504f,
  -0.038757313f,
  -0.004193284f,
  -0.035730746f,
  +0.008225147f,
  +0.015435819f,
  +0.030032348f,
  +0.034064207f,
  -0.036809001f,
  +0.021576110f,
  +0.007624380f,
  +0.013246149f,
  -0.026756145f,
  +0.006777339f,
  +0.034967467f,
  -0.011147928f,
  -0.019776782f,
  -0.005277310f,
  -0.037189469f,
  +0.038058903f,
  +0.023724187f,
  +0.022528704f,
  -0.029683733f,
  +0.021053616f,
  +0.034766782f,
  -0.017896088f,
  -0.012454100f,
  +0.006042931f,
  +0.002532005f,
  +0.002580874f,
  +0.020374641f,
  -0.024860777f,
  -0.029090792f,
  -0.040279943f,
  -0.014790440f,
  +0.004329391f,
  +0.018561512f,
  +0.008402880f,
  +0.039263833f,
  +0.029153537f,
  -0.020553438f,
  +0.026025010f,
  +0.011961496f,
  +0.015898332f,
  +0.020122964f,
  +0.015242831f,
  -0.027350634f,
  -0.010105782f,
  +0.039157793f,
  -0.019749336f,
  +0.017204769f,
  +0.027557459f,
  +0.005559905f,
  +0.023132134f,
  +0.013947006f,
  -0.007536400f,
  -0.037939344f,
  +0.012142894f,
  +0.005684104f,
  +0.035748668f,
  +0.001046584f,
  +0.011893105f,
  -0.005452480f,
  -0.005411848f,
  +0.035566662f,
  +0.020815946f,
  +0.035016812f,
  +0.025066134f,
  +0.029928414f,
  -0.034917310f,
  +0.075416729f,
  +0.007461190f,
  -0.022268707f,
  +0.004284538f,
  +0.035585511f,
  -0.000800513f,
  +0.031658079f,
  +0.020281747f,
  -0.010820752f,
  +0.004268005f,
  -0.008907292f,
  +0.039002426f,
  -0.021307398f,
  -0.014093639f,
  -0.008294176f,
  +0.019806750f,
  -0.006993469f,
  -0.003426813f,
  -0.024896707f,
  -0.005184554f,
  -0.000559742f,
  +0.000947736f,
  +0.023226000f,
  +0.026590545f,
  +0.002579905f,
  -0.009945809f,
  -0.034837179f,
  +0.019503910f,
  -0.011414751f,
  +0.014873993f,
  +0.003001506f,
  +0.021893747f,
  +0.050151560f,
  +0.043776967f,
  +0.004735780f,
  -0.009234399f,
  +0.002289613f,
  -0.007505138f,
  +0.013979480f,
  -0.009589180f,
  +0.011686366f,
  +0.021996487f,
  -0.011577168f,
  +0.004731901f,
  -0.013074515f,
  -0.036480024f,
  -0.001131249f,
  +0.025804473f,
  -0.032291856f,
  -0.007604125f,
  +0.028206181f,
  -0.003853475f,
  +0.019905830f,
  +0.027337153f,
  +0.026910644f,
  -0.018880563f,
  +0.018428251f,
  +0.022846172f,
  -0.020093128f,
  -0.033050910f,
  +0.029144397f,
  -0.001373235f,
  -0.025411356f,
  +0.040249616f,
  +0.005707998f,
  -0.027578000f,
  +0.027157513f,
  -0.018844582f,
  -0.020447170f,
  +0.021873757f,
  +0.003255992f,
  -0.035843417f,
  -0.013157708f,
  -0.000326983f,
  +0.009745277f,
  -0.016215451f,
  -0.020749541f,
  -0.016750667f,
  +0.010658778f,
  -0.006097300f,
  -0.035770170f,
  -0.029387591f,
  -0.021407943f,
  +0.012968969f,
  -0.051977083f,
  -0.051219512f,
  -0.051731985f,
  -0.023391502f,
  +0.008404309f,
  +0.004905988f,
  -0.034339879f,
  -0.022684941f,
  -0.019062882f,
  -0.031480990f,
  +0.016500928f,
  +0.012791295f,
  +0.039505761f,
  +0.002305791f,
  -0.005362886f,
  -0.003046344f,
  -0.011340421f,
  -0.035302822f,
  -0.070916049f,
  +0.048040286f,
  +0.019971175f,
  -0.115562998f,
  -0.083157457f,
  +0.002555624f,
  -0.006534278f,
  +0.036878899f,
  -0.013894588f,
  +0.034445148f,
  +0.052586701f,
  +0.007465967f,
  -0.013609202f,
  -0.003108004f,
  +0.018096801f,
  -0.044192780f,
  -0.015618663f,
  +0.043651652f,
  +0.030549694f,
  -0.009430530f,
  -0.010159224f,
  -0.048687898f,
  -0.027085215f,
  -0.005453569f,
  -0.016539028f,
  -0.040581871f,
  +0.076930068f,
  -0.032735147f,
  -0.011243226f,
  +0.022687223f,
  -0.000459161f,
  -0.044886351f,
  +0.001903776f,
  -0.080158919f,
  +0.038586773f,
  +0.027457159f,
  +0.023476057f,
  -0.003783489f,
  +0.031955015f,
  -0.031823207f,
  -0.061429564f,
  +0.049053062f,
  -0.019808218f,
  +0.025701428f,
  +0.022258716f,
  -0.068711035f,
  +0.039866418f,
  -0.197018281f,
  +0.029990794f,
  +0.042904854f,
  -0.025212239f,
  -0.038169824f,
  +0.041765500f,
  -0.129120260f,
  +0.018665090f,
  -0.024110330f,
  +0.003626534f,
  +0.001403667f,
  -0.003993325f,
  +0.011258401f,
  +0.018741939f,
  +0.033606384f,
  -0.012960723f,
  -0.024497036f,
  -0.002191622f,
  -0.000011817f,
  -0.066845074f,
  +0.010323911f,
  +0.027559262f,
  -0.015000863f,
  +0.020361222f,
  -0.016148886f,
  +0.022566207f,
  -0.004669280f,
  +0.007886673f,
  +0.033516545f,
  -0.041724019f,
  -0.018071840f,
  -0.023450723f,
  -0.033141460f,
  +0.020644423f,
  +0.007007580f,
  -0.021550877f,
  +0.013327103f,
  -0.031810649f,
  -0.003726789f,
  -0.034762859f,
  -0.013621389f,
  +0.010527332f,
  +0.007857290f,
  +0.032044187f,
  +0.015556280f,
  -0.016094711f,
  -0.022244630f,
  +0.025512742f,
  -0.002321957f,
  -0.003967070f,
  +0.026274130f,
  +0.008565489f,
  +0.014628142f,
  -0.035997927f,
  +0.008676820f,
  +0.029744845f,
  +0.012735881f,
  -0.003082756f,
  -0.003570158f,
  +0.027519418f,
  +0.037706945f,
  +0.032658089f,
  +0.038246829f,
  +0.016734868f,
  -0.027497057f,
  +0.016663095f,
  +0.017917369f,
  -0.006744108f,
  +0.029887224f,
  -0.014652682f,
  -0.032375209f,
  +0.010754241f,
  +0.030444758f,
  -0.019940663f,
  -0.031014303f,
  +0.009408377f,
  +0.038587872f,
  +0.021378744f,
  -0.017411549f,
  +0.003509673f,
  -0.010370247f,
  +0.035403047f,
  -0.009365728f,
  -0.028154261f,
  -0.009079225f,
  -0.001003988f,
  -0.031937845f,
  +0.012162950f,
  -0.002322111f,
  +0.026299696f,
  -0.038011815f,
  +0.025070447f,
  +0.037655715f,
  -0.038814280f,
  +0.025600970f,
  -0.024651827f,
  +0.034778453f,
  -0.025595520f,
  +0.032593291f,
  +0.012086015f,
  +0.000218157f,
  +0.002899833f,
  -0.033670243f,
  +0.022877831f,
  +0.022150863f,
  +0.024673399f,
  -0.012318525f,
  +0.035654631f,
  -0.010986697f,
  -0.032004599f,
  +0.015104190f,
  -0.022016050f,
  +0.017612707f,
  -0.017720783f,
  +0.032627150f,
  -0.041303776f,
  +0.037951816f,
  -0.013463599f,
  +0.012818977f,
  +0.020609319f,
  +0.032546271f,
  +0.008672204f,
  -0.038550355f,
  +0.027757127f,
  +0.004533753f,
  -0.024418529f,
  +0.035877798f,
  +0.031110097f,
  -0.015544921f,
  -0.030178469f,
  -0.001599119f,
  -0.039162528f,
  -0.037372205f,
  -0.029699620f,
  -0.016927250f,
  +0.001493640f,
  +0.014059365f,
  +0.031102125f,
  +0.035569388f,
  +0.018897086f,
  +0.016750213f,
  -0.024322227f,
  +0.016092967f,
  +0.022613760f,
  -0.012594768f,
  -0.021538554f,
  -0.008897826f,
  -0.052915629f,
  -0.029306740f,
  +0.011996865f,
  +0.031999256f,
  +0.018701658f,
  +0.019888476f,
  +0.010634828f,
  +0.027138460f,
  +0.004925113f,
  -0.022067450f,
  -0.029116854f,
  -0.039867956f,
  -0.002347082f,
  +0.009718291f,
  -0.027676476f,
  -0.007363677f,
  -0.019378852f,
  -0.021110686f,
  -0.024946626f,
  -0.020653516f,
  -0.017592121f,
  -0.025891753f,
  -0.017401636f,
  +0.032762986f,
  -0.008352722f,
  +0.026235424f,
  -0.027998244f,
  -0.029697631f,
  -0.007757573f,
  +0.024638806f,
  -0.001868133f,
  -0.009789035f,
  -0.000961370f,
  +0.010478314f,
  +0.031880151f,
  +0.005729977f,
  +0.007467940f,
  +0.039801929f,
  +0.039737944f,
  -0.030397983f,
  -0.028996287f,
  +0.004314508f,
  +0.012670562f,
  -0.000817168f,
  +0.007340163f,
  +0.018049967f,
  +0.027496029f,
  -0.007449724f,
  -0.005872019f,
  -0.038931534f,
  +0.001662899f,
  +0.035924125f,
  -0.004866441f,
  +0.020709775f,
  -0.018569767f,
  +0.008820748f,
  +0.019201811f,
  +0.042922951f,
  +0.004651489f,
  -0.028439023f,
  -0.037860423f,
  +0.039166179f,
  +0.026016686f,
  -0.033941519f,
  -0.024211194f,
  +0.036265757f,
  -0.032730322f,
  -0.035800431f,
  -0.034966789f,
  +0.018809194f,
  +0.011533438f,
  +0.010946330f,
  +0.037299749f,
  -0.024565419f,
  +0.006422660f,
  +0.027549166f,
  +0.049931902f,
  -0.018735902f,
  +0.019023528f,
  +0.012194663f,
  +0.056056123f,
  +0.004062239f,
  +0.025092741f,
  +0.026341889f,
  +0.017025974f,
  -0.028804734f,
  +0.011901598f,
  +0.008428813f,
  +0.014584999f,
  -0.017621949f,
  +0.022591610f,
  +0.045554914f,
  +0.009868789f,
  -0.029049816f,
  -0.002418637f,
  +0.010175347f,
  +0.022264525f,
  +0.013486236f,
  -0.031197678f,
  +0.010734919f,
  +0.020499149f,
  -0.006322674f,
  +0.008542853f,
  -0.026825454f,
  +0.012538712f,
  +0.042866874f,
  +0.022569066f,
  -0.007274523f,
  +0.016134087f,
  -0.039228618f,
  +0.014769866f,
  +0.049667511f,
  +0.052341375f,
  -0.014934323f,
  +0.027332285f,
  -0.004167933f,
  -0.011747503f,
  +0.010432659f,
  +0.032861356f,
  -0.025409900f,
  -0.001558520f,
  +0.034685958f,
  -0.064912170f,
  -0.052340273f,
  +0.051741991f,
  -0.029205112f,
  -0.018092070f,
  +0.047987524f,
  +0.025717609f,
  +0.003006300f,
  -0.032239262f,
  +0.020187803f,
  -0.030299133f,
  +0.013521101f,
  +0.011556435f,
  +0.002541259f,
  +0.001232486f,
  +0.019990852f,
  +0.011519391f,
  +0.031440351f,
  +0.002501292f,
  -0.026992198f,
  +0.013529051f,
  +0.075312220f,
  +0.036780175f,
  +0.018844567f,
  -0.046302021f,
  +0.014147518f,
  -0.039159711f,
  -0.036776014f,
  +0.015260569f,
  -0.032721385f,
  -0.016474819f,
  +0.009011148f,
  -0.033169571f,
  -0.027915554f,
  +0.044755094f,
  -0.016339865f,
  +0.008998194f,
  -0.021782283f,
  +0.036501426f,
  +0.021913055f,
  +0.014236338f,
  -0.021333719f,
  -0.035293307f,
  -0.009922959f,
  -0.046965349f,
  -0.003786049f,
  +0.004622322f,
  +0.014043398f,
  +0.025372399f,
  -0.008497909f,
  -0.060999285f,
  +0.017982803f,
  -0.023255099f,
  -0.032587364f,
  +0.006587189f,
  -0.009325461f,
  -0.030632533f,
  +0.006569229f,
  +0.038924534f,
  -0.008563416f,
  -0.056782480f,
  -0.024720820f,
  +0.043916434f,
  -0.133313984f,
  -0.073983572f,
  +0.031907763f,
  -0.000089981f,
  +0.010739477f,
  +0.021195883f,
  +0.058226127f,
  -0.003886165f,
  +0.017185695f,
  -0.034749046f,
  -0.000663368f,
  -0.028194465f,
  -0.056396250f,
  -0.013268446f,
  +0.025816891f,
  +0.018965144f,
  +0.023586083f,
  -0.028216589f,
  -0.017981855f,
  +0.035004135f,
  -0.005471246f,
  -0.017803699f,
  -0.058845662f,
  +0.050332852f,
  -0.018364843f,
  +0.015048373f,
  +0.013572813f,
  -0.020618910f,
  -0.002668614f,
  +0.003411098f,
  -0.061243579f,
  +0.016887132f,
  +0.021329064f,
  +0.006623181f,
  +0.030720832f,
  +0.017361097f,
  -0.004796417f,
  -0.067652181f,
  +0.027230866f,
  +0.023007028f,
  +0.041211564f,
  -0.011308933f,
  -0.040074456f,
  -0.027592873f,
  -0.192998737f,
  +0.020441402f,
  +0.039186522f,
  -0.017212315f,
  -0.034603897f,
  +0.023061801f,
  -0.133052409f,
  -0.019335071f,
  -0.040216517f,
  -0.048495617f,
  -0.014130825f,
  +0.011716265f,
  -0.007944386f,
  -0.017993744f,
  +0.005819764f,
  +0.025856096f,
  -0.016865598f,
  -0.000495613f,
  -0.039392866f,
  -0.021874400f,
  -0.002577159f,
  -0.026531551f,
  -0.053292766f,
  -0.011592994f,
  +0.011432668f,
  +0.014311912f,
  -0.000124504f,
  +0.000858895f,
  -0.018664472f,
  -0.077228010f,
  -0.050064821f,
  -0.057177741f,
  -0.038839869f,
  -0.012128973f,
  +0.036505554f,
  +0.006897002f,
  +0.002782550f,
  -0.030679554f,
  +0.008731948f,
  +0.005535796f,
  +0.027027655f,
  -0.016858231f,
  +0.015437142f,
  -0.029108383f,
  +0.005357491f,
  -0.006440882f,
  -0.020485679f,
  -0.011985558f,
  +0.008760242f,
  +0.009253010f,
  +0.017109113f,
  +0.030056532f,
  +0.031394314f,
  +0.031442855f,
  +0.008544806f,
  +0.001489419f,
  +0.022740807f,
  -0.020338750f,
  +0.014375485f,
  -0.006212378f,
  -0.005563133f,
  -0.022683915f,
  +0.031918418f,
  -0.038597088f,
  -0.016016470f,
  +0.029355370f,
  +0.023609051f,
  +0.020815220f,
  -0.031095428f,
  -0.005747957f,
  -0.026451331f,
  -0.010574074f,
  +0.040420026f,
  +0.037511386f,
  +0.002134297f,
  +0.030333990f,
  -0.010750583f,
  +0.020324543f,
  -0.037249535f,
  +0.007333468f,
  +0.018321218f,
  +0.000752723f,
  +0.029509388f,
  +0.029603932f,
  +0.025836315f,
  +0.022357922f,
  +0.032120693f,
  -0.033723455f,
  -0.033089705f,
  -0.015695658f,
  +0.012648899f,
  -0.021940988f,
  -0.038756762f,
  +0.035657685f,
  -0.043320164f,
  -0.053122904f,
  +0.021431442f,
  +0.026896261f,
  -0.037453599f,
  -0.013941960f,
  +0.019392613f,
  -0.006715707f,
  -0.021095850f,
  -0.018481949f,
  +0.016524715f,
  -0.030230772f,
  +0.031017166f,
  -0.014042750f,
  +0.002514616f,
  -0.045442984f,
  -0.018376075f,
  -0.012626741f,
  +0.022732032f,
  -0.000694439f,
  -0.032316789f,
  -0.027742563f,
  +0.026506906f,
  +0.000432975f,
  -0.009752287f,
  -0.038511369f,
  +0.017456468f,
  +0.025732864f,
  -0.011748901f,
  -0.002083842f,
  -0.008713037f,
  +0.029049177f,
  -0.025980487f,
  +0.039392520f,
  +0.003884718f,
  +0.027580617f,
  +0.036670431f,
  -0.015634350f,
  -0.035565011f,
  +0.010430519f,
  +0.013485048f,
  +0.007403899f,
  +0.025582198f,
  +0.020707883f,
  -0.015023120f,
  +0.035202194f,
  +0.007223863f,
  -0.028506510f,
  +0.013769999f,
  +0.008363951f,
  +0.003137508f,
  -0.050353557f,
  +0.005339194f,
  -0.001689830f,
  +0.027478043f,
  -0.023518208f,
  -0.003178619f,
  +0.027595025f,
  -0.036308035f,
  -0.002868503f,
  -0.000175305f,
  -0.050884303f,
  +0.010563057f,
  +0.022971164f,
  +0.022873152f,
  +0.010217551f,
  +0.020471163f,
  -0.005321782f,
  -0.021460200f,
  -0.037730064f,
  +0.006195802f,
  -0.039775588f,
  +0.024146084f,
  +0.011198826f,
  -0.020236922f,
  -0.032751530f,
  +0.025341127f,
  -0.004701523f,
  +0.028107621f,
  +0.004326897f,
  +0.016668513f,
  -0.050005697f,
  +0.005256351f,
  +0.016851380f,
  -0.005035631f,
  +0.024842935f,
  -0.032292858f,
  +0.003291085f,
  +0.000572462f,
  -0.021866186f,
  -0.031608824f,
  -0.021730810f,
  -0.022607211f,
  +0.036152702f,
  +0.001930166f,
  +0.021871231f,
  -0.005046241f,
  +0.014040891f,
  -0.039359003f,
  +0.037540931f,
  +0.031100053f,
  +0.013971850f,
  +0.032372754f,
  -0.021280041f,
  +0.026465049f,
  +0.009146361f,
  +0.026917901f,
  +0.013623346f,
  -0.025609110f,
  +0.039363004f,
  -0.000607822f,
  -0.009282242f,
  -0.028602958f,
  +0.026692826f,
  -0.024341187f,
  +0.007496992f,
  +0.035994183f,
  -0.006815324f,
  -0.008053735f,
  -0.012411581f,
  -0.004562784f,
  +0.035414856f,
  +0.035312783f,
  +0.026850766f,
  -0.037268542f,
  +0.001840211f,
  -0.013373593f,
  -0.006794157f,
  -0.026305746f,
  +0.046620253f,
  +0.010747381f,
  +0.002167080f,
  -0.001722690f,
  +0.073491208f,
  -0.007803973f,
  -0.034305803f,
  +0.003413692f,
  -0.022145022f,
  +0.014633343f,
  +0.038637619f,
  +0.007421982f,
  -0.007022024f,
  +0.012019034f,
  +0.019755621f,
  +0.048213102f,
  +0.008763116f,
  -0.013690254f,
  +0.026746746f,
  +0.005240411f,
  -0.025721885f,
  +0.035609107f,
  -0.032364782f,
  -0.008306437f,
  -0.019461479f,
  +0.033729281f,
  +0.003838168f,
  -0.019020017f,
  -0.033064820f,
  +0.037966091f,
  +0.002058663f,
  +0.012529532f,
  -0.000963640f,
  +0.013289306f,
  -0.033862114f,
  +0.022502419f,
  +0.032745849f,
  -0.017505169f,
  -0.031992380f,
  -0.028432298f,
  +0.039171703f,
  -0.010359835f,
  -0.030473262f,
  -0.026508935f,
  -0.025357649f,
  +0.007500652f,
  -0.012845189f,
  +0.017177403f,
  -0.002733298f,
  +0.025534881f,
  -0.041738488f,
  +0.018139740f,
  +0.019096013f,
  +0.040467758f,
  -0.017539483f,
  -0.003116255f,
  +0.013327033f,
  -0.010176459f,
  +0.033345941f,
  -0.004474852f,
  -0.027606750f,
  +0.014347626f,
  -0.037261359f,
  -0.004741624f,
  -0.010695173f,
  -0.037469652f,
  -0.016149161f,
  +0.055379778f,
  -0.006397866f,
  -0.024961501f,
  +0.015709503f,
  +0.017096177f,
  -0.006694844f,
  -0.033291187f,
  -0.007955464f,
  +0.019316928f,
  -0.014929238f,
  +0.003877281f,
  -0.023237344f,
  -0.024054283f,
  +0.029827304f,
  -0.001634091f,
  -0.048699893f,
  +0.026937567f,
  +0.008484166f,
  -0.048349444f,
  +0.035067439f,
  -0.006387200f,
  -0.057398308f,
  -0.017266573f,
  -0.029087095f,
  -0.012918790f,
  -0.051067315f,
  +0.001535825f,
  -0.046168674f,
  -0.058194373f,
  -0.047309872f,
  +0.012038935f,
  -0.009256890f,
  -0.022735376f,
  -0.030847706f,
  -0.042378150f,
  -0.000279401f,
  -0.049376749f,
  +0.033706311f,
  -0.025251325f,
  -0.123652108f,
  +0.019056370f,
  +0.018814249f,
  -0.138293356f,
  -0.038374174f,
  +0.043376755f,
  +0.035326455f,
  +0.000723163f,
  +0.027734136f,
  +0.023124401f,
  +0.039892923f,
  +0.002712672f,
  -0.034901649f,
  -0.053977631f,
  -0.035185020f,
  -0.105857655f,
  -0.077409729f,
  +0.057763677f,
  +0.018376913f,
  -0.020373488f,
  -0.011059869f,
  -0.029841997f,
  -0.016172148f,
  +0.004419118f,
  -0.061614782f,
  -0.062005781f,
  +0.038867828f,
  -0.055367380f,
  -0.060311049f,
  +0.090383388f,
  +0.033153180f,
  -0.009777761f,
  +0.044716012f,
  -0.057996601f,
  +0.006913314f,
  +0.002840713f,
  -0.023764394f,
  +0.004633381f,
  +0.031879079f,
  -0.002276407f,
  -0.028925473f,
  -0.017411122f,
  +0.006399574f,
  +0.020192808f,
  -0.027481258f,
  -0.044617563f,
  +0.035083946f,
  -0.173927218f,
  -0.033139583f,
  -0.024580734f,
  -0.053382777f,
  -0.017745180f,
  -0.018436123f,
  -0.191135302f,
  -0.015926909f,
  -0.038739711f,
  -0.033893596f,
  -0.019644128f,
  +0.016967949f,
  +0.013937674f,
  +0.030155350f,
  -0.037328221f,
  -0.007289331f,
  +0.011858966f,
  -0.015197521f,
  -0.017501198f,
  -0.014435255f,
  -0.033993870f,
  +0.019619264f,
  -0.031877894f,
  +0.038744602f,
  -0.011579288f,
  -0.025881797f,
  +0.014156256f,
  +0.004142588f,
  -0.037257515f,
  -0.063615829f,
  -0.033099674f,
  -0.004840179f,
  -0.005514000f,
  -0.030323297f,
  +0.009186119f,
  -0.007512860f,
  -0.025688309f,
  -0.006481733f,
  +0.001609327f,
  -0.012173550f,
  -0.007418354f,
  +0.020425523f,
  -0.008476174f,
  -0.022606747f,
  +0.032936420f,
  -0.007943500f,
  -0.051837135f,
  -0.020802321f,
  +0.007412658f,
  +0.020974012f,
  +0.025753684f,
  -0.008542120f,
  +0.021055341f,
  +0.026943732f,
  -0.021394074f,
  +0.010394387f,
  +0.015156973f,
  +0.039701935f,
  -0.018867755f,
  -0.012542072f,
  +0.046107873f,
  +0.011754119f,
  +0.029851463f,
  -0.028732251f,
  +0.010419775f,
  -0.002729078f,
  -0.002301846f,
  -0.024632249f,
  -0.004211346f,
  -0.018567700f,
  +0.014602906f,
  +0.039479338f,
  +0.006441833f,
  +0.016122440f,
  -0.017857956f,
  +0.002690886f,
  -0.012361499f,
  -0.025262341f,
  -0.039774463f,
  -0.013079552f,
  -0.027908931f,
  -0.041156355f,
  -0.002138938f,
  +0.033941146f,
  +0.018871658f,
  -0.024821106f,
  -0.020266281f,
  +0.031391915f,
  +0.021851290f,
  -0.030526321f,
  +0.009831727f,
  +0.003933646f,
  +0.010753199f,
  -0.021006610f,
  -0.031064557f,
  -0.025771335f,
  +0.017269388f,
  -0.011242992f,
  -0.002740812f,
  -0.016333437f,
  -0.000662625f,
  +0.026939537f,
  +0.001027290f,
  -0.015954601f,
  -0.011765744f,
  +0.007468369f,
  +0.003142767f,
  +0.002364155f,
  +0.014177926f,
  -0.014309381f,
  +0.028127331f,
  +0.022624759f,
  +0.023257492f,
  -0.036873117f,
  +0.027451666f,
  -0.013318733f,
  -0.008356666f,
  -0.044790141f,
  -0.004818711f,
  -0.039312873f,
  -0.004854832f,
  +0.030473251f,
  +0.024717163f,
  -0.031987842f,
  -0.030182816f,
  +0.015363235f,
  +0.028424840f,
  +0.027172785f,
  +0.000654113f,
  -0.010144652f,
  -0.007845392f,
  -0.000703666f,
  +0.014661379f,
  -0.025269762f,
  +0.034615513f,
  +0.035801154f,
  +0.010497797f,
  +0.009107079f,
  -0.024926143f,
  -0.039402835f,
  -0.039318293f,
  +0.003046941f,
  -0.038240369f,
  -0.022355838f,
  -0.004775141f,
  -0.006596215f,
  +0.045648549f,
  +0.006679695f,
  -0.034687761f,
  +0.038607772f,
  -0.021603776f,
  -0.017220456f,
  +0.008072104f,
  +0.022173591f,
  +0.019246925f,
  -0.032629244f,
  -0.009984670f,
  +0.037364330f,
  -0.020314096f,
  -0.004422631f,
  +0.011831671f,
  -0.003111258f,
  +0.034638572f,
  +0.031551991f,
  -0.033069182f,
  -0.033808749f,
  +0.009864103f,
  -0.002234768f,
  -0.023543548f,
  +0.011392642f,
  +0.017387953f,
  +0.044248123f,
  +0.008389326f,
  -0.051369879f,
  +0.003796592f,
  +0.004279277f,
  -0.012488011f,
  -0.002990071f,
  -0.008741776f,
  +0.031458359f,
  +0.005280584f,
  +0.017006602f,
  +0.025723096f,
  +0.025704850f,
  -0.019375710f,
  -0.007241659f,
  +0.004197359f,
  +0.031428713f,
  -0.030434646f,
  -0.008942410f,
  +0.013260780f,
  +0.025856297f,
  +0.016232666f,
  +0.023971956f,
  -0.018964173f,
  +0.017051704f,
  -0.015936993f,
  +0.019449661f,
  +0.022895319f,
  +0.040959038f,
  -0.023266187f,
  +0.010664567f,
  +0.016061559f,
  +0.023171773f,
  -0.014376153f,
  +0.019191114f,
  -0.016742354f,
  +0.023790140f,
  -0.035627052f,
  +0.019046543f,
  +0.014213294f,
  -0.031933285f,
  -0.021510728f,
  +0.011300813f,
  +0.019806573f,
  +0.014532477f,
  +0.023114715f,
  +0.003252049f,
  -0.032087553f,
  -0.005394533f,
  +0.012240846f,
  -0.033542693f,
  +0.018602222f,
  +0.043757830f,
  +0.002766866f,
  +0.014029764f,
  +0.020911355f,
  +0.071069308f,
  -0.007706117f,
  -0.014741597f,
  +0.010744486f,
  +0.016705092f,
  -0.024050541f,
  -0.007515974f,
  +0.005377366f,
  +0.022197234f,
  +0.056948438f,
  -0.025509575f,
  +0.004624495f,
  -0.037004121f,
  -0.010754840f,
  -0.003931798f,
  +0.004067019f,
  -0.013753342f,
  -0.023283843f,
  +0.020902745f,
  -0.029237604f,
  +0.034910649f,
  +0.032809991f,
  +0.019518472f,
  -0.029119045f,
  +0.008051611f,
  -0.016715541f,
  +0.027339859f,
  +0.025613219f,
  -0.017337175f,
  +0.026135262f,
  -0.007869874f,
  -0.004547953f,
  +0.029721471f,
  -0.019054228f,
  -0.005225435f,
  +0.010286208f,
  +0.008781600f,
  -0.021865398f,
  -0.007083345f,
  -0.002402838f,
  +0.022190236f,
  -0.036277618f,
  -0.030378014f,
  -0.058372002f,
  -0.021215713f,
  -0.001674784f,
  +0.027425312f,
  -0.011601559f,
  -0.008674959f,
  -0.020882072f,
  +0.006941407f,
  -0.017878290f,
  -0.020480713f,
  +0.012944736f,
  -0.002108812f,
  +0.026555222f,
  +0.016986873f,
  -0.009975965f,
  +0.039529774f,
  -0.032551818f,
  -0.031051632f,
  +0.008556966f,
  -0.036933787f,
  +0.061950833f,
  -0.027167901f,
  -0.036360752f,
  -0.020554109f,
  -0.006598450f,
  +0.013913382f,
  -0.017935522f,
  -0.018860970f,
  +0.007838425f,
  -0.042849381f,
  -0.015657784f,
  +0.038173426f,
  -0.002380620f,
  +0.044341423f,
  +0.029030677f,
  +0.012519250f,
  -0.045274138f,
  -0.025680423f,
  -0.021509610f,
  -0.033054177f,
  -0.031828649f,
  -0.018135360f,
  +0.012549017f,
  +0.010544216f,
  -0.028705282f,
  -0.034563649f,
  -0.026599221f,
  +0.012495110f,
  -0.010372720f,
  -0.048309878f,
  -0.017147291f,
  +0.007559298f,
  -0.018039247f,
  +0.019762460f,
  +0.015038591f,
  -0.031148950f,
  -0.004506114f,
  -0.012428800f,
  +0.021067753f,
  -0.123866498f
};

static float MEAN_FEATURES[376] = {
  +481.739000000f,
  +14100.097000000f,
  +34.398500000f,
  +100.960000000f,
  +33.345000000f,
  +0.000000000f,
  +24.881000000f,
  +2.070000000f,
  +1563.863000000f,
  +0.874500000f,
  +0.027000000f,
  +3432.361500000f,
  +50492.766253752f,
  +2389.620878649f,
  +12535.167265710f,
  +0.227654354f,
  +4.530000000f,
  +0.000000000f,
  +0.000000000f,
  +0.000000000f,
  +28292.737869614f,
  +0.000000000f,
  +781.818981426f,
  +1259.985374509f,
  +87.003468062f,
  +1939.311763378f,
  +50.929926515f,
  +11489.729784103f,
  +792.328465074f,
  +0.000000000f,
  +12.358186044f,
  +131.469347873f,
  +32.266175878f,
  +598.186773395f,
  +0.000000000f,
  +274.413017165f,
  +115.491158594f,
  +0.000000000f,
  +19208.495494928f,
  +101.039645567f,
  +271.497943882f,
  +6.462716409f,
  +0.374382722f,
  +10674.784495892f,
  +6049.402437125f,
  +5.222555495f,
  +7.228337991f,
  +7946.411683449f,
  +6225.335620940f,
  +23.909108253f,
  +1.354345717f,
  +0.000030857f,
  +7.105954111f,
  +7.306385636f,
  +7.410591648f,
  +18.561791322f,
  +0.000000000f,
  +0.000000000f,
  +0.000000000f,
  +0.000000000f,
  +0.000000000f,
  +0.000000000f,
  +0.000000000f,
  +0.000000000f,
  +0.000000000f,
  +285.380599707f,
  +856.743284978f,
  +0.000000000f,
  +75.344759689f,
  +0.000000000f,
  +51.862893712f,
  +21.894069482f,
  +40.396004389f,
  +0.046937517f,
  +0.000000000f,
  +4178.202184279f,
  +1501.355966965f,
  +905.228170782f,
  +0.000000000f,
  +0.000000000f,
  +0.000000000f,
  +0.000000000f,
  +0.000000000f,
  +0.000000000f,
  +3433.737500000f,
  +0.000000000f,
  +1212.787500000f,
  +3009.222500000f,
  +8384.381500000f,
  +553.352500000f,
  +311.769500000f,
  +0.000000000f,
  +3.963000000f,
  +14007.775000000f,
  +0.683500000f,
  +0.145000000f,
  +0.001000000f,
  +0.000000000f,
  +0.000000000f,
  +0.000000000f,
  +0.000000000f,
  +0.000000000f,
  +0.000000000f,
  +0.000000000f,
  +0.000000000f,
  +0.001000000f,
  +0.000500000f,
  +0.014000000f,
  +0.000000000f,
  +0.009000000f,
  +0.000000000f,
  +0.007500000f,
  +0.000500000f,
  +0.041500000f,
  +0.000500000f,
  +0.006500000f,
  +0.034500000f,
  +0.040000000f,
  +0.000500000f,
  +0.006000000f,
  +0.031000000f,
  +0.000500000f,
  +0.006500000f,
  +0.017000000f,
  +0.000000000f,
  +0.010500000f,
  +0.683500000f,
  +0.145000000f,
  +0.001000000f,
  +0.000000000f,
  +0.000000000f,
  +0.000000000f,
  +0.000000000f,
  +0.000000000f,
  +0.000000000f,
  +0.000000000f,
  +0.000000000f,
  +0.000000000f,
  +0.000000000f,
  +0.000000000f,
  +0.000500000f,
  +0.001000000f,
  +0.040000000f,
  +0.000500000f,
  +0.000000000f,
  +0.000000000f,
  +0.000000000f,
  +0.000000000f,
  +0.000000000f,
  +0.000000000f,
  +0.000500000f,
  +0.000000000f,
  +0.000000000f,
  +0.000000000f,
  +0.000000000f,
  +0.000500000f,
  +0.000000000f,
  +0.006000000f,
  +0.000500000f,
  +0.000000000f,
  +0.028500000f,
  +0.031000000f,
  +0.001500000f,
  +0.017000000f,
  +0.000000000f,
  +0.000000000f,
  +0.000000000f,
  +0.000000000f,
  +0.000000000f,
  +0.000000000f,
  +0.000000000f,
  +0.000000000f,
  +0.000000000f,
  +0.000000000f,
  +0.000000000f,
  +0.000500000f,
  +0.000500000f,
  +0.000000000f,
  +0.000000000f,
  +0.000000000f,
  +0.000000000f,
  +0.000000000f,
  +0.000000000f,
  +0.000000000f,
  +0.000000000f,
  +0.000000000f,
  +0.000000000f,
  +0.000000000f,
  +0.000000000f,
  +0.000000000f,
  +0.006500000f,
  +0.005000000f,
  +0.000500000f,
  +0.003500000f,
  +0.000000000f,
  +0.000000000f,
  +0.000000000f,
  +0.000000000f,
  +0.000000000f,
  +0.000000000f,
  +0.000000000f,
  +0.002000000f,
  +0.000000000f,
  +0.000000000f,
  +0.000000000f,
  +0.000000000f,
  +0.000000000f,
  +0.000000000f,
  +0.000000000f,
  +0.000000000f,
  +0.000000000f,
  +0.000000000f,
  +0.000000000f,
  +0.000000000f,
  +0.000000000f,
  +0.000000000f,
  +0.000000000f,
  +0.045000000f,
  +0.037500000f,
  +0.056500000f,
  +0.000000000f,
  +1.453000000f,
  +1.000000000f,
  +0.000000000f,
  +42.000000000f,
  +0.012500000f,
  +0.000000000f,
  +1.000000000f,
  +1.000000000f,
  +0.000000000f,
  +0.000000000f,
  +2.000000000f,
  +0.000000000f,
  +1.000000000f,
  +1.000000000f,
  +0.000000000f,
  +0.205000000f,
  +1.000000000f,
  +1.000000000f,
  +1.000000000f,
  +0.000000000f,
  +0.000000000f,
  +2.000000000f,
  +0.043500000f,
  +0.520000000f,
  +0.059500000f,
  +0.000000000f,
  +0.000000000f,
  +2.115500000f,
  +435.427500000f,
  +1.748500000f,
  +0.704500000f,
  +0.000000000f,
  +0.956500000f,
  +0.000000000f,
  +1.098500000f,
  +0.000000000f,
  +0.410500000f,
  +0.000000000f,
  +0.000000000f,
  +0.282000000f,
  +1.000000000f,
  +0.282500000f,
  +0.220000000f,
  +1.000000000f,
  +0.000000000f,
  +5.000000000f,
  +0.224500000f,
  +0.000000000f,
  +160.005500000f,
  +0.000000000f,
  +1.029000000f,
  +0.000000000f,
  +105.029500000f,
  +128000.000000000f,
  +0.087000000f,
  +0.000000000f,
  +1.000000000f,
  +0.000000000f,
  +0.000000000f,
  +2.208500000f,
  +20.608500000f,
  +0.446000000f,
  +1.000000000f,
  +3.932000000f,
  +0.000000000f,
  +2.787500000f,
  +0.000000000f,
  +1.000000000f,
  +0.000000000f,
  +0.000000000f,
  +0.000000000f,
  +2.210000000f,
  +1.083500000f,
  +0.000000000f,
  +0.297500000f,
  +0.480000000f,
  +0.000000000f,
  +1.511000000f,
  +0.062000000f,
  +0.024000000f,
  +0.038000000f,
  +0.000000000f,
  +1.245500000f,
  +0.853500000f,
  +0.629500000f,
  +0.110000000f,
  +0.650000000f,
  +0.000000000f,
  +1.541000000f,
  +1.313400000f,
  +0.000000000f,
  +0.000000000f,
  +0.000000000f,
  +0.000000000f,
  +0.006000000f,
  +0.002050000f,
  +0.002000000f,
  +1.031500000f,
  +1.167500000f,
  +999.000000000f,
  +1.001800000f,
  +1.007000000f,
  +0.005000000f,
  +0.139000000f,
  +1.001000000f,
  +1.000000000f,
  +1.000000000f,
  +1.000000000f,
  +16000.000000000f,
  +1.100000000f,
  +32.000000000f,
  +100.000000000f,
  +1.100000000f,
  +100.000000000f,
  +2.000000000f,
  +1.050000000f,
  +0.000000000f,
  +1.000000000f,
  +6819.014000000f,
  +13492.574000000f,
  +221.000000000f,
  +100.000000000f,
  +0.314500000f,
  +2.481500000f,
  +0.074500000f,
  +1.373000000f,
  +2.000000000f,
  +0.473500000f,
  +0.317500000f,
  +0.000000000f,
  +21598.500000000f,
  +1.393500000f,
  +1.000000000f,
  +1.017000000f,
  +1.890500000f,
  +1.000000000f,
  +13547.056000000f,
  +13424.908000000f,
  +0.204500000f,
  +13423.370000000f,
  +13426.458000000f,
  +0.000000000f,
  +6817.312000000f,
  +0.204000000f,
  +13435.242000000f,
  +1.000000000f,
  +0.204500000f,
  +13434.594000000f,
  +0.000000000f,
  +0.204500000f,
  +0.204500000f,
  +0.180000000f,
  +0.000000000f,
  +0.036000000f,
  +66008.233331954f
};

static float SCALE_FEATURES[376] = {
  +12983.742186861f,
  +184910.293770652f,
  +544.773186471f,
  +488.699641293f,
  +402.741459220f,
  +1.000000000f,
  +562.172539207f,
  +7.422944160f,
  +19536.951667807f,
  +4.347614260f,
  +0.162083312f,
  +24446.360004238f,
  +161369.638382675f,
  +17164.255430595f,
  +36074.101888696f,
  +3.094287292f,
  +84.027281879f,
  +1.000000000f,
  +1.000000000f,
  +1.000000000f,
  +268027.341145074f,
  +1.000000000f,
  +11984.758030746f,
  +9649.303018528f,
  +1461.328777420f,
  +10156.177425101f,
  +570.753536872f,
  +58631.157823433f,
  +5768.360125293f,
  +1.000000000f,
  +152.805986237f,
  +1336.225345807f,
  +264.289592312f,
  +13219.104245652f,
  +1.000000000f,
  +3356.953643021f,
  +1935.409975343f,
  +1.000000000f,
  +79495.363821795f,
  +1077.505527861f,
  +2032.908181244f,
  +41.008947994f,
  +13.451355715f,
  +46550.600228545f,
  +76111.909760462f,
  +167.202863516f,
  +92.358696730f,
  +37446.565488196f,
  +31722.324796945f,
  +88.120238683f,
  +49.594165548f,
  +0.004363750f,
  +184.547681380f,
  +38.197895195f,
  +126.869736975f,
  +722.272308253f,
  +1.000000000f,
  +1.000000000f,
  +1.000000000f,
  +1.000000000f,
  +1.000000000f,
  +1.000000000f,
  +1.000000000f,
  +1.000000000f,
  +1.000000000f,
  +2181.589564346f,
  +6801.793226074f,
  +1.000000000f,
  +997.779458688f,
  +1.000000000f,
  +2747.322770833f,
  +1141.627006554f,
  +1930.417712927f,
  +1.081030650f,
  +1.000000000f,
  +19196.485631102f,
  +15430.815502785f,
  +5252.210485417f,
  +1.000000000f,
  +1.000000000f,
  +1.000000000f,
  +1.000000000f,
  +1.000000000f,
  +1.000000000f,
  +24446.220891921f,
  +1.000000000f,
  +9558.429688361f,
  +21893.166183378f,
  +57580.056124017f,
  +4607.454040058f,
  +2184.315194602f,
  +1.000000000f,
  +8.516432997f,
  +82705.647090869f,
  +0.465110471f,
  +0.352100838f,
  +0.031606961f,
  +1.000000000f,
  +1.000000000f,
  +1.000000000f,
  +1.000000000f,
  +1.000000000f,
  +1.000000000f,
  +1.000000000f,
  +1.000000000f,
  +0.031606961f,
  +0.022355089f,
  +0.117490425f,
  +1.000000000f,
  +0.094440457f,
  +1.000000000f,
  +0.086277170f,
  +0.022355089f,
  +0.199443601f,
  +0.022355089f,
  +0.080360127f,
  +0.182509589f,
  +0.195959179f,
  +0.022355089f,
  +0.077226938f,
  +0.173317627f,
  +0.022355089f,
  +0.080360127f,
  +0.129271033f,
  +1.000000000f,
  +0.101930123f,
  +0.465110471f,
  +0.352100838f,
  +0.031606961f,
  +1.000000000f,
  +1.000000000f,
  +1.000000000f,
  +1.000000000f,
  +1.000000000f,
  +1.000000000f,
  +1.000000000f,
  +1.000000000f,
  +1.000000000f,
  +1.000000000f,
  +1.000000000f,
  +0.022355089f,
  +0.031606961f,
  +0.195959179f,
  +0.022355089f,
  +1.000000000f,
  +1.000000000f,
  +1.000000000f,
  +1.000000000f,
  +1.000000000f,
  +1.000000000f,
  +0.022355089f,
  +1.000000000f,
  +1.000000000f,
  +1.000000000f,
  +1.000000000f,
  +0.022355089f,
  +1.000000000f,
  +0.077226938f,
  +0.022355089f,
  +1.000000000f,
  +0.166396364f,
  +0.173317627f,
  +0.038700775f,
  +0.129271033f,
  +1.000000000f,
  +1.000000000f,
  +1.000000000f,
  +1.000000000f,
  +1.000000000f,
  +1.000000000f,
  +1.000000000f,
  +1.000000000f,
  +1.000000000f,
  +1.000000000f,
  +1.000000000f,
  +0.022355089f,
  +0.022355089f,
  +1.000000000f,
  +1.000000000f,
  +1.000000000f,
  +1.000000000f,
  +1.000000000f,
  +1.000000000f,
  +1.000000000f,
  +1.000000000f,
  +1.000000000f,
  +1.000000000f,
  +1.000000000f,
  +1.000000000f,
  +1.000000000f,
  +0.080360127f,
  +0.070533680f,
  +0.022355089f,
  +0.059057176f,
  +1.000000000f,
  +1.000000000f,
  +1.000000000f,
  +1.000000000f,
  +1.000000000f,
  +1.000000000f,
  +1.000000000f,
  +0.044676616f,
  +1.000000000f,
  +1.000000000f,
  +1.000000000f,
  +1.000000000f,
  +1.000000000f,
  +1.000000000f,
  +1.000000000f,
  +1.000000000f,
  +1.000000000f,
  +1.000000000f,
  +1.000000000f,
  +1.000000000f,
  +1.000000000f,
  +1.000000000f,
  +1.000000000f,
  +0.207304124f,
  +0.189983552f,
  +0.230884711f,
  +1.000000000f,
  +6.933093898f,
  +1.000000000f,
  +1.000000000f,
  +1.000000000f,
  +0.111102430f,
  +1.000000000f,
  +1.000000000f,
  +1.000000000f,
  +1.000000000f,
  +1.000000000f,
  +1.000000000f,
  +1.000000000f,
  +1.000000000f,
  +1.000000000f,
  +1.000000000f,
  +6.479504225f,
  +1.000000000f,
  +1.000000000f,
  +1.000000000f,
  +1.000000000f,
  +1.000000000f,
  +1.000000000f,
  +0.398255885f,
  +0.499599840f,
  +0.236558132f,
  +1.000000000f,
  +1.000000000f,
  +1.555364829f,
  +495.711761757f,
  +0.580730359f,
  +0.456267191f,
  +1.000000000f,
  +0.203979778f,
  +1.000000000f,
  +0.527065224f,
  +1.000000000f,
  +0.491924537f,
  +1.000000000f,
  +1.000000000f,
  +0.545413605f,
  +1.000000000f,
  +0.651685315f,
  +0.414246304f,
  +1.000000000f,
  +1.000000000f,
  +1.000000000f,
  +0.417252621f,
  +1.000000000f,
  +201.862811012f,
  +1.000000000f,
  +0.808800964f,
  +1.000000000f,
  +162.829403456f,
  +1.000000000f,
  +0.503419308f,
  +1.000000000f,
  +1.000000000f,
  +1.000000000f,
  +1.000000000f,
  +2.042309416f,
  +114.206209235f,
  +0.497075447f,
  +1.000000000f,
  +0.446515397f,
  +1.000000000f,
  +0.695229279f,
  +1.000000000f,
  +1.000000000f,
  +1.000000000f,
  +1.000000000f,
  +1.000000000f,
  +2.311813141f,
  +0.662968891f,
  +1.000000000f,
  +0.627689215f,
  +0.499599840f,
  +1.000000000f,
  +0.773226358f,
  +0.308473662f,
  +0.153049012f,
  +0.191196234f,
  +1.000000000f,
  +0.602685449f,
  +0.353606773f,
  +0.482938661f,
  +0.312889757f,
  +1.620648019f,
  +1.000000000f,
  +0.841022592f,
  +0.884370081f,
  +1.000000000f,
  +1.000000000f,
  +1.000000000f,
  +1.000000000f,
  +0.077226938f,
  +0.030835004f,
  +0.044676616f,
  +1.408370601f,
  +2.990726291f,
  +31.288975694f,
  +0.035521261f,
  +31.796838695f,
  +0.070533680f,
  +0.345946528f,
  +0.000100000f,
  +1.000000000f,
  +1.000000000f,
  +1.000000000f,
  +1.000000000f,
  +0.000100000f,
  +1.000000000f,
  +1.000000000f,
  +0.000100000f,
  +1.000000000f,
  +1.000000000f,
  +0.000100000f,
  +1.000000000f,
  +1.000000000f,
  +304879.328443992f,
  +426462.875885307f,
  +231.181314124f,
  +1.000000000f,
  +0.464316433f,
  +0.620207828f,
  +0.262582844f,
  +0.838374022f,
  +1.000000000f,
  +0.720623168f,
  +0.465503759f,
  +1.000000000f,
  +35575.670025314f,
  +0.280531193f,
  +1.000000000f,
  +0.310983922f,
  +0.423685910f,
  +1.000000000f,
  +428184.237074712f,
  +424326.598045957f,
  +6.463797626f,
  +424278.066195531f,
  +424375.500313558f,
  +1.000000000f,
  +304803.231721356f,
  +6.447897642f,
  +424651.956187325f,
  +1.000000000f,
  +6.463797626f,
  +424632.895305599f,
  +1.000000000f,
  +6.463797626f,
  +6.463797626f,
  +0.384187454f,
  +1.000000000f,
  +0.186290096f,
  +198603.358415691f
};
