
static float NN_WEIGHTS[3760] = {
  +0.045186996f,
  +0.179695413f,
  -0.580551505f,
  +0.031741224f,
  +0.134527192f,
  +0.028250586f,
  -0.157158747f,
  +0.022228712f,
  -0.147081435f,
  +0.075061537f,
  -0.013413283f,
  -0.023907725f,
  -0.002877073f,
  +0.071806319f,
  -0.007860450f,
  +0.048282862f,
  -0.022437010f,
  +0.039743092f,
  +0.014448516f,
  -0.002015039f,
  +0.010399182f,
  +0.009732991f,
  -0.085902311f,
  +0.009383892f,
  +0.079757169f,
  -0.121667743f,
  -0.061307237f,
  +0.089560978f,
  -0.005871190f,
  -0.033640806f,
  +0.294331044f,
  +0.003292788f,
  +0.358924925f,
  +0.032392379f,
  +0.031871457f,
  -0.160735399f,
  -0.040827539f,
  -0.011348333f,
  +0.002788660f,
  +0.214255184f,
  +0.063706331f,
  +0.027324164f,
  +0.705806434f,
  +0.037660990f,
  +0.027158940f,
  -0.074627951f,
  -0.060799155f,
  -0.016310109f,
  -0.074085973f,
  -0.033403613f,
  +0.010859992f,
  +0.036793016f,
  -0.179212451f,
  -0.130453214f,
  +0.010448534f,
  -0.027314208f,
  -0.005436722f,
  +0.038681891f,
  +0.030772533f,
  +0.027415615f,
  -0.026047060f,
  -0.032189582f,
  -0.005559411f,
  +0.038226407f,
  +0.013750449f,
  +0.126066923f,
  +0.036156561f,
  -0.037384387f,
  -0.023547551f,
  +0.031751048f,
  +0.002137368f,
  +0.228669852f,
  -0.067636989f,
  -0.022936834f,
  +0.017186232f,
  +0.131556109f,
  +0.252271265f,
  +0.186924532f,
  -0.017610604f,
  +0.015460920f,
  -0.027378032f,
  -0.010452354f,
  +0.014799763f,
  +0.015458662f,
  -0.070339598f,
  -0.013293305f,
  +0.179484069f,
  -0.002551885f,
  -0.262636125f,
  -0.005779420f,
  +0.054829895f,
  -0.036795076f,
  -0.020039141f,
  -0.509864569f,
  -0.020991527f,
  +0.031790182f,
  +0.004574120f,
  +0.032910112f,
  -0.026530551f,
  +0.008134518f,
  -0.027954970f,
  +0.030047473f,
  +0.002981126f,
  -0.015389472f,
  -0.038150921f,
  -0.012904178f,
  +0.037263207f,
  +0.006031643f,
  -0.004554473f,
  -0.046453416f,
  +0.021288551f,
  -0.018781442f,
  +0.027480338f,
  -0.018440111f,
  -0.003089668f,
  -0.001921935f,
  -0.036037214f,
  -0.001095333f,
  -0.034286849f,
  -0.015612369f,
  +0.010025644f,
  -0.040525392f,
  +0.004020406f,
  +0.008292990f,
  -0.015917825f,
  +0.000251421f,
  -0.045265432f,
  +0.006897538f,
  -0.010917610f,
  -0.029753976f,
  +0.013222028f,
  +0.036406655f,
  +0.034191068f,
  +0.030917097f,
  -0.027838478f,
  -0.002496008f,
  +0.004466530f,
  +0.010090753f,
  +0.022777837f,
  +0.023688730f,
  +0.008918443f,
  +0.041100960f,
  +0.057641719f,
  +0.014438990f,
  +0.035506655f,
  +0.035397377f,
  -0.026449027f,
  +0.005555250f,
  -0.005595904f,
  -0.027478296f,
  +0.028488211f,
  -0.018583070f,
  -0.028022600f,
  -0.009004053f,
  +0.034113038f,
  +0.017091023f,
  +0.052271087f,
  +0.025478238f,
  +0.022212034f,
  +0.019903328f,
  -0.101732694f,
  +0.023083955f,
  -0.022166828f,
  -0.000491914f,
  -0.009101328f,
  -0.035390057f,
  -0.010046313f,
  +0.024078730f,
  +0.016755257f,
  +0.023822550f,
  +0.032386523f,
  +0.021417424f,
  -0.003342211f,
  +0.028420787f,
  -0.008053031f,
  -0.022043012f,
  -0.025452197f,
  +0.024010818f,
  +0.009451136f,
  +0.020541593f,
  +0.033566747f,
  -0.013108384f,
  -0.035694014f,
  +0.030784648f,
  +0.021601442f,
  -0.028364440f,
  -0.018813770f,
  +0.024807062f,
  -0.039605841f,
  -0.034305248f,
  +0.008280337f,
  +0.003867021f,
  -0.034550175f,
  -0.009281606f,
  +0.011168770f,
  +0.034522515f,
  +0.026811358f,
  +0.014136940f,
  -0.009403076f,
  +0.023090895f,
  +0.035967309f,
  +0.014862323f,
  +0.027851660f,
  +0.031461041f,
  +0.016196776f,
  -0.014104905f,
  +0.007883105f,
  +0.011687260f,
  -0.020942647f,
  -0.028805077f,
  +0.012757029f,
  -0.018002544f,
  +0.023389239f,
  -0.025125330f,
  +0.029623102f,
  +0.023133766f,
  -0.023171445f,
  -0.025005309f,
  +0.060916554f,
  -0.032890856f,
  +0.003538087f,
  -0.050028101f,
  -0.001101654f,
  -0.000833236f,
  +0.007923197f,
  -0.024206785f,
  -0.021162355f,
  +0.018856727f,
  -0.010105573f,
  +0.036352646f,
  -0.002876196f,
  +0.019407421f,
  -0.024121247f,
  +0.011276331f,
  +0.016744640f,
  +0.027601052f,
  -0.016057635f,
  -0.031946532f,
  -0.026765108f,
  -0.031904146f,
  -0.002436511f,
  +0.037273843f,
  +0.034195062f,
  -0.017208731f,
  +0.008178034f,
  +0.018313641f,
  -0.025311282f,
  +0.033052642f,
  +0.011858131f,
  +0.039718103f,
  -0.019207997f,
  +0.047055501f,
  -0.009583581f,
  +0.009652957f,
  -0.023974912f,
  -0.002395468f,
  +0.026240785f,
  +0.015994396f,
  -0.008061666f,
  +0.033978578f,
  +0.052574150f,
  +0.025133464f,
  +0.021912713f,
  -0.002060046f,
  -0.027752697f,
  -0.004384499f,
  +0.024870787f,
  -0.016876312f,
  -0.001051012f,
  +0.032069333f,
  -0.023897195f,
  -0.026906323f,
  -0.014286190f,
  +0.016038660f,
  -0.008916928f,
  +0.004369644f,
  -0.018560644f,
  -0.006118085f,
  -0.000184238f,
  -0.024264833f,
  +0.031834714f,
  +0.182985291f,
  +0.020583162f,
  -0.008178152f,
  +0.046511490f,
  +0.027795788f,
  +0.016853044f,
  +0.013131779f,
  +0.032771569f,
  -0.019764259f,
  -0.032112677f,
  +0.022789832f,
  -0.021772882f,
  -0.012226430f,
  -0.018118225f,
  -0.022569854f,
  -0.015786786f,
  -0.027588638f,
  -0.005687840f,
  -0.070426390f,
  -0.031936143f,
  -0.008058022f,
  +0.028712105f,
  -0.024265956f,
  +0.036663249f,
  +0.017001981f,
  -0.001279455f,
  -0.032378059f,
  -0.003002021f,
  +0.054142118f,
  +0.025274243f,
  -0.024250891f,
  -0.026753308f,
  +0.000158317f,
  -0.013762122f,
  +0.033849899f,
  -0.030274514f,
  -0.014071532f,
  +0.020604920f,
  +0.000088070f,
  +0.009426284f,
  +0.016191404f,
  -0.020558335f,
  -0.016730819f,
  -0.075021058f,
  -0.002323453f,
  +0.006046951f,
  +0.005256969f,
  -0.018345602f,
  +0.031924989f,
  +0.016724378f,
  -0.004447713f,
  -0.021764729f,
  -0.030910186f,
  +0.011820331f,
  +0.012742754f,
  -0.011142637f,
  -0.025094943f,
  -0.022495108f,
  +0.037598480f,
  +0.019498546f,
  -0.016221909f,
  +0.005985271f,
  -0.027943121f,
  +0.008158662f,
  +0.024767786f,
  -0.049185097f,
  -0.021725401f,
  -0.013545237f,
  +0.027031194f,
  +0.001502983f,
  -0.053565733f,
  +0.014099346f,
  -0.037654061f,
  +0.028854363f,
  -0.016059667f,
  +0.010018297f,
  -0.012311263f,
  +0.060528561f,
  +0.032867763f,
  +0.055000644f,
  -0.002039747f,
  +0.016376443f,
  -0.004603620f,
  +0.013903337f,
  -0.011449650f,
  -0.015831204f,
  +0.041832183f,
  -0.010594310f,
  -0.027196052f,
  +0.059902448f,
  -0.005826544f,
  -0.013492270f,
  -0.019363463f,
  +0.020652857f,
  +0.169498369f,
  +0.016286571f,
  +0.235465661f,
  -0.600282490f,
  +0.058088988f,
  +0.084834822f,
  -0.033803381f,
  -0.130815074f,
  -0.004900297f,
  -0.155060321f,
  +0.084836237f,
  -0.009998459f,
  -0.029131241f,
  -0.041457672f,
  +0.120209895f,
  +0.010229002f,
  +0.005258588f,
  -0.015635889f,
  +0.034888942f,
  +0.001109425f,
  -0.028832704f,
  +0.014995766f,
  -0.036874775f,
  -0.109195240f,
  -0.022574810f,
  +0.033047825f,
  -0.219808191f,
  -0.268625885f,
  +0.105477296f,
  -0.084700763f,
  -0.017894316f,
  +0.201443985f,
  -0.042379729f,
  +0.313689321f,
  +0.040559489f,
  +0.010086346f,
  -0.179152429f,
  +0.025041685f,
  -0.022162553f,
  +0.018049542f,
  +0.099343076f,
  +0.009818943f,
  -0.130653307f,
  +0.684956610f,
  -0.020920426f,
  +0.339279324f,
  -0.252806395f,
  -0.077802680f,
  -0.088885024f,
  -0.156942561f,
  -0.182437271f,
  -0.054514155f,
  +0.046472300f,
  -0.265654594f,
  -0.332351297f,
  -0.027792487f,
  +0.013250240f,
  -0.033078011f,
  -0.017113220f,
  -0.029867841f,
  -0.016152686f,
  +0.013435461f,
  +0.026981954f,
  +0.029548634f,
  -0.023938468f,
  -0.012361730f,
  +0.088795759f,
  +0.073916517f,
  +0.019226201f,
  -0.011738153f,
  -0.004602153f,
  +0.045189101f,
  +0.151690841f,
  -0.061919503f,
  -0.006430874f,
  +0.029160958f,
  +0.070224516f,
  +0.333000213f,
  -0.030471262f,
  -0.021523498f,
  -0.005030412f,
  -0.000553332f,
  +0.032753285f,
  +0.034411464f,
  +0.026439998f,
  -0.045179240f,
  -0.013188431f,
  +0.212369591f,
  +0.040275220f,
  -0.287005037f,
  +0.009139951f,
  +0.062728450f,
  +0.013237465f,
  +0.002939987f,
  -0.494009882f,
  -0.001440314f,
  -0.004637436f,
  -0.028200438f,
  +0.031289566f,
  -0.007907171f,
  +0.023144547f,
  -0.010624241f,
  +0.026155893f,
  -0.005650327f,
  +0.024152067f,
  -0.018539848f,
  -0.008193720f,
  -0.020526657f,
  -0.029389948f,
  -0.039423566f,
  -0.054982491f,
  -0.013222646f,
  -0.021171175f,
  -0.016647574f,
  -0.050916243f,
  +0.006415308f,
  -0.044162046f,
  -0.037741534f,
  +0.011545912f,
  -0.020751871f,
  -0.017074062f,
  +0.070875384f,
  +0.031957295f,
  -0.035697337f,
  +0.035608746f,
  +0.019069906f,
  +0.009484727f,
  -0.013281294f,
  +0.006508233f,
  +0.018448040f,
  +0.002550546f,
  -0.002449099f,
  +0.022670005f,
  -0.019580927f,
  +0.023686539f,
  -0.004819140f,
  +0.012532227f,
  +0.027318571f,
  -0.005992260f,
  -0.028870290f,
  +0.018551465f,
  +0.036190804f,
  +0.028645558f,
  +0.052600656f,
  +0.050864216f,
  +0.021758407f,
  +0.007750947f,
  -0.032483112f,
  +0.004865620f,
  +0.000698686f,
  +0.027605493f,
  +0.003806652f,
  +0.001945972f,
  +0.035506267f,
  +0.005921163f,
  +0.039545018f,
  +0.025674803f,
  -0.002766991f,
  +0.020823615f,
  +0.007828861f,
  +0.016174454f,
  -0.089274876f,
  +0.006651087f,
  +0.010101535f,
  +0.032461911f,
  -0.033907197f,
  +0.001313508f,
  -0.003529213f,
  -0.039550237f,
  -0.003159672f,
  -0.016933002f,
  -0.007113695f,
  +0.031452511f,
  -0.010357868f,
  -0.023384795f,
  +0.014828429f,
  +0.031337630f,
  -0.029418431f,
  +0.027352329f,
  +0.025730301f,
  -0.039713603f,
  -0.020063693f,
  -0.028933045f,
  +0.001159579f,
  +0.024715204f,
  -0.039047729f,
  +0.015126634f,
  -0.014272086f,
  -0.002130963f,
  +0.006099068f,
  +0.018529344f,
  -0.023816125f,
  -0.015389251f,
  +0.037251141f,
  +0.000928190f,
  -0.039758950f,
  +0.029608961f,
  -0.038173862f,
  -0.026899617f,
  -0.003129769f,
  +0.019778084f,
  -0.034228191f,
  -0.014079181f,
  -0.033247344f,
  -0.022749014f,
  +0.023481648f,
  -0.010121027f,
  +0.022445571f,
  -0.019276502f,
  +0.000874687f,
  +0.017406177f,
  -0.014151338f,
  +0.017687816f,
  -0.012301680f,
  +0.023910362f,
  -0.001104273f,
  -0.004358143f,
  -0.021359820f,
  +0.039464511f,
  +0.018161586f,
  -0.054425463f,
  +0.010431793f,
  -0.054189444f,
  -0.037468806f,
  +0.018103857f,
  +0.037658226f,
  +0.047145646f,
  +0.018059708f,
  +0.005219527f,
  -0.026426420f,
  -0.019645832f,
  -0.005679771f,
  -0.037570681f,
  +0.005692713f,
  -0.031403817f,
  +0.007494282f,
  +0.012964703f,
  +0.056602333f,
  +0.027688455f,
  -0.018476883f,
  +0.013761438f,
  +0.021897458f,
  -0.001520172f,
  +0.018141471f,
  -0.026173705f,
  +0.040220611f,
  +0.020669522f,
  +0.008130174f,
  -0.016983690f,
  -0.000997253f,
  -0.025890397f,
  +0.026682517f,
  +0.096979983f,
  -0.021676511f,
  +0.012960996f,
  +0.014441229f,
  +0.001914841f,
  +0.033226538f,
  +0.008959931f,
  +0.023607742f,
  +0.001020625f,
  +0.042986691f,
  -0.012711301f,
  +0.011041586f,
  -0.007480086f,
  +0.024844665f,
  +0.006616242f,
  -0.013034953f,
  +0.021639675f,
  -0.031625442f,
  +0.091240250f,
  +0.010841694f,
  -0.012393649f,
  +0.021949176f,
  +0.064335011f,
  -0.009624261f,
  +0.015308756f,
  +0.002756931f,
  -0.011196312f,
  +0.017538097f,
  -0.006698966f,
  -0.010862266f,
  +0.163163856f,
  +0.024016613f,
  -0.033184361f,
  +0.006950741f,
  +0.021561980f,
  +0.013616468f,
  -0.007148061f,
  +0.010910619f,
  -0.025822397f,
  +0.015546542f,
  +0.022118244f,
  +0.020091724f,
  -0.021508463f,
  +0.006712023f,
  +0.002713396f,
  +0.026700828f,
  -0.013888290f,
  -0.007498889f,
  -0.018434262f,
  -0.025759863f,
  +0.001364090f,
  -0.027200641f,
  +0.033405539f,
  +0.004599515f,
  -0.007959530f,
  -0.030718282f,
  -0.044490594f,
  -0.035500359f,
  +0.015817173f,
  +0.013661479f,
  +0.011502832f,
  -0.023973044f,
  -0.015582394f,
  -0.012763763f,
  +0.044922926f,
  -0.025863031f,
  -0.039038539f,
  -0.029644903f,
  +0.016799079f,
  -0.033372831f,
  +0.021511314f,
  -0.027916010f,
  +0.019630980f,
  -0.033560369f,
  +0.024023581f,
  -0.004837681f,
  -0.025338661f,
  +0.032477360f,
  +0.029324833f,
  -0.013514276f,
  -0.039692774f,
  +0.039390456f,
  -0.023025725f,
  -0.010210227f,
  -0.024917953f,
  -0.001009599f,
  +0.009757448f,
  -0.017652495f,
  +0.060166951f,
  +0.031254523f,
  +0.030699825f,
  +0.037032988f,
  -0.020571286f,
  -0.030205989f,
  +0.017522272f,
  +0.004986945f,
  -0.028159890f,
  +0.039447721f,
  -0.003302547f,
  +0.023639347f,
  -0.075721368f,
  +0.070192926f,
  -0.031989556f,
  -0.026629917f,
  -0.050916992f,
  +0.017476819f,
  +0.012855625f,
  +0.052632425f,
  +0.023517262f,
  +0.056587812f,
  +0.044306789f,
  +0.031610083f,
  +0.017129742f,
  +0.049761530f,
  +0.056364853f,
  -0.008282855f,
  +0.027680196f,
  +0.037454966f,
  -0.031825468f,
  +0.016059093f,
  +0.059252102f,
  +0.026984284f,
  -0.011095475f,
  -0.025708452f,
  +0.122101665f,
  +0.018828718f,
  +0.205147192f,
  -0.577836215f,
  +0.017169474f,
  +0.083461575f,
  +0.035734508f,
  -0.161378190f,
  -0.006705838f,
  -0.197078228f,
  +0.056373622f,
  -0.057334028f,
  -0.026238501f,
  -0.002097462f,
  +0.193316087f,
  -0.017203977f,
  -0.081614211f,
  -0.038517240f,
  +0.006557211f,
  +0.000265799f,
  +0.005091719f,
  -0.007793627f,
  +0.038866919f,
  -0.067616105f,
  -0.152037367f,
  -0.121060453f,
  -0.043700408f,
  -0.222113013f,
  +0.007974280f,
  -0.085768290f,
  -0.012158304f,
  +0.084440507f,
  +0.037975118f,
  +0.196315780f,
  +0.015892955f,
  +0.027348172f,
  -0.187498152f,
  +0.012741563f,
  +0.001211736f,
  +0.010219267f,
  +0.093308195f,
  -0.035513587f,
  -0.198276997f,
  +0.369188219f,
  -0.067815684f,
  +0.403593898f,
  -0.225360781f,
  +0.102516465f,
  -0.125861675f,
  -0.301687539f,
  -0.227117196f,
  -0.162959620f,
  +0.054425742f,
  -0.347414583f,
  -0.295798749f,
  +0.034038946f,
  -0.018240366f,
  -0.006411310f,
  -0.005407572f,
  +0.037608478f,
  -0.018628305f,
  +0.005626768f,
  +0.005557459f,
  +0.002788670f,
  +0.028588686f,
  +0.001313191f,
  +0.048857890f,
  +0.111115783f,
  +0.020353861f,
  +0.099039502f,
  -0.012157448f,
  -0.031093478f,
  +0.128805995f,
  -0.087992221f,
  +0.009757512f,
  +0.030349996f,
  +0.058906410f,
  +0.355575711f,
  -0.149075180f,
  -0.029743303f,
  -0.034362890f,
  -0.037011806f,
  +0.025376435f,
  -0.012930973f,
  +0.012918651f,
  -0.035317976f,
  +0.035425063f,
  +0.209217042f,
  +0.060784884f,
  -0.331547737f,
  +0.013483403f,
  +0.009333833f,
  -0.009999441f,
  +0.008584631f,
  -0.475183994f,
  +0.018225998f,
  +0.041070458f,
  -0.030124737f,
  +0.012182217f,
  +0.031436939f,
  +0.039099876f,
  -0.019221174f,
  +0.011181038f,
  -0.020276014f,
  -0.010386914f,
  +0.004516393f,
  -0.020242136f,
  +0.013226246f,
  +0.018938325f,
  -0.026159476f,
  +0.021900604f,
  +0.011654291f,
  +0.011897909f,
  +0.006771471f,
  -0.037062485f,
  -0.013209634f,
  -0.031512186f,
  +0.023855720f,
  -0.007332345f,
  +0.010525387f,
  -0.014696656f,
  +0.042069845f,
  -0.028679781f,
  +0.027460730f,
  +0.007953588f,
  +0.021953434f,
  +0.012798226f,
  +0.003483766f,
  +0.028193723f,
  -0.022605201f,
  -0.031525299f,
  -0.024266737f,
  +0.003577158f,
  -0.036733303f,
  +0.007474542f,
  -0.039870299f,
  +0.011213653f,
  -0.006927487f,
  -0.011844175f,
  +0.017567627f,
  -0.001460720f,
  +0.008763808f,
  +0.054363985f,
  +0.019668020f,
  +0.046903234f,
  -0.027590275f,
  +0.012262113f,
  +0.008761078f,
  -0.016340217f,
  -0.035602331f,
  +0.019034974f,
  -0.029281888f,
  +0.034799781f,
  +0.006209865f,
  +0.016936459f,
  +0.034088831f,
  -0.008138703f,
  -0.004330556f,
  +0.004699113f,
  +0.033993054f,
  +0.004141450f,
  -0.090816535f,
  +0.011317906f,
  +0.033226654f,
  -0.016712010f,
  +0.030342478f,
  -0.034492355f,
  -0.039436501f,
  -0.001066010f,
  -0.015615704f,
  +0.010568332f,
  -0.030785143f,
  +0.020139143f,
  +0.018483263f,
  +0.017302312f,
  +0.010442592f,
  +0.027277496f,
  -0.026043478f,
  +0.025658961f,
  +0.014659856f,
  +0.007165860f,
  -0.002699330f,
  -0.032343499f,
  +0.022652414f,
  -0.031115325f,
  -0.037870314f,
  +0.013489466f,
  -0.015793771f,
  -0.039688166f,
  +0.004424840f,
  -0.039401818f,
  +0.014421562f,
  +0.005161682f,
  -0.007430535f,
  -0.007254115f,
  +0.011392109f,
  -0.028720669f,
  -0.002016746f,
  +0.005099870f,
  -0.004917625f,
  +0.031661067f,
  -0.019917166f,
  -0.052835628f,
  +0.008085120f,
  -0.024622099f,
  -0.008267853f,
  +0.019502401f,
  -0.015721750f,
  +0.000249717f,
  +0.005080417f,
  -0.001543909f,
  -0.031865142f,
  -0.011313405f,
  +0.012540214f,
  -0.037941404f,
  -0.009569429f,
  -0.030591791f,
  +0.032422427f,
  -0.022549475f,
  -0.001536616f,
  -0.030972423f,
  +0.037823718f,
  -0.028765224f,
  -0.002210516f,
  -0.014040597f,
  +0.009455536f,
  +0.014011553f,
  +0.033387464f,
  -0.015124748f,
  +0.018159468f,
  -0.038121726f,
  +0.015674945f,
  +0.000645474f,
  -0.013166711f,
  -0.006478246f,
  -0.007761367f,
  +0.012955617f,
  +0.033583988f,
  +0.012158826f,
  +0.004873477f,
  +0.007726514f,
  +0.028978635f,
  +0.010588005f,
  +0.005255453f,
  -0.053662390f,
  +0.006870904f,
  +0.035451315f,
  +0.019339960f,
  +0.035151150f,
  -0.024636852f,
  -0.029686360f,
  -0.038701512f,
  +0.067689806f,
  +0.004547969f,
  +0.070115454f,
  -0.000683621f,
  +0.006016316f,
  +0.022748660f,
  +0.002323140f,
  -0.007310271f,
  -0.018056422f,
  +0.032716546f,
  -0.015409850f,
  +0.016971599f,
  +0.008825765f,
  +0.002277259f,
  -0.034123164f,
  +0.015961047f,
  -0.035290979f,
  +0.032216143f,
  +0.047769923f,
  -0.004624065f,
  +0.038305361f,
  +0.011799894f,
  +0.021760460f,
  -0.004598107f,
  +0.023626607f,
  -0.026692972f,
  -0.032773215f,
  +0.013615958f,
  -0.021467239f,
  +0.010041196f,
  +0.229269519f,
  +0.052074518f,
  +0.026774798f,
  +0.006311310f,
  +0.010315150f,
  +0.009989845f,
  -0.038530480f,
  -0.000180982f,
  -0.023542177f,
  +0.017219238f,
  -0.037290901f,
  +0.039259069f,
  -0.038800899f,
  +0.012386594f,
  +0.022284523f,
  +0.028198522f,
  -0.029975582f,
  -0.044655427f,
  -0.006313743f,
  -0.038995694f,
  +0.034481384f,
  +0.016365301f,
  -0.015023426f,
  +0.023233166f,
  -0.046314862f,
  +0.020704040f,
  -0.064414561f,
  -0.021550171f,
  +0.047847115f,
  +0.067849010f,
  +0.035006914f,
  +0.010704488f,
  +0.028443899f,
  -0.014006201f,
  +0.012870965f,
  +0.040662743f,
  +0.010985882f,
  -0.000222273f,
  +0.019057948f,
  -0.009526827f,
  -0.033608120f,
  +0.012850471f,
  -0.004584044f,
  -0.031177944f,
  -0.031006325f,
  +0.022266123f,
  -0.018577967f,
  -0.011545999f,
  +0.021874070f,
  +0.004449160f,
  -0.006383430f,
  -0.012486402f,
  +0.035077643f,
  -0.004737880f,
  -0.015784476f,
  -0.026028801f,
  -0.025966097f,
  +0.027038094f,
  -0.012373390f,
  +0.017795883f,
  +0.017236732f,
  -0.004696343f,
  +0.010370997f,
  -0.019285901f,
  -0.006353190f,
  -0.032810837f,
  +0.022371285f,
  +0.041246593f,
  -0.032057118f,
  +0.013284534f,
  -0.054344341f,
  +0.070440821f,
  -0.029382007f,
  +0.031453747f,
  +0.003460373f,
  +0.021655425f,
  +0.003499851f,
  -0.016764782f,
  +0.060085077f,
  +0.016336657f,
  +0.056716654f,
  +0.018330403f,
  +0.057921205f,
  +0.037514877f,
  +0.048441302f,
  -0.027909346f,
  +0.040108297f,
  +0.013765031f,
  -0.013260899f,
  +0.053338785f,
  +0.005936291f,
  -0.017234853f,
  -0.030450778f,
  -0.012698185f,
  -0.006761222f,
  -0.019314650f,
  +0.186566904f,
  -0.588589668f,
  +0.023014160f,
  +0.132474124f,
  +0.022668425f,
  -0.163849607f,
  -0.027676208f,
  -0.174564898f,
  +0.078002758f,
  -0.007071855f,
  -0.023294527f,
  -0.082123451f,
  +0.287290335f,
  +0.013279243f,
  -0.123174958f,
  -0.047069650f,
  +0.027568761f,
  +0.007176686f,
  -0.031777587f,
  -0.000044906f,
  +0.026433777f,
  -0.030051630f,
  -0.158888385f,
  +0.044404171f,
  +0.029576674f,
  -0.145216614f,
  +0.050442565f,
  -0.132585466f,
  -0.036309846f,
  +0.043620709f,
  +0.110587776f,
  +0.109296344f,
  +0.010445099f,
  +0.036440048f,
  -0.174725860f,
  -0.010494871f,
  +0.020973101f,
  -0.061126925f,
  +0.119938008f,
  +0.005697349f,
  -0.317663997f,
  +0.051112223f,
  -0.079772048f,
  +0.412154585f,
  -0.173994645f,
  +0.185773998f,
  -0.198225304f,
  -0.366191953f,
  -0.145073161f,
  -0.133073285f,
  -0.018254939f,
  -0.405644059f,
  -0.232596859f,
  -0.039556164f,
  -0.018167352f,
  +0.012691788f,
  +0.030330699f,
  +0.032784652f,
  -0.017685987f,
  +0.004703667f,
  -0.032732762f,
  -0.014804067f,
  +0.002078548f,
  +0.034587707f,
  +0.056171361f,
  +0.054253779f,
  +0.009178214f,
  +0.066783369f,
  +0.029820401f,
  -0.050004896f,
  +0.100938298f,
  -0.063998736f,
  -0.016870301f,
  -0.023577031f,
  +0.012129337f,
  +0.266824067f,
  -0.046544526f,
  +0.007545922f,
  +0.025125656f,
  -0.027062647f,
  +0.011702351f,
  +0.020600796f,
  -0.003466677f,
  -0.064043984f,
  +0.022157926f,
  +0.219699323f,
  +0.013339552f,
  -0.302915573f,
  -0.022523224f,
  +0.006825409f,
  +0.038250264f,
  -0.004402939f,
  -0.524896979f,
  -0.027226090f,
  +0.038633838f,
  -0.024766112f,
  +0.013856407f,
  -0.025066946f,
  +0.021615565f,
  +0.026842039f,
  +0.024995122f,
  -0.009721395f,
  +0.039778214f,
  +0.006998010f,
  +0.003335217f,
  +0.045463584f,
  +0.005244051f,
  -0.019803425f,
  -0.032226168f,
  -0.014325071f,
  +0.017035505f,
  -0.019179445f,
  -0.026256537f,
  +0.034008313f,
  -0.006315676f,
  -0.048271246f,
  -0.001276048f,
  -0.013165539f,
  +0.003572782f,
  +0.024030659f,
  -0.010704903f,
  -0.019704197f,
  +0.009656803f,
  -0.009559078f,
  +0.002100182f,
  +0.020436645f,
  +0.020039780f,
  -0.028632525f,
  -0.021002822f,
  +0.035330828f,
  +0.030725684f,
  -0.019186892f,
  +0.009231858f,
  +0.016447369f,
  -0.025765758f,
  -0.002145894f,
  +0.008479174f,
  -0.023640253f,
  -0.021960270f,
  -0.008239855f,
  -0.010876627f,
  +0.059508819f,
  -0.006933388f,
  +0.017219380f,
  +0.018741436f,
  -0.013203010f,
  -0.010311931f,
  +0.039335307f,
  +0.013107546f,
  -0.024143908f,
  -0.009673361f,
  -0.037669040f,
  +0.003407262f,
  +0.002477277f,
  -0.005676736f,
  +0.017319186f,
  +0.011161735f,
  +0.032648597f,
  -0.000090789f,
  -0.046986949f,
  +0.058863185f,
  +0.016933709f,
  -0.025285028f,
  -0.006123893f,
  +0.002192784f,
  -0.021217817f,
  -0.006503884f,
  +0.035944905f,
  +0.020624537f,
  -0.037404116f,
  +0.021952327f,
  +0.028729614f,
  +0.016005948f,
  -0.015470462f,
  +0.030908620f,
  +0.030042855f,
  -0.013745533f,
  -0.034937222f,
  +0.015882429f,
  -0.030981483f,
  -0.016402401f,
  +0.029255811f,
  +0.023131248f,
  +0.011085030f,
  +0.003423709f,
  -0.011500107f,
  -0.008205041f,
  +0.009937439f,
  -0.032809954f,
  -0.021028059f,
  +0.024716210f,
  -0.021620736f,
  -0.008087023f,
  -0.003693376f,
  -0.018907437f,
  -0.005154438f,
  -0.022263495f,
  -0.011393053f,
  -0.018730456f,
  -0.014963394f,
  -0.028262855f,
  +0.008641176f,
  +0.036418926f,
  -0.031363651f,
  +0.018054042f,
  -0.022844661f,
  +0.020656154f,
  -0.034713197f,
  -0.016000567f,
  +0.025927018f,
  +0.037955966f,
  +0.022617895f,
  +0.026121911f,
  +0.005164076f,
  -0.023243953f,
  -0.016630052f,
  -0.019850524f,
  +0.074145332f,
  -0.047040261f,
  -0.022370245f,
  +0.004965291f,
  -0.006685082f,
  +0.035979938f,
  -0.010794213f,
  +0.046742413f,
  +0.032107916f,
  +0.036765020f,
  +0.038942020f,
  +0.030567173f,
  -0.004214719f,
  +0.024694864f,
  -0.013429301f,
  -0.005032707f,
  +0.002281517f,
  +0.003857967f,
  +0.003052711f,
  +0.032217611f,
  +0.029364590f,
  -0.039674275f,
  -0.019888816f,
  -0.016314905f,
  -0.009192051f,
  +0.020044440f,
  -0.012104330f,
  +0.028406387f,
  -0.019943021f,
  +0.000975963f,
  -0.031996410f,
  +0.031673595f,
  -0.000235957f,
  +0.070676096f,
  +0.002908003f,
  +0.073574208f,
  +0.002378993f,
  +0.005857372f,
  -0.032177079f,
  +0.000279706f,
  -0.026460702f,
  -0.030616513f,
  -0.002912473f,
  +0.009672057f,
  +0.063173652f,
  -0.016537009f,
  +0.001499038f,
  -0.011757690f,
  -0.007156186f,
  +0.017798442f,
  -0.002887063f,
  +0.051572654f,
  +0.026209820f,
  +0.025413800f,
  -0.034689743f,
  +0.026056308f,
  -0.013312971f,
  +0.035522629f,
  +0.025458056f,
  -0.037668452f,
  -0.013515653f,
  -0.031328674f,
  -0.009272126f,
  +0.183832273f,
  -0.015810002f,
  +0.012097597f,
  -0.003872142f,
  -0.011673499f,
  +0.044604838f,
  +0.021637600f,
  -0.032878097f,
  -0.000327278f,
  +0.025120776f,
  +0.025139775f,
  +0.008018058f,
  -0.033344265f,
  -0.011035787f,
  -0.043135643f,
  +0.007605285f,
  +0.022305004f,
  +0.002680973f,
  -0.041503519f,
  -0.003567638f,
  +0.005952933f,
  +0.010464761f,
  +0.019674724f,
  +0.016814893f,
  -0.036669560f,
  +0.006849987f,
  -0.026070898f,
  -0.008893320f,
  +0.078091547f,
  +0.053555600f,
  +0.019274332f,
  +0.032754432f,
  +0.038209174f,
  -0.008753080f,
  +0.003469471f,
  -0.001347740f,
  -0.017422331f,
  -0.033101987f,
  +0.023729900f,
  +0.028304633f,
  +0.001416663f,
  -0.001479562f,
  +0.027563581f,
  -0.017247779f,
  -0.048856124f,
  +0.019739546f,
  +0.012019176f,
  +0.002107792f,
  -0.009669915f,
  -0.017502990f,
  +0.018091179f,
  +0.020297479f,
  -0.022876814f,
  +0.013489295f,
  -0.004000552f,
  +0.004828273f,
  +0.006546486f,
  +0.023767736f,
  +0.051318344f,
  +0.011699433f,
  -0.028682392f,
  -0.029483853f,
  +0.003538026f,
  +0.027496854f,
  -0.014680155f,
  -0.050817393f,
  +0.028480750f,
  -0.025233112f,
  +0.008651349f,
  -0.032862481f,
  -0.071340404f,
  +0.031286545f,
  +0.004118282f,
  +0.045097344f,
  +0.008463698f,
  -0.007470883f,
  -0.007448848f,
  +0.051111471f,
  +0.003293904f,
  -0.002751508f,
  +0.057020757f,
  -0.014358619f,
  +0.033453424f,
  +0.058235135f,
  +0.013877574f,
  -0.016589932f,
  +0.043648023f,
  +0.033269044f,
  +0.004163876f,
  +0.054888595f,
  +0.029723682f,
  +0.020859057f,
  +0.037748557f,
  +0.009960277f,
  -0.135575518f,
  -0.022330225f,
  +0.224702820f,
  -0.582845986f,
  +0.008275572f,
  +0.138275817f,
  -0.003209256f,
  -0.109448940f,
  -0.006349354f,
  -0.126736909f,
  +0.109240092f,
  -0.007875013f,
  -0.034727097f,
  -0.087131605f,
  +0.409756809f,
  -0.035785053f,
  -0.174283624f,
  -0.015882669f,
  +0.001625367f,
  +0.023941223f,
  +0.020703282f,
  -0.027295601f,
  +0.017386667f,
  +0.042785011f,
  -0.033173736f,
  +0.128822520f,
  -0.005884924f,
  +0.009328467f,
  +0.003915091f,
  -0.171868250f,
  -0.013830725f,
  -0.025203986f,
  +0.070648678f,
  +0.081405967f,
  -0.120005451f,
  +0.025532287f,
  -0.231836498f,
  +0.031097630f,
  +0.026200052f,
  -0.095881976f,
  +0.056885947f,
  -0.041869737f,
  -0.145476028f,
  -0.119744919f,
  -0.037981227f,
  +0.278975397f,
  -0.152198523f,
  +0.070706204f,
  -0.188476801f,
  -0.248814479f,
  +0.010296950f,
  -0.123301610f,
  +0.045152608f,
  -0.440399200f,
  -0.180208236f,
  -0.005845524f,
  +0.002272744f,
  -0.011805505f,
  -0.039123915f,
  +0.012923632f,
  +0.029987920f,
  -0.019074980f,
  -0.021794707f,
  +0.025847118f,
  +0.003148224f,
  -0.010119228f,
  -0.003838333f,
  +0.067320324f,
  -0.037619848f,
  +0.142064661f,
  -0.001454767f,
  -0.014708702f,
  +0.071218535f,
  -0.026499389f,
  +0.043963786f,
  -0.014170526f,
  -0.014176585f,
  +0.193622425f,
  +0.047970135f,
  -0.001818605f,
  -0.003649600f,
  +0.019034337f,
  -0.028355479f,
  -0.006584704f,
  -0.036994420f,
  -0.038202427f,
  +0.025067355f,
  +0.171266675f,
  +0.009242987f,
  -0.297765046f,
  -0.003039561f,
  -0.005317566f,
  -0.024163596f,
  -0.001533594f,
  -0.475393325f,
  +0.011171880f,
  -0.012810413f,
  -0.031465594f,
  +0.033319991f,
  +0.037800763f,
  +0.008392394f,
  -0.014600137f,
  -0.007730484f,
  -0.032496881f,
  -0.019081770f,
  +0.036806751f,
  +0.009213626f,
  +0.017315289f,
  -0.026474876f,
  -0.006623108f,
  +0.020823216f,
  +0.038414914f,
  -0.009739783f,
  -0.021062920f,
  -0.032217212f,
  +0.017646383f,
  -0.032201413f,
  -0.027717810f,
  -0.006024044f,
  +0.035333723f,
  -0.045066115f,
  +0.008993789f,
  +0.024752785f,
  -0.008214081f,
  +0.020645350f,
  -0.014037941f,
  -0.008767337f,
  -0.022413563f,
  +0.002039408f,
  -0.039910745f,
  -0.036645893f,
  +0.035287011f,
  -0.020931467f,
  -0.011716951f,
  +0.024966244f,
  +0.023674626f,
  -0.008944334f,
  -0.017137332f,
  +0.027007584f,
  +0.031269331f,
  +0.002132419f,
  +0.012540858f,
  +0.032150056f,
  -0.010091131f,
  +0.021709677f,
  -0.013770122f,
  +0.013004974f,
  -0.004500765f,
  +0.025988650f,
  -0.006721213f,
  -0.023951305f,
  -0.024355531f,
  -0.036722001f,
  -0.037081122f,
  +0.018617600f,
  -0.012317782f,
  +0.042162497f,
  +0.048617106f,
  -0.009368073f,
  -0.011318766f,
  -0.002753999f,
  -0.060096618f,
  +0.056530699f,
  +0.004175822f,
  +0.018188829f,
  +0.027725983f,
  -0.015717283f,
  +0.035710182f,
  +0.019560851f,
  -0.016870750f,
  +0.018733673f,
  +0.031642992f,
  +0.003350213f,
  -0.000112891f,
  -0.000258867f,
  +0.015270904f,
  -0.015954025f,
  +0.017089501f,
  -0.000574205f,
  -0.010859691f,
  -0.014793411f,
  +0.001489926f,
  -0.013988337f,
  +0.004465330f,
  +0.029398683f,
  -0.010293428f,
  -0.018550808f,
  +0.009072788f,
  +0.012019891f,
  -0.028629936f,
  -0.026093856f,
  +0.026721500f,
  +0.013931578f,
  -0.015675945f,
  -0.002222681f,
  -0.037612941f,
  -0.027207507f,
  -0.037235554f,
  -0.014717516f,
  +0.018658433f,
  -0.029318567f,
  +0.018898807f,
  -0.028674031f,
  -0.006388027f,
  +0.009379830f,
  -0.004065849f,
  +0.035813782f,
  +0.032652121f,
  +0.006785262f,
  -0.034804959f,
  +0.023241010f,
  -0.031230971f,
  -0.013743563f,
  -0.033566196f,
  +0.022236630f,
  -0.032047607f,
  +0.035597254f,
  -0.026157001f,
  -0.028082678f,
  -0.003174637f,
  -0.054965548f,
  -0.030271787f,
  -0.050605047f,
  -0.026129719f,
  -0.000273753f,
  -0.020740878f,
  +0.006439794f,
  +0.020548765f,
  -0.020139895f,
  -0.000438638f,
  -0.013740687f,
  -0.028541248f,
  +0.005494181f,
  -0.011319298f,
  -0.009368680f,
  -0.017307827f,
  -0.026616180f,
  +0.055963580f,
  -0.033680782f,
  +0.007810000f,
  +0.024565497f,
  +0.013144378f,
  +0.021114849f,
  -0.012395155f,
  +0.005236626f,
  +0.017749293f,
  +0.012912296f,
  +0.008322906f,
  -0.017955311f,
  -0.009801296f,
  +0.005032119f,
  +0.005384974f,
  +0.028230825f,
  -0.008001741f,
  +0.035353150f,
  +0.021077871f,
  -0.004358427f,
  -0.024483696f,
  -0.002903354f,
  -0.007122319f,
  -0.014448430f,
  +0.014899220f,
  -0.038427997f,
  +0.011867455f,
  +0.032534644f,
  +0.018973097f,
  +0.023394335f,
  -0.010003639f,
  +0.033060797f,
  +0.025872711f,
  +0.073123388f,
  +0.015449751f,
  +0.028680343f,
  +0.032772478f,
  +0.064806409f,
  -0.029614069f,
  +0.014214009f,
  -0.025989428f,
  +0.016145103f,
  +0.011808779f,
  -0.016834030f,
  -0.001631102f,
  +0.160100475f,
  +0.041450944f,
  -0.021256432f,
  -0.017965388f,
  -0.010157689f,
  +0.003631870f,
  +0.031153787f,
  -0.033095114f,
  -0.030303899f,
  -0.008317705f,
  -0.019009158f,
  +0.008891267f,
  -0.024061957f,
  -0.039290857f,
  -0.010956430f,
  +0.019343553f,
  -0.014528688f,
  -0.002431243f,
  -0.024034524f,
  -0.028290352f,
  +0.006887048f,
  -0.000252791f,
  -0.015816508f,
  +0.014420572f,
  +0.017926229f,
  -0.022919824f,
  -0.026057182f,
  +0.004733197f,
  +0.082684278f,
  +0.030098189f,
  -0.002953656f,
  +0.021377522f,
  +0.037926834f,
  +0.034826148f,
  +0.025618384f,
  +0.011007124f,
  -0.035043292f,
  +0.002291430f,
  +0.037685368f,
  +0.030112091f,
  -0.004199892f,
  +0.030807793f,
  +0.020590320f,
  -0.069109999f,
  -0.054015405f,
  +0.036677998f,
  +0.010611936f,
  +0.020016890f,
  -0.012337761f,
  -0.035799779f,
  +0.019388832f,
  -0.029505957f,
  -0.024452496f,
  +0.002819400f,
  +0.037139136f,
  +0.015252945f,
  +0.028140653f,
  +0.003107961f,
  +0.040963951f,
  +0.052390728f,
  -0.021236265f,
  -0.004420832f,
  +0.007888344f,
  -0.017770471f,
  +0.027066544f,
  +0.013328092f,
  -0.037740149f,
  +0.020324459f,
  -0.018668542f,
  +0.011871602f,
  -0.052052185f,
  +0.000271118f,
  +0.007870603f,
  +0.003234005f,
  +0.004481432f,
  +0.017843492f,
  -0.007620757f,
  +0.006361699f,
  +0.054651808f,
  -0.012099240f,
  -0.008246469f,
  -0.031282157f,
  +0.009580659f,
  +0.044078354f,
  -0.010018539f,
  -0.024965804f,
  +0.029246507f,
  +0.018746458f,
  -0.006749388f,
  +0.033034150f,
  +0.054351669f,
  +0.046120409f,
  +0.014905732f,
  -0.008556890f,
  -0.169933915f,
  +0.017712146f,
  +0.224353924f,
  -0.543804169f,
  +0.009376457f,
  +0.128305405f,
  -0.026658956f,
  -0.147566661f,
  -0.017130435f,
  -0.187278569f,
  +0.107838251f,
  -0.028389899f,
  -0.068263158f,
  -0.032124247f,
  +0.462659955f,
  -0.046244156f,
  -0.211736441f,
  -0.049459588f,
  -0.014774643f,
  -0.037956610f,
  +0.008802112f,
  -0.074283302f,
  -0.001085825f,
  +0.039506763f,
  -0.014236826f,
  +0.048303302f,
  +0.063261636f,
  +0.027134458f,
  -0.000012987f,
  -0.142095283f,
  -0.020968901f,
  -0.058391064f,
  -0.008573606f,
  +0.031968247f,
  -0.133020088f,
  -0.021087993f,
  -0.191012323f,
  -0.014117042f,
  +0.007577606f,
  -0.011499922f,
  +0.107505515f,
  -0.029871630f,
  -0.028513309f,
  -0.227996007f,
  -0.074827552f,
  +0.147804111f,
  -0.195126444f,
  +0.071046211f,
  -0.168949738f,
  -0.082439601f,
  +0.073578119f,
  -0.127902672f,
  -0.003660057f,
  -0.425881684f,
  -0.087077081f,
  -0.016341805f,
  -0.027733713f,
  +0.020349026f,
  -0.024900679f,
  -0.014206503f,
  +0.037473816f,
  +0.035378058f,
  +0.019687973f,
  +0.008122243f,
  -0.005255625f,
  -0.039017268f,
  -0.011585951f,
  +0.044528138f,
  -0.035575807f,
  +0.078679055f,
  -0.011208586f,
  -0.069271110f,
  +0.026330901f,
  +0.012380532f,
  +0.042730052f,
  -0.016075274f,
  +0.003873188f,
  +0.131237134f,
  +0.078661084f,
  +0.011640761f,
  -0.012508923f,
  +0.021690976f,
  -0.026928119f,
  -0.013411703f,
  +0.005788904f,
  -0.062147684f,
  +0.019834660f,
  +0.232629418f,
  +0.033919569f,
  -0.326729774f,
  -0.049707800f,
  +0.035979535f,
  +0.014842827f,
  +0.006512067f,
  -0.517604172f,
  +0.022662014f,
  +0.027468529f,
  +0.024920892f,
  -0.036961537f,
  +0.002291135f,
  +0.008929830f,
  +0.016990051f,
  +0.030402306f,
  -0.034662727f,
  -0.024631441f,
  +0.031427968f,
  +0.022146270f,
  -0.010733305f,
  +0.015982179f,
  +0.028516430f,
  -0.049180970f,
  +0.010397416f,
  +0.001827065f,
  +0.013894100f,
  -0.006037748f,
  -0.032716133f,
  -0.024419377f,
  -0.048635520f,
  +0.047939274f,
  +0.003588900f,
  -0.018696630f,
  +0.035922177f,
  -0.041075207f,
  +0.018371603f,
  -0.038475640f,
  -0.032252956f,
  +0.031701338f,
  +0.012660752f,
  -0.030225018f,
  +0.013454594f,
  -0.026102979f,
  +0.030199032f,
  -0.006640889f,
  -0.037221745f,
  -0.006051522f,
  -0.017325949f,
  -0.023106147f,
  -0.035267938f,
  -0.010905638f,
  -0.006536860f,
  +0.007988248f,
  +0.030198591f,
  -0.025053985f,
  +0.035342541f,
  -0.017950596f,
  -0.033731300f,
  +0.036349934f,
  -0.011296120f,
  -0.027910728f,
  -0.032492749f,
  -0.002886072f,
  -0.005012274f,
  -0.012174178f,
  +0.007624753f,
  +0.017136864f,
  -0.036133233f,
  +0.019142209f,
  +0.004942271f,
  +0.025849728f,
  -0.002486187f,
  -0.036907170f,
  -0.080384530f,
  +0.000408157f,
  -0.003117006f,
  -0.003709875f,
  -0.020378802f,
  +0.020028848f,
  +0.011275191f,
  -0.003687587f,
  -0.002618082f,
  +0.038386952f,
  -0.039887782f,
  -0.020508179f,
  +0.038450692f,
  -0.028787289f,
  -0.004343353f,
  -0.036111731f,
  +0.001143172f,
  +0.023323294f,
  -0.032045141f,
  -0.021566903f,
  -0.012305498f,
  -0.021091383f,
  -0.007570844f,
  +0.012324627f,
  +0.016037650f,
  +0.012288518f,
  +0.025047321f,
  -0.018799990f,
  -0.003260337f,
  -0.028786842f,
  +0.002911922f,
  +0.047186058f,
  -0.031823851f,
  +0.058155645f,
  +0.001619875f,
  -0.026374016f,
  +0.016887043f,
  -0.000246480f,
  -0.014045186f,
  -0.002097938f,
  +0.039906371f,
  -0.017340636f,
  +0.008585155f,
  +0.015113130f,
  +0.021966260f,
  +0.028813448f,
  +0.008232698f,
  +0.009781558f,
  +0.010590587f,
  +0.009340405f,
  -0.013715832f,
  +0.010653161f,
  -0.000602763f,
  -0.018696887f,
  -0.003940426f,
  +0.036239546f,
  -0.017627003f,
  +0.015935235f,
  +0.005897692f,
  -0.019457212f,
  +0.022726130f,
  -0.004494031f,
  -0.004522152f,
  +0.020783424f,
  +0.037248690f,
  +0.048772197f,
  +0.008381061f,
  +0.020559080f,
  +0.037953135f,
  +0.009488001f,
  +0.004687194f,
  +0.032046776f,
  +0.013530612f,
  +0.011148814f,
  +0.036311354f,
  -0.014174059f,
  +0.042308044f,
  -0.028692309f,
  -0.039819371f,
  -0.013109493f,
  +0.032304596f,
  -0.034973074f,
  +0.021013170f,
  +0.000871729f,
  +0.002095347f,
  +0.033670627f,
  +0.012956467f,
  +0.029168766f,
  -0.012525051f,
  +0.016546167f,
  -0.018030191f,
  +0.071561210f,
  +0.027010832f,
  +0.055570263f,
  -0.034882806f,
  +0.021198239f,
  -0.015599363f,
  -0.004399242f,
  -0.027136134f,
  -0.009741193f,
  +0.042683333f,
  +0.018978514f,
  -0.013610938f,
  -0.020492142f,
  +0.030135747f,
  +0.034163985f,
  +0.000143118f,
  -0.010932094f,
  +0.013915002f,
  +0.038612466f,
  -0.010855015f,
  +0.030676642f,
  +0.032474179f,
  +0.062016729f,
  +0.030138653f,
  +0.059079871f,
  +0.037729565f,
  -0.033552673f,
  +0.006718982f,
  -0.031884521f,
  +0.022306249f,
  +0.214637205f,
  +0.005048255f,
  -0.021101495f,
  +0.032905873f,
  -0.007722363f,
  +0.027590176f,
  -0.019054307f,
  +0.037463170f,
  -0.031124800f,
  +0.018669955f,
  -0.005082265f,
  +0.037105821f,
  +0.039093047f,
  +0.033250470f,
  -0.029691247f,
  -0.018477738f,
  +0.028119806f,
  -0.029197400f,
  -0.038025014f,
  -0.029581007f,
  -0.028662059f,
  -0.020895166f,
  +0.016406814f,
  +0.035695620f,
  -0.031383689f,
  +0.000462321f,
  -0.035152603f,
  -0.009789215f,
  +0.072656780f,
  -0.003417587f,
  +0.011682611f,
  -0.032792490f,
  -0.025749493f,
  +0.028860819f,
  +0.045172840f,
  -0.024380395f,
  -0.002887595f,
  +0.018970154f,
  -0.013631810f,
  +0.011487375f,
  +0.017859137f,
  -0.029086389f,
  +0.028922377f,
  -0.000294708f,
  -0.020559911f,
  +0.039541241f,
  +0.014058214f,
  -0.016753640f,
  -0.000716019f,
  +0.001268174f,
  -0.014845340f,
  -0.009619415f,
  -0.007983944f,
  +0.007805455f,
  -0.009206658f,
  +0.009287895f,
  -0.039073642f,
  -0.029473426f,
  +0.027042232f,
  +0.008963065f,
  +0.004216524f,
  +0.034199234f,
  -0.024116179f,
  +0.007896942f,
  -0.002295989f,
  -0.031627532f,
  +0.036660794f,
  +0.042267799f,
  +0.004102070f,
  +0.009016842f,
  -0.057988092f,
  +0.035889577f,
  +0.004660025f,
  -0.028104033f,
  -0.044384599f,
  +0.014571264f,
  -0.009774953f,
  +0.015215679f,
  +0.028373780f,
  +0.028251408f,
  -0.001027647f,
  +0.025881667f,
  -0.005245815f,
  +0.030524235f,
  +0.036108110f,
  -0.029877279f,
  +0.039804030f,
  -0.017999081f,
  +0.022884417f,
  +0.048823971f,
  +0.042601686f,
  +0.022712583f,
  +0.005431864f,
  -0.049037132f,
  -0.237692326f,
  +0.037959911f,
  +0.195845470f,
  -0.582534552f,
  +0.063248895f,
  +0.077392437f,
  -0.006653722f,
  -0.134217694f,
  +0.036671065f,
  -0.183634460f,
  +0.062136117f,
  -0.065629967f,
  -0.040917046f,
  -0.111406952f,
  +0.585666060f,
  -0.051762607f,
  -0.228417069f,
  -0.013057020f,
  -0.001238428f,
  -0.036529057f,
  +0.001286339f,
  -0.091411017f,
  -0.004004762f,
  +0.073356830f,
  +0.003134942f,
  -0.004656606f,
  +0.058892563f,
  -0.013847031f,
  +0.003288089f,
  -0.072926879f,
  -0.020672381f,
  -0.133746788f,
  +0.007275773f,
  +0.008509486f,
  -0.285509437f,
  -0.016010433f,
  -0.122719675f,
  -0.027214263f,
  +0.033060279f,
  +0.061693646f,
  +0.049266223f,
  +0.038455907f,
  +0.020414626f,
  -0.099931493f,
  -0.097741500f,
  -0.005620035f,
  -0.044373259f,
  -0.009587566f,
  -0.126849666f,
  +0.004123577f,
  +0.101155363f,
  -0.175781816f,
  +0.014357532f,
  -0.315087289f,
  -0.054719821f,
  -0.040198650f,
  -0.080363266f,
  +0.025532503f,
  +0.001862820f,
  +0.017886754f,
  +0.021579597f,
  -0.036917388f,
  +0.032752443f,
  -0.010154471f,
  -0.036402531f,
  +0.037743617f,
  -0.036805063f,
  +0.009650854f,
  -0.033775069f,
  +0.033924155f,
  -0.009719767f,
  -0.030489743f,
  -0.025338959f,
  +0.025801908f,
  +0.061403215f,
  -0.003574770f,
  -0.027857790f,
  +0.172167048f,
  +0.046793960f,
  +0.029815931f,
  -0.014460942f,
  -0.007289838f,
  +0.008399479f,
  -0.000954166f,
  -0.012509657f,
  -0.032218583f,
  -0.003304053f,
  +0.184530854f,
  +0.048275147f,
  -0.270946860f,
  +0.021288749f,
  +0.044324454f,
  -0.031385466f,
  -0.001875062f,
  -0.519191682f,
  +0.014726489f,
  -0.023843080f,
  -0.038383953f,
  +0.020613216f,
  -0.025722895f,
  -0.023287138f,
  +0.035171587f,
  +0.029041816f,
  -0.011315461f,
  +0.012098502f,
  -0.002545595f,
  -0.019182164f,
  +0.028303405f,
  +0.010564665f,
  +0.039198074f,
  -0.026463648f,
  -0.000703257f,
  -0.023647683f,
  -0.001949143f,
  -0.046686787f,
  -0.039532177f,
  +0.025608411f,
  +0.028328106f,
  +0.038218502f,
  +0.020092305f,
  -0.023558149f,
  +0.053763248f,
  -0.000246338f,
  +0.008601137f,
  -0.003767707f,
  -0.038135875f,
  +0.006697412f,
  -0.022213381f,
  -0.009843319f,
  +0.009795967f,
  +0.007684071f,
  -0.030477956f,
  +0.017545305f,
  -0.029497994f,
  -0.010833036f,
  +0.018476035f,
  +0.024852086f,
  +0.012211896f,
  +0.033903342f,
  -0.030544387f,
  -0.022433924f,
  +0.039089669f,
  +0.022818204f,
  +0.007931197f,
  +0.023164175f,
  -0.025213379f,
  +0.015405126f,
  +0.011753671f,
  -0.003121313f,
  -0.028777815f,
  -0.032541573f,
  +0.027575485f,
  -0.034651279f,
  -0.023534635f,
  -0.008165058f,
  -0.038254235f,
  +0.051280450f,
  -0.018076070f,
  -0.018228555f,
  +0.040442888f,
  +0.002795976f,
  -0.077051379f,
  +0.005840259f,
  -0.031677492f,
  +0.005240640f,
  -0.007568941f,
  -0.034692656f,
  -0.003921293f,
  -0.004589137f,
  -0.032105468f,
  +0.023209687f,
  +0.018349580f,
  +0.021470543f,
  +0.015892055f,
  -0.002432242f,
  -0.011078086f,
  -0.034029298f,
  -0.017506316f,
  -0.031965148f,
  +0.032976057f,
  -0.018439382f,
  +0.004671004f,
  -0.030083027f,
  +0.032722097f,
  +0.004303813f,
  -0.020778140f,
  -0.019367920f,
  -0.019609056f,
  +0.022520907f,
  +0.021683540f,
  -0.017751418f,
  -0.024413867f,
  +0.014074923f,
  +0.001048479f,
  +0.034270439f,
  -0.023935124f,
  +0.003076270f,
  -0.014601946f,
  -0.006640535f,
  -0.025700964f,
  +0.021833256f,
  -0.037781484f,
  -0.037575401f,
  -0.008030739f,
  -0.018227661f,
  -0.034569271f,
  -0.022838024f,
  -0.012932068f,
  -0.024937084f,
  +0.020393811f,
  -0.035712603f,
  -0.033188161f,
  +0.020057276f,
  +0.032194924f,
  +0.023649234f,
  +0.034762438f,
  +0.033040460f,
  +0.029437181f,
  -0.027054777f,
  +0.012212393f,
  +0.003849992f,
  +0.030870516f,
  -0.024396125f,
  +0.003212512f,
  -0.030263884f,
  -0.025230329f,
  +0.003516757f,
  +0.016108699f,
  +0.006312236f,
  -0.017341653f,
  -0.024812993f,
  -0.015694143f,
  -0.013714194f,
  -0.009275813f,
  -0.020503074f,
  +0.031095650f,
  +0.025740769f,
  +0.003576598f,
  +0.006150912f,
  -0.004982885f,
  +0.016782103f,
  -0.035340026f,
  +0.009822641f,
  -0.002123449f,
  -0.031182213f,
  +0.031976175f,
  +0.027567318f,
  +0.026098568f,
  +0.018462628f,
  -0.015066295f,
  +0.038142081f,
  +0.014875766f,
  +0.052658748f,
  +0.017772701f,
  +0.004744533f,
  +0.024234567f,
  -0.014044138f,
  -0.026560225f,
  -0.031015754f,
  +0.004931338f,
  +0.019768383f,
  -0.017751500f,
  -0.031878550f,
  +0.015678313f,
  -0.006659651f,
  -0.009885557f,
  +0.028959338f,
  +0.020174414f,
  +0.012095095f,
  +0.010402475f,
  +0.060786128f,
  +0.021260660f,
  -0.008525117f,
  +0.016147401f,
  +0.036217578f,
  -0.027515341f,
  +0.003101344f,
  +0.021941595f,
  +0.008720186f,
  -0.036963411f,
  -0.000771251f,
  +0.015826160f,
  +0.216069326f,
  +0.020639075f,
  -0.025333889f,
  -0.014112989f,
  -0.029936556f,
  +0.014325764f,
  -0.017924247f,
  +0.037859324f,
  +0.031968269f,
  +0.009102594f,
  -0.022319727f,
  -0.018473526f,
  +0.006307874f,
  -0.029913997f,
  -0.025613947f,
  +0.000952277f,
  -0.004573766f,
  -0.029657638f,
  -0.043490216f,
  -0.043330278f,
  -0.027587058f,
  -0.017673645f,
  -0.021080222f,
  +0.035473160f,
  +0.017118461f,
  +0.007375795f,
  -0.069889605f,
  +0.030709397f,
  +0.045170113f,
  -0.000349959f,
  -0.037439846f,
  +0.026964802f,
  +0.019773915f,
  +0.034242984f,
  +0.010317273f,
  +0.042304277f,
  +0.033641752f,
  +0.028691288f,
  +0.033800121f,
  +0.009701802f,
  -0.024771957f,
  -0.020363500f,
  -0.006860027f,
  -0.038668618f,
  -0.021752093f,
  -0.026767727f,
  -0.008579623f,
  +0.005388591f,
  +0.033524353f,
  -0.027564581f,
  -0.003608298f,
  +0.026109841f,
  +0.036120903f,
  +0.007199809f,
  -0.017605595f,
  +0.011517649f,
  -0.026356008f,
  -0.019682877f,
  -0.000301243f,
  +0.009299427f,
  +0.002388985f,
  +0.031391274f,
  -0.011047185f,
  -0.016587801f,
  -0.005360221f,
  -0.052636303f,
  -0.018427478f,
  +0.032108814f,
  +0.013890615f,
  +0.007820122f,
  -0.065646939f,
  -0.004193954f,
  +0.023384016f,
  +0.019831214f,
  +0.015902961f,
  -0.010762615f,
  +0.006436925f,
  +0.041197602f,
  -0.008003443f,
  +0.035992350f,
  +0.049110118f,
  -0.009716537f,
  +0.029775642f,
  +0.043980408f,
  -0.015520390f,
  -0.031346045f,
  +0.035850320f,
  +0.015587437f,
  -0.020128362f,
  +0.009183332f,
  +0.002649882f,
  +0.033579506f,
  -0.015786257f,
  +0.013195848f,
  -0.322158933f,
  +0.017193655f,
  +0.233009413f,
  -0.614141524f,
  -0.005869948f,
  +0.097450651f,
  -0.008060183f,
  -0.143283024f,
  -0.026301185f,
  -0.177800238f,
  +0.102908902f,
  -0.062283289f,
  -0.016619751f,
  -0.105120867f,
  +0.631169975f,
  -0.106834754f,
  -0.192670390f,
  -0.022268642f,
  +0.028437052f,
  -0.010293446f,
  -0.001522522f,
  -0.101802245f,
  -0.014469789f,
  +0.027881710f,
  +0.004706858f,
  -0.013789778f,
  +0.102384634f,
  +0.007612177f,
  +0.016671989f,
  -0.013527681f,
  -0.005412228f,
  -0.153922632f,
  -0.018859435f,
  -0.020386212f,
  -0.328621775f,
  -0.007534601f,
  -0.025439374f,
  +0.022829093f,
  -0.001939211f,
  +0.148852155f,
  +0.102681905f,
  +0.042063549f,
  +0.053818312f,
  -0.015530559f,
  -0.089176886f,
  -0.175374523f,
  +0.023410335f,
  -0.031514611f,
  -0.122264981f,
  +0.009262669f,
  +0.099215083f,
  -0.167997494f,
  -0.025526639f,
  -0.220650896f,
  -0.058899641f,
  -0.067439698f,
  -0.051977705f,
  -0.001375318f,
  -0.018548066f,
  -0.003672481f,
  +0.026836898f,
  +0.003208064f,
  +0.038328510f,
  -0.029665329f,
  +0.020621832f,
  +0.030898642f,
  +0.008451110f,
  -0.016048245f,
  -0.006724820f,
  -0.001264489f,
  -0.014957633f,
  -0.088995747f,
  -0.002012389f,
  +0.017627506f,
  +0.073549859f,
  -0.030563338f,
  -0.055744149f,
  +0.184987247f,
  +0.047418699f,
  -0.036642294f,
  +0.027156595f,
  -0.008749356f,
  +0.000559043f,
  -0.010030238f,
  +0.032028254f,
  -0.023694398f,
  -0.039508730f,
  +0.197061181f,
  +0.062025014f,
  -0.266556889f,
  -0.018874200f,
  -0.013179955f,
  -0.003808457f,
  +0.031631585f,
  -0.527386844f,
  +0.000799087f,
  -0.010973853f,
  -0.005426209f,
  -0.005390964f,
  +0.037043873f,
  +0.007389110f,
  +0.033294205f,
  +0.006317284f,
  +0.037873086f,
  +0.027520452f,
  -0.031183653f,
  +0.007674709f,
  +0.045346349f,
  +0.013303509f,
  -0.018014133f,
  -0.031811453f,
  +0.023253646f,
  +0.011524686f,
  -0.028076919f,
  -0.030361641f,
  -0.005245686f,
  +0.007069801f,
  +0.014573083f,
  +0.015246182f,
  -0.010306271f,
  -0.003007572f,
  +0.009758401f,
  -0.018439353f,
  +0.010197118f,
  -0.000883177f,
  +0.025656130f,
  +0.026312787f,
  +0.022494033f,
  +0.035377517f,
  -0.002780892f,
  -0.004834536f,
  +0.020658411f,
  -0.009797528f,
  +0.020933457f,
  +0.020225361f,
  -0.036396824f,
  +0.035586905f,
  -0.028916277f,
  +0.004687391f,
  +0.026286598f,
  +0.010622021f,
  +0.020011328f,
  +0.038155559f,
  -0.016925981f,
  +0.025962174f,
  -0.011141766f,
  +0.036897641f,
  -0.005165141f,
  +0.015742518f,
  +0.011509079f,
  +0.033673707f,
  +0.004898618f,
  +0.019390650f,
  -0.009400904f,
  -0.024808899f,
  +0.030560013f,
  +0.050262164f,
  +0.032540400f,
  +0.001419408f,
  +0.024528926f,
  +0.031778920f,
  -0.080439009f,
  +0.036122583f,
  -0.041852079f,
  +0.027619515f,
  -0.037233107f,
  -0.026059402f,
  +0.012841001f,
  +0.012398250f,
  +0.024121780f,
  +0.022183150f,
  -0.024819316f,
  +0.028599892f,
  -0.000491347f,
  -0.025814390f,
  -0.006383412f,
  +0.025956728f,
  +0.015168442f,
  -0.009209650f,
  +0.003779490f,
  +0.015275285f,
  -0.008303519f,
  +0.001473594f,
  +0.034608636f,
  -0.001700114f,
  +0.038408343f,
  +0.027446385f,
  +0.010771785f,
  -0.015125081f,
  +0.011968222f,
  +0.005345959f,
  +0.023347048f,
  +0.016822601f,
  +0.000005733f,
  +0.035870612f,
  +0.009011060f,
  +0.019989911f,
  -0.009380164f,
  -0.005389221f,
  -0.030555032f,
  -0.032627191f,
  -0.019635959f,
  -0.026911264f,
  +0.038778190f,
  -0.035634078f,
  -0.034377269f,
  +0.015123833f,
  -0.036173135f,
  +0.019890942f,
  +0.014443696f,
  -0.022327241f,
  -0.038091034f,
  +0.033033509f,
  -0.024147959f,
  +0.022911418f,
  -0.013481028f,
  -0.022113778f,
  -0.004649702f,
  +0.008583887f,
  +0.072321400f,
  -0.052874915f,
  -0.008815216f,
  -0.026949156f,
  +0.030142974f,
  +0.014320623f,
  -0.001899462f,
  -0.012747186f,
  -0.030603960f,
  -0.024255967f,
  +0.022543654f,
  -0.022391986f,
  -0.027430475f,
  +0.033989694f,
  -0.026895940f,
  +0.030610133f,
  -0.023180196f,
  -0.036430325f,
  +0.042630050f,
  -0.022120683f,
  -0.027950171f,
  +0.026039325f,
  -0.022462931f,
  +0.007246699f,
  +0.011637542f,
  -0.053253107f,
  +0.033720545f,
  +0.067338884f,
  -0.033249155f,
  -0.037721522f,
  -0.014432530f,
  -0.001352366f,
  -0.020913644f,
  +0.064143054f,
  +0.023623083f,
  -0.002412714f,
  -0.034663051f,
  +0.012491204f,
  -0.020287279f,
  +0.012078493f,
  -0.021529688f,
  -0.003607355f,
  +0.004521307f,
  -0.018638255f,
  +0.046077419f,
  -0.022042459f,
  +0.016769771f,
  -0.039293598f,
  +0.025848899f,
  +0.000028577f,
  -0.007737998f,
  +0.086775593f,
  +0.035410229f,
  +0.021936763f,
  +0.010216799f,
  +0.019243136f,
  -0.021650370f,
  +0.039167296f,
  +0.023858536f,
  +0.007657148f,
  -0.012906348f,
  -0.012814252f,
  +0.026893556f,
  +0.156826630f,
  -0.022269106f,
  -0.032527439f,
  +0.024522455f,
  +0.006671865f,
  -0.015570467f,
  +0.004716579f,
  -0.014212169f,
  -0.021620803f,
  +0.017759264f,
  +0.028191436f,
  +0.011768979f,
  +0.024882875f,
  +0.036248397f,
  -0.001682349f,
  -0.022413975f,
  -0.022901941f,
  +0.021430029f,
  -0.018193314f,
  -0.000392983f,
  +0.033146970f,
  +0.002175216f,
  +0.011870252f,
  +0.067631081f,
  -0.015868807f,
  +0.000099922f,
  -0.070442073f,
  -0.010968460f,
  +0.042763807f,
  +0.000074826f,
  +0.002369557f,
  -0.023765333f,
  -0.024652116f,
  +0.021783642f,
  +0.043882795f,
  -0.030101089f,
  -0.021107024f,
  +0.001763742f,
  +0.010269375f,
  +0.015787916f,
  -0.019399868f,
  -0.029832456f,
  -0.002631029f,
  -0.033562642f,
  -0.022111762f,
  +0.025355961f,
  -0.012050848f,
  +0.012951504f,
  +0.027303714f,
  -0.009823690f,
  +0.027225722f,
  +0.035696443f,
  -0.035494901f,
  +0.004566777f,
  -0.030601524f,
  +0.001684620f,
  -0.000027891f,
  +0.015947886f,
  -0.003997428f,
  +0.010699781f,
  -0.000437809f,
  +0.019553062f,
  -0.007032608f,
  -0.016267797f,
  +0.028068211f,
  -0.017687440f,
  +0.028422993f,
  -0.006803303f,
  +0.035226300f,
  +0.013981700f,
  -0.038692884f,
  +0.003263018f,
  -0.018456819f,
  +0.003354897f,
  -0.036871903f,
  +0.021111686f,
  +0.008467371f,
  +0.002369033f,
  +0.013562197f,
  -0.009642972f,
  +0.054010149f,
  -0.006631821f,
  -0.000993480f,
  +0.014007946f,
  +0.026271101f,
  -0.015369264f,
  +0.026570529f,
  +0.005935901f,
  +0.001301881f,
  +0.017598465f,
  +0.041780915f,
  +0.057658505f,
  +0.035352934f,
  -0.049682368f,
  -0.400277406f,
  +0.012601783f,
  +0.216705516f,
  -0.555548370f,
  +0.039144244f,
  +0.139045909f,
  -0.028434861f,
  -0.168587133f,
  -0.000400436f,
  -0.124548666f,
  +0.073242255f,
  -0.042497039f,
  -0.073032074f,
  -0.084542327f,
  +0.676530540f,
  -0.146397382f,
  -0.180188835f,
  -0.066071957f,
  -0.037317734f,
  -0.035576105f,
  +0.035070132f,
  -0.162578166f,
  -0.001007579f,
  +0.014994998f,
  +0.042002935f,
  -0.000761803f,
  +0.138697281f,
  -0.036384821f,
  +0.010986492f,
  -0.046057619f,
  -0.014177991f,
  -0.118840195f,
  +0.025772618f,
  -0.087814949f,
  -0.343826771f,
  -0.038458936f,
  -0.008458545f,
  +0.014567028f,
  -0.020141285f,
  +0.155091077f,
  +0.071094245f,
  +0.046317268f,
  -0.000268515f,
  +0.026089059f,
  -0.112507224f,
  -0.222701028f,
  +0.100526989f,
  -0.076463588f,
  -0.079479337f,
  +0.046968754f,
  +0.173897699f,
  -0.142370835f,
  +0.030051194f,
  -0.233643144f,
  -0.067630485f,
  -0.052851744f,
  -0.066675976f,
  -0.012044344f,
  +0.018063117f,
  +0.017022334f,
  +0.018391054f,
  -0.021717869f,
  +0.014324870f,
  -0.031440090f,
  -0.020893833f,
  +0.015859537f,
  -0.038950454f,
  +0.019740015f,
  -0.035573743f,
  -0.106935509f,
  -0.038916126f,
  -0.114352874f,
  +0.015968362f,
  +0.023287619f,
  +0.055308200f,
  -0.021780366f,
  -0.158649713f,
  +0.145551801f,
  -0.014848784f,
  +0.031558942f,
  +0.035214145f,
  +0.007966403f,
  +0.012885161f,
  +0.020223152f,
  -0.033168696f,
  -0.035733618f,
  -0.027050143f,
  +0.185451835f,
  +0.005635060f,
  -0.310009956f,
  -0.045659967f,
  -0.001194643f,
  -0.018070316f,
  +0.023755103f,
  -0.518369257f,
  -0.038305309f,
  +0.024706546f,
  -0.034025062f,
  +0.014803059f,
  +0.016009852f,
  -0.039811660f,
  +0.001921441f,
  +0.025819574f,
  +0.000136051f,
  -0.008265343f,
  -0.013040867f,
  +0.026861999f,
  +0.028214777f,
  -0.013141090f,
  +0.034040678f,
  -0.040618189f,
  -0.010577532f,
  +0.011049543f,
  -0.016740136f,
  -0.004527148f,
  -0.003454786f,
  -0.040475499f,
  +0.003298444f,
  +0.061451215f,
  -0.040937953f,
  +0.012281524f,
  +0.040867008f,
  -0.038500525f,
  +0.026579935f,
  +0.012010026f,
  +0.037043650f,
  -0.000297003f,
  +0.011905248f,
  -0.018256493f,
  +0.028810393f,
  -0.032411490f,
  -0.003875755f,
  -0.036410909f,
  +0.035180096f,
  -0.020835744f,
  +0.027435113f,
  +0.034095760f,
  -0.035039362f,
  +0.024372634f,
  -0.013421645f,
  -0.033750102f,
  +0.013480936f,
  +0.002085306f,
  +0.009330667f,
  -0.007194520f,
  -0.017718317f,
  +0.014580853f,
  +0.024589185f,
  -0.021988848f,
  +0.020609826f,
  +0.035026345f,
  -0.015599779f,
  +0.028397035f,
  -0.039059881f,
  -0.013947217f,
  -0.031691749f,
  +0.012311244f,
  +0.049691919f,
  +0.028337959f,
  +0.007544265f,
  +0.022422440f,
  -0.037033450f,
  -0.003173469f,
  -0.025248338f,
  +0.002591348f,
  +0.013507511f,
  -0.008296710f,
  -0.020311829f,
  +0.007768441f,
  +0.003604062f,
  +0.026935648f,
  -0.027406532f,
  +0.010055292f,
  -0.013707289f,
  +0.016720481f,
  -0.033664271f,
  -0.034590974f,
  +0.020932965f,
  +0.022719685f,
  +0.018579509f,
  -0.019916805f,
  +0.020838611f,
  +0.025267776f,
  -0.035163708f,
  -0.033654615f,
  +0.021083862f,
  -0.015740966f,
  -0.034750842f,
  +0.032002155f,
  -0.019109063f,
  -0.002379011f,
  +0.026148841f,
  +0.029006798f,
  -0.016198108f,
  +0.058788810f,
  -0.035845045f,
  -0.021179546f,
  -0.023927659f,
  +0.030992676f,
  -0.036584120f,
  +0.029699560f,
  -0.002791140f,
  -0.048755638f,
  +0.022689056f,
  -0.022551665f,
  -0.033609420f,
  +0.008755002f,
  -0.003797267f,
  -0.012747459f,
  -0.033038851f,
  +0.029142473f,
  +0.028563593f,
  -0.003582720f,
  +0.034094807f,
  -0.016837306f,
  -0.008928632f,
  +0.016491991f,
  +0.001012273f,
  -0.002016305f,
  +0.045985956f,
  -0.009423424f,
  -0.024014259f,
  -0.040319081f,
  +0.026580539f,
  -0.020343645f,
  -0.017254557f,
  +0.000730086f,
  -0.030950952f,
  +0.019266512f,
  -0.026491992f,
  +0.021171652f,
  +0.018612068f,
  -0.029133223f,
  +0.016012337f,
  +0.017955139f,
  +0.037542958f,
  +0.001892634f,
  +0.049018521f,
  +0.032060016f,
  +0.007938188f,
  +0.026187152f,
  +0.037818100f,
  -0.017245511f,
  +0.021031972f,
  -0.011704916f,
  +0.025111461f,
  +0.037634805f,
  +0.026356149f,
  +0.023920763f,
  -0.039361674f,
  +0.020711264f,
  +0.016684199f,
  +0.046439428f,
  +0.024589334f,
  +0.009591705f,
  -0.038330626f,
  +0.013070349f,
  +0.006135162f,
  +0.022942461f,
  -0.021536421f,
  +0.031614412f,
  +0.051574312f,
  +0.009875074f,
  +0.024616741f,
  -0.019344581f,
  +0.007391348f,
  +0.019746259f,
  +0.015178084f,
  -0.019745700f,
  -0.023462443f,
  +0.086515822f,
  +0.038904425f,
  +0.018644087f,
  -0.027269853f,
  +0.009487541f,
  -0.035251662f,
  +0.046201389f,
  +0.010425672f,
  +0.010034066f,
  +0.003803678f,
  -0.032403208f,
  +0.009873888f,
  +0.180284694f,
  +0.014837882f,
  -0.016260035f,
  +0.031699874f,
  +0.034126867f,
  +0.029846497f,
  -0.031989422f,
  +0.034325790f,
  -0.019355169f,
  -0.029102743f,
  -0.016123783f,
  +0.022363530f,
  +0.039078034f,
  -0.002450917f,
  -0.018649708f,
  -0.006561221f,
  +0.028424326f,
  +0.019943377f,
  -0.020424930f,
  -0.010642996f,
  -0.021589566f,
  +0.023614775f,
  +0.007583750f,
  +0.003007773f,
  -0.029035682f,
  -0.021504285f,
  -0.091117151f,
  +0.039496455f,
  +0.042344429f,
  +0.035349585f,
  -0.026783247f,
  +0.024787899f,
  +0.025688220f,
  +0.015007854f,
  +0.066617437f,
  +0.034609821f,
  +0.031735569f,
  +0.018104248f,
  -0.014131740f,
  +0.021892736f,
  +0.021281967f,
  +0.015498826f,
  -0.001098856f,
  -0.026411192f,
  -0.047400571f,
  +0.013238035f,
  +0.015682612f,
  +0.034179013f,
  -0.016035916f,
  +0.019620709f,
  -0.014728313f,
  -0.017789366f,
  +0.038738027f,
  -0.032627478f,
  -0.032166336f,
  +0.035999373f,
  +0.023956921f,
  +0.012902472f,
  -0.016664494f,
  +0.021147680f,
  -0.001422038f,
  +0.011350438f,
  +0.005622036f,
  +0.041832015f,
  -0.016870912f,
  -0.052800849f,
  +0.027429197f,
  +0.017513111f,
  +0.016932275f,
  -0.032364666f,
  -0.025339253f,
  +0.041458491f,
  -0.035698842f,
  +0.004472539f,
  -0.031791180f,
  +0.037728917f,
  +0.030036412f,
  +0.009568507f,
  -0.005132375f,
  +0.040024426f,
  +0.039799150f,
  -0.007268477f,
  +0.018192688f,
  -0.008336470f,
  -0.000181271f,
  -0.022339372f,
  -0.016970504f,
  +0.010657245f,
  -0.020822784f,
  +0.024347641f,
  +0.024613924f,
  +0.052397233f,
  +0.002639890f,
  -0.039415028f,
  -0.417592824f,
  +0.003152775f,
  +0.227748200f,
  -0.576515019f,
  +0.024973234f,
  +0.076126106f,
  -0.024334664f,
  -0.162845984f,
  +0.018045848f,
  -0.140941679f,
  +0.109880887f,
  -0.035439171f,
  -0.054708369f,
  -0.083459206f,
  +0.778060973f,
  -0.124551907f,
  -0.228715137f,
  -0.005458957f,
  -0.035764445f,
  -0.002601739f,
  -0.022759290f,
  -0.128206536f,
  -0.039346606f,
  +0.035237674f,
  +0.082251601f,
  +0.015855540f,
  +0.154114544f,
  -0.076517142f,
  +0.004381224f,
  +0.123144887f,
  +0.010092296f,
  -0.206125617f,
  -0.001503206f,
  -0.151227638f,
  -0.389346600f,
  +0.010413624f,
  -0.051080838f,
  -0.013372664f,
  -0.039380487f,
  +0.210305795f,
  +0.072326213f,
  -0.001599462f,
  +0.036755897f,
  -0.005107925f,
  -0.112888344f,
  -0.245902449f,
  +0.148000553f,
  -0.057511002f,
  -0.090840302f,
  +0.109536134f,
  +0.165322602f,
  -0.218128622f,
  +0.012254892f,
  -0.175821573f,
  -0.078093998f,
  -0.070795834f,
  -0.071100049f,
  -0.030739423f,
  +0.015677068f,
  +0.010872222f,
  -0.039796937f,
  +0.010520034f,
  +0.007009201f,
  +0.033705126f,
  +0.011030443f,
  -0.034836985f,
  -0.115543343f,
  -0.079111524f,
  -0.039352268f,
  -0.142404124f,
  -0.026727282f,
  -0.130640075f,
  -0.036274619f,
  +0.115075976f,
  +0.101414584f,
  -0.034248427f,
  -0.159156293f,
  +0.172644556f,
  -0.002206308f,
  +0.035031337f,
  -0.031933818f,
  -0.012194490f,
  -0.012971293f,
  +0.037371587f,
  +0.001524009f,
  -0.010687238f,
  +0.034252886f,
  +0.184349328f,
  +0.026077209f,
  -0.261821151f,
  -0.035516050f,
  -0.000848963f,
  -0.026485451f,
  -0.001881727f,
  -0.479957193f,
  +0.007313128f,
  -0.038049959f,
  -0.038666364f,
  +0.025712933f,
  +0.024125818f,
  +0.020891346f,
  -0.002230968f,
  +0.006560620f,
  +0.034400370f,
  -0.024716888f,
  -0.025842730f,
  +0.001761954f,
  +0.021476841f,
  -0.026571486f,
  +0.029807117f,
  +0.015989186f,
  +0.021035682f,
  +0.012834230f,
  +0.008728176f,
  -0.046818111f,
  +0.004295760f,
  -0.001832703f,
  -0.011451544f,
  +0.006076594f,
  -0.039520472f,
  -0.023039619f,
  +0.056325130f,
  -0.024471350f,
  -0.002553638f,
  +0.003580777f,
  -0.003194485f,
  +0.050237346f,
  -0.044988561f,
  +0.004075906f,
  +0.019656204f,
  -0.033043679f,
  -0.022861212f,
  +0.007624313f,
  -0.021448515f,
  +0.035096396f,
  -0.017199021f,
  -0.005751211f,
  -0.036683060f,
  -0.030289825f,
  -0.032832552f,
  +0.015474539f,
  +0.006129694f,
  -0.023483120f,
  +0.016790353f,
  +0.040761348f,
  +0.010747064f,
  -0.018175449f,
  +0.037853453f,
  +0.005837038f,
  +0.010653961f,
  +0.017432462f,
  -0.035646487f,
  -0.036917198f,
  -0.030569088f,
  -0.030047221f,
  +0.014008075f,
  +0.015010675f,
  +0.023974499f,
  +0.007487683f,
  +0.019534944f,
  -0.011490194f,
  -0.075559206f,
  +0.071337819f,
  +0.016849596f,
  +0.034532554f,
  -0.016764952f,
  +0.007766549f,
  +0.033290971f,
  +0.020034470f,
  +0.029029701f,
  -0.006032258f,
  -0.009714205f,
  +0.029338490f,
  +0.001021814f,
  -0.007540409f,
  +0.016274225f,
  -0.014306534f,
  +0.023206711f,
  +0.033453580f,
  +0.013172396f,
  +0.014835294f,
  -0.032682139f,
  -0.027220752f,
  -0.021048568f,
  +0.012924716f,
  +0.013178453f,
  +0.000513144f,
  -0.016815100f,
  -0.001141857f,
  -0.029786222f,
  -0.026810454f,
  -0.032654628f,
  +0.046189774f,
  +0.012721367f,
  +0.040756568f,
  -0.018283457f,
  -0.009075377f,
  +0.039167691f,
  -0.000779934f,
  +0.009246361f,
  -0.001951504f,
  -0.024791613f,
  -0.005124872f,
  +0.036430564f,
  +0.001230724f,
  -0.002315372f,
  -0.008279596f,
  +0.011228099f,
  +0.032033380f,
  -0.037768517f,
  +0.021807857f,
  +0.039347347f,
  -0.011224756f,
  +0.029613193f,
  +0.012738440f,
  -0.036186561f,
  +0.029739108f,
  -0.033733550f,
  +0.026634572f,
  +0.044789094f,
  -0.016037034f,
  +0.017538480f,
  +0.015537310f,
  -0.009169567f,
  +0.030040469f,
  +0.033299040f,
  -0.007580984f,
  -0.037211947f,
  -0.026886847f,
  -0.001144629f,
  -0.026349772f,
  +0.011781231f,
  +0.029855583f,
  +0.009699043f,
  -0.009306373f,
  +0.038550299f,
  +0.039675731f,
  +0.007004273f,
  +0.003762662f,
  +0.031158838f,
  -0.023395952f,
  -0.019155800f,
  -0.024453793f,
  -0.026475824f,
  -0.001385389f,
  -0.029069589f,
  +0.004700786f,
  +0.023806956f,
  -0.020939752f,
  +0.001907902f,
  -0.034010287f,
  -0.007123653f,
  +0.055626635f,
  -0.008973094f,
  +0.002260539f,
  -0.022115158f,
  -0.001621563f,
  +0.003142167f,
  +0.024883509f,
  -0.033805590f,
  +0.000130329f,
  +0.016544269f,
  +0.011847053f,
  +0.028239388f,
  +0.008995997f,
  -0.009552261f,
  -0.024747953f,
  +0.004144717f,
  -0.015969202f,
  -0.021663569f,
  +0.090496413f,
  -0.005239978f,
  -0.007160128f,
  +0.009116124f,
  +0.005072588f,
  -0.017438509f,
  +0.044950996f,
  -0.031450424f,
  +0.025023926f,
  +0.024258900f,
  -0.027461251f,
  +0.008619958f,
  +0.202434972f,
  +0.037451517f,
  +0.034287434f,
  +0.041644532f,
  -0.020449156f,
  +0.038449056f,
  +0.015217919f,
  -0.016044725f,
  +0.017450128f,
  -0.034442008f,
  +0.039493475f,
  +0.014835848f,
  -0.003029808f,
  +0.015526883f,
  +0.017884187f,
  +0.012195533f,
  +0.016564518f,
  -0.044285946f,
  -0.033887427f,
  +0.000976552f,
  +0.000802152f,
  -0.039712679f,
  -0.005622849f,
  +0.031165689f,
  -0.010486657f,
  -0.001988754f,
  -0.059997182f,
  +0.016621359f,
  +0.034334358f,
  +0.018652577f,
  +0.011749625f,
  +0.026832264f,
  -0.026238706f,
  +0.027099241f,
  +0.066369504f,
  +0.030595122f,
  -0.015942629f,
  -0.010861900f,
  +0.000415181f,
  -0.003933283f,
  +0.040066142f,
  -0.034437798f,
  +0.039993100f,
  -0.049774408f,
  +0.011462443f,
  +0.027872588f,
  +0.036344651f,
  +0.012932621f,
  -0.000820827f,
  +0.012024880f,
  -0.028321672f,
  +0.025501300f,
  +0.024716448f,
  -0.013779672f,
  -0.014095781f,
  -0.022629246f,
  +0.001975130f,
  +0.029627640f,
  -0.003326647f,
  +0.011529762f,
  -0.031413995f,
  -0.017018745f,
  +0.017807806f,
  +0.012556709f,
  -0.003930172f,
  -0.018044773f,
  -0.034583651f,
  +0.015568676f,
  +0.014064547f,
  -0.020446757f,
  +0.002481168f,
  +0.056312777f,
  -0.021747284f,
  +0.020265698f,
  -0.030687142f,
  +0.031365890f,
  +0.050663535f,
  +0.024647489f,
  +0.018300541f,
  +0.040024985f,
  +0.011464825f,
  +0.014272209f,
  -0.006425398f,
  +0.038976658f,
  +0.047952514f,
  +0.021603785f,
  +0.036451299f,
  -0.000588833f,
  -0.021548592f,
  +0.011877397f,
  -0.012926187f,
  +0.017945250f,
  -0.005017158f,
  -0.051290598f,
  -0.366319627f
};

static float MEAN_FEATURES[376] = {
  +110.292672460f,
  +37802.227228838f,
  +203.086578693f,
  +331.441583521f,
  +66.156742839f,
  +0.000000000f,
  +4.589421736f,
  +2.476772878f,
  +2429.775775131f,
  +0.591674713f,
  +0.002145693f,
  +13288.494689411f,
  +106408.427073364f,
  +13511.281950437f,
  +40499.867837209f,
  +0.636817853f,
  +9.853020062f,
  +0.000000000f,
  +0.000000000f,
  +0.000000000f,
  +84398.915224232f,
  +0.000000000f,
  +354.749174980f,
  +2261.952197259f,
  +130.885390232f,
  +3783.950792256f,
  +164.702968960f,
  +9618.287788628f,
  +1342.512810414f,
  +0.000000000f,
  +33.806628058f,
  +219.894810895f,
  +34.059513010f,
  +4849.402325873f,
  +0.000000000f,
  +462.908623987f,
  +263.893159968f,
  +0.000000000f,
  +41212.084796623f,
  +969.272228466f,
  +90.693396183f,
  +18.823018198f,
  +0.200008620f,
  +38161.966206274f,
  +14638.739201809f,
  +4.687935295f,
  +6.819595662f,
  +10335.338964739f,
  +8109.461282735f,
  +12.761785717f,
  +8.320771752f,
  +0.004376462f,
  +23.477593923f,
  +13.803055035f,
  +16.936028641f,
  +118.361861248f,
  +0.000000000f,
  +0.000000000f,
  +0.000000000f,
  +0.000000000f,
  +0.000000000f,
  +0.000000000f,
  +0.000000000f,
  +0.000000000f,
  +0.000000000f,
  +1002.920207116f,
  +2779.775285832f,
  +0.000000000f,
  +301.372742650f,
  +0.000000000f,
  +0.630152316f,
  +0.135368035f,
  +10.579751536f,
  +0.462164869f,
  +0.000000000f,
  +9315.589811720f,
  +4455.468536227f,
  +1559.588337317f,
  +0.000000000f,
  +0.000000000f,
  +0.000000000f,
  +0.000000000f,
  +0.000000000f,
  +0.000000000f,
  +13288.938204055f,
  +0.000000000f,
  +6527.542109216f,
  +10199.078103208f,
  +31494.714301041f,
  +3042.775989701f,
  +536.270249973f,
  +0.000000000f,
  +4.102778672f,
  +79640.311447270f,
  +0.508743697f,
  +0.111576011f,
  +0.000000000f,
  +0.000000000f,
  +0.000000000f,
  +0.000000000f,
  +0.000000000f,
  +0.000000000f,
  +0.000000000f,
  +0.000000000f,
  +0.000000000f,
  +0.000858277f,
  +0.001180131f,
  +0.007724493f,
  +0.000000000f,
  +0.037549619f,
  +0.000000000f,
  +0.007939062f,
  +0.000000000f,
  +0.155348139f,
  +0.002252977f,
  +0.002789400f,
  +0.203518936f,
  +0.114901835f,
  +0.002252977f,
  +0.002682116f,
  +0.074562815f,
  +0.002252977f,
  +0.002682116f,
  +0.056002575f,
  +0.000000000f,
  +0.003647677f,
  +0.508743697f,
  +0.111576011f,
  +0.000000000f,
  +0.000000000f,
  +0.000000000f,
  +0.000000000f,
  +0.000000000f,
  +0.000000000f,
  +0.000000000f,
  +0.000000000f,
  +0.000000000f,
  +0.000000000f,
  +0.000000000f,
  +0.000000000f,
  +0.000321854f,
  +0.000321854f,
  +0.114901835f,
  +0.000321854f,
  +0.000000000f,
  +0.000000000f,
  +0.000000000f,
  +0.000000000f,
  +0.000000000f,
  +0.000000000f,
  +0.002252977f,
  +0.000000000f,
  +0.000000000f,
  +0.000000000f,
  +0.000000000f,
  +0.000214569f,
  +0.000214569f,
  +0.002682116f,
  +0.000214569f,
  +0.000000000f,
  +0.074026392f,
  +0.074562815f,
  +0.008475485f,
  +0.056002575f,
  +0.000000000f,
  +0.000000000f,
  +0.000000000f,
  +0.000000000f,
  +0.000000000f,
  +0.000000000f,
  +0.000000000f,
  +0.000000000f,
  +0.000000000f,
  +0.000000000f,
  +0.000000000f,
  +0.002252977f,
  +0.002252977f,
  +0.000000000f,
  +0.000000000f,
  +0.000000000f,
  +0.000000000f,
  +0.000000000f,
  +0.000000000f,
  +0.000000000f,
  +0.000000000f,
  +0.000000000f,
  +0.000000000f,
  +0.000000000f,
  +0.000000000f,
  +0.000000000f,
  +0.002682116f,
  +0.001931123f,
  +0.000000000f,
  +0.001287416f,
  +0.000000000f,
  +0.000000000f,
  +0.000000000f,
  +0.000000000f,
  +0.000000000f,
  +0.000000000f,
  +0.000000000f,
  +0.000643708f,
  +0.000000000f,
  +0.000000000f,
  +0.000000000f,
  +0.000000000f,
  +0.000000000f,
  +0.000000000f,
  +0.000000000f,
  +0.000000000f,
  +0.000000000f,
  +0.000000000f,
  +0.000000000f,
  +0.000000000f,
  +0.000000000f,
  +0.000000000f,
  +0.000000000f,
  +0.118227658f,
  +0.076601223f,
  +0.253191718f,
  +0.000000000f,
  +1.721596395f,
  +1.000000000f,
  +0.000000000f,
  +42.000000000f,
  +0.005042377f,
  +0.000000000f,
  +1.000000000f,
  +1.000000000f,
  +0.000000000f,
  +0.000000000f,
  +2.000000000f,
  +0.000000000f,
  +1.000000000f,
  +1.000000000f,
  +0.000000000f,
  +0.693487823f,
  +1.000000000f,
  +1.000000000f,
  +4.988413260f,
  +0.000000000f,
  +0.000000000f,
  +2.000000000f,
  +0.043879412f,
  +0.471945070f,
  +0.067052891f,
  +0.000000000f,
  +0.000000000f,
  +2.479562279f,
  +418.072309838f,
  +1.741658620f,
  +0.759897007f,
  +0.000000000f,
  +0.948074241f,
  +0.000000000f,
  +1.184100418f,
  +0.000000000f,
  +0.391267031f,
  +0.000000000f,
  +0.000000000f,
  +0.270142689f,
  +1.000000000f,
  +0.365304152f,
  +0.172191825f,
  +1.000000000f,
  +0.000000000f,
  +5.000000000f,
  +0.318420770f,
  +0.000000000f,
  +124.108572042f,
  +0.000000000f,
  +1.173264671f,
  +0.000000000f,
  +287.480527840f,
  +128000.000000000f,
  +0.010621178f,
  +0.000000000f,
  +1.000000000f,
  +0.000000000f,
  +0.000000000f,
  +1.781890355f,
  +168.973500697f,
  +0.293745306f,
  +1.000000000f,
  +3.869971033f,
  +0.000000000f,
  +2.800236026f,
  +0.000000000f,
  +1.000000000f,
  +0.000000000f,
  +0.000000000f,
  +0.000000000f,
  +1.925855595f,
  +1.016629117f,
  +0.000000000f,
  +0.330973072f,
  +0.348031327f,
  +0.000000000f,
  +1.622787255f,
  +0.024139041f,
  +0.198905697f,
  +0.194077889f,
  +0.000000000f,
  +1.230232808f,
  +0.799914172f,
  +0.562815149f,
  +0.112005150f,
  +0.323034009f,
  +0.000000000f,
  +1.782212209f,
  +1.190365841f,
  +0.000000000f,
  +0.000000000f,
  +0.000000000f,
  +0.000000000f,
  +0.023495333f,
  +0.002167149f,
  +0.003433108f,
  +1.000000000f,
  +1.294389014f,
  +998.444372921f,
  +1.001201588f,
  +1.182491149f,
  +0.006866216f,
  +0.239995709f,
  +1.001000000f,
  +1.000000000f,
  +1.000000000f,
  +1.000000000f,
  +16000.000000000f,
  +1.100000000f,
  +32.000000000f,
  +100.000000000f,
  +1.100000000f,
  +100.000000000f,
  +2.000000000f,
  +1.050000000f,
  +0.000000000f,
  +1.000000000f,
  +46444.802059865f,
  +45603.003969531f,
  +192.585559489f,
  +100.000000000f,
  +0.274755927f,
  +2.404999464f,
  +0.028215857f,
  +1.533311876f,
  +2.000000000f,
  +0.434717305f,
  +0.284840682f,
  +0.000000000f,
  +23113.399849802f,
  +1.428097844f,
  +1.000000000f,
  +1.004076816f,
  +1.965668920f,
  +1.000000000f,
  +45804.527411222f,
  +45375.388906769f,
  +0.690054715f,
  +45373.329041948f,
  +45381.225190430f,
  +0.000000000f,
  +46438.279154597f,
  +0.690054715f,
  +45387.748095698f,
  +1.000000000f,
  +0.690054715f,
  +45424.139040875f,
  +0.000000000f,
  +0.690054715f,
  +0.690054715f,
  +0.204806351f,
  +0.000000000f,
  +0.056431713f,
  +106390.379445440f
};

static float SCALE_FEATURES[376] = {
  +346.884790978f,
  +322446.610097374f,
  +3701.684376869f,
  +889.795057008f,
  +584.904923148f,
  +1.000000000f,
  +33.504527213f,
  +7.431605114f,
  +23164.516902703f,
  +3.485496702f,
  +0.046271898f,
  +90874.807311987f,
  +209428.132152782f,
  +88238.513664898f,
  +50169.576460127f,
  +10.123807108f,
  +148.227608596f,
  +1.000000000f,
  +1.000000000f,
  +1.000000000f,
  +484033.134828441f,
  +1.000000000f,
  +5665.386512226f,
  +10826.320723149f,
  +1441.379722816f,
  +10605.009813180f,
  +1225.965538104f,
  +32741.717343871f,
  +7060.150532754f,
  +1.000000000f,
  +314.807251525f,
  +2144.794504840f,
  +172.555576266f,
  +119233.605178637f,
  +1.000000000f,
  +1949.548375470f,
  +2494.741337603f,
  +1.000000000f,
  +92183.858807601f,
  +3834.554426094f,
  +660.300467303f,
  +187.010001995f,
  +2.834643408f,
  +137349.136365066f,
  +71988.265912515f,
  +89.322355741f,
  +81.009316400f,
  +36864.068488552f,
  +26798.300508459f,
  +55.552695057f,
  +421.042471341f,
  +0.218643625f,
  +219.024755266f,
  +79.966966531f,
  +270.493959122f,
  +2653.856398344f,
  +1.000000000f,
  +1.000000000f,
  +1.000000000f,
  +1.000000000f,
  +1.000000000f,
  +1.000000000f,
  +1.000000000f,
  +1.000000000f,
  +1.000000000f,
  +5236.615275530f,
  +19040.389174087f,
  +1.000000000f,
  +1457.237887799f,
  +1.000000000f,
  +13.245250394f,
  +4.320744998f,
  +229.041026742f,
  +9.482498112f,
  +1.000000000f,
  +20968.389313450f,
  +15526.984604630f,
  +4993.120022123f,
  +1.000000000f,
  +1.000000000f,
  +1.000000000f,
  +1.000000000f,
  +1.000000000f,
  +1.000000000f,
  +90874.751555463f,
  +1.000000000f,
  +18332.398719561f,
  +37469.125928959f,
  +316222.766460349f,
  +13339.498082710f,
  +1577.552953442f,
  +1.000000000f,
  +9.073396544f,
  +1129653.542755074f,
  +0.499923542f,
  +0.314844096f,
  +1.000000000f,
  +1.000000000f,
  +1.000000000f,
  +1.000000000f,
  +1.000000000f,
  +1.000000000f,
  +1.000000000f,
  +1.000000000f,
  +1.000000000f,
  +0.029283790f,
  +0.034332757f,
  +0.087548988f,
  +1.000000000f,
  +0.190104301f,
  +1.000000000f,
  +0.088747020f,
  +1.000000000f,
  +0.362236241f,
  +0.047412037f,
  +0.052741061f,
  +0.402615174f,
  +0.318903438f,
  +0.047412037f,
  +0.051719647f,
  +0.262684605f,
  +0.047412037f,
  +0.051719647f,
  +0.229926698f,
  +1.000000000f,
  +0.060285751f,
  +0.499923542f,
  +0.314844096f,
  +1.000000000f,
  +1.000000000f,
  +1.000000000f,
  +1.000000000f,
  +1.000000000f,
  +1.000000000f,
  +1.000000000f,
  +1.000000000f,
  +1.000000000f,
  +1.000000000f,
  +1.000000000f,
  +1.000000000f,
  +0.017937399f,
  +0.017937399f,
  +0.318903438f,
  +0.017937399f,
  +1.000000000f,
  +1.000000000f,
  +1.000000000f,
  +1.000000000f,
  +1.000000000f,
  +1.000000000f,
  +0.047412037f,
  +1.000000000f,
  +1.000000000f,
  +1.000000000f,
  +1.000000000f,
  +0.014646611f,
  +0.014646611f,
  +0.051719647f,
  +0.014646611f,
  +1.000000000f,
  +0.261813837f,
  +0.262684605f,
  +0.091671433f,
  +0.229926698f,
  +1.000000000f,
  +1.000000000f,
  +1.000000000f,
  +1.000000000f,
  +1.000000000f,
  +1.000000000f,
  +1.000000000f,
  +1.000000000f,
  +1.000000000f,
  +1.000000000f,
  +1.000000000f,
  +0.047412037f,
  +0.047412037f,
  +1.000000000f,
  +1.000000000f,
  +1.000000000f,
  +1.000000000f,
  +1.000000000f,
  +1.000000000f,
  +1.000000000f,
  +1.000000000f,
  +1.000000000f,
  +1.000000000f,
  +1.000000000f,
  +1.000000000f,
  +1.000000000f,
  +0.051719647f,
  +0.043902096f,
  +1.000000000f,
  +0.035857469f,
  +1.000000000f,
  +1.000000000f,
  +1.000000000f,
  +1.000000000f,
  +1.000000000f,
  +1.000000000f,
  +1.000000000f,
  +0.025363229f,
  +1.000000000f,
  +1.000000000f,
  +1.000000000f,
  +1.000000000f,
  +1.000000000f,
  +1.000000000f,
  +1.000000000f,
  +1.000000000f,
  +1.000000000f,
  +1.000000000f,
  +1.000000000f,
  +1.000000000f,
  +1.000000000f,
  +1.000000000f,
  +1.000000000f,
  +0.322877498f,
  +0.265957658f,
  +0.434839823f,
  +1.000000000f,
  +12.529679571f,
  +1.000000000f,
  +1.000000000f,
  +1.000000000f,
  +0.070830444f,
  +1.000000000f,
  +1.000000000f,
  +1.000000000f,
  +1.000000000f,
  +1.000000000f,
  +1.000000000f,
  +1.000000000f,
  +1.000000000f,
  +1.000000000f,
  +1.000000000f,
  +11.815397366f,
  +1.000000000f,
  +1.000000000f,
  +0.214971407f,
  +1.000000000f,
  +1.000000000f,
  +1.000000000f,
  +0.418314410f,
  +0.499212300f,
  +0.250113576f,
  +1.000000000f,
  +1.000000000f,
  +1.373510511f,
  +493.352232165f,
  +0.634615833f,
  +0.427145813f,
  +1.000000000f,
  +0.221877161f,
  +1.000000000f,
  +0.543177411f,
  +1.000000000f,
  +0.488033955f,
  +1.000000000f,
  +1.000000000f,
  +0.502304603f,
  +1.000000000f,
  +0.611299684f,
  +0.377547084f,
  +1.000000000f,
  +1.000000000f,
  +1.000000000f,
  +0.465863696f,
  +1.000000000f,
  +240.245018540f,
  +1.000000000f,
  +0.799848282f,
  +1.000000000f,
  +224.624210427f,
  +1.000000000f,
  +0.178187330f,
  +1.000000000f,
  +1.000000000f,
  +1.000000000f,
  +1.000000000f,
  +1.533643836f,
  +357.469992687f,
  +0.455476675f,
  +1.000000000f,
  +0.630587237f,
  +1.000000000f,
  +0.660959328f,
  +1.000000000f,
  +1.000000000f,
  +1.000000000f,
  +1.000000000f,
  +1.000000000f,
  +1.878615816f,
  +0.562805066f,
  +1.000000000f,
  +0.608203765f,
  +0.476346011f,
  +1.000000000f,
  +0.729158807f,
  +0.195312715f,
  +0.399176929f,
  +0.395489142f,
  +1.000000000f,
  +0.561038816f,
  +0.400064356f,
  +0.496038564f,
  +0.315372789f,
  +1.149408481f,
  +1.000000000f,
  +0.623012087f,
  +0.697097670f,
  +1.000000000f,
  +1.000000000f,
  +1.000000000f,
  +1.000000000f,
  +0.151470467f,
  +0.027553040f,
  +0.058492066f,
  +1.000000000f,
  +3.970173593f,
  +44.847658317f,
  +0.017779727f,
  +34.401422151f,
  +0.082577667f,
  +0.427080518f,
  +0.000100000f,
  +1.000000000f,
  +1.000000000f,
  +1.000000000f,
  +1.000000000f,
  +0.000100000f,
  +1.000000000f,
  +1.000000000f,
  +0.000100000f,
  +1.000000000f,
  +1.000000000f,
  +0.000100000f,
  +1.000000000f,
  +1.000000000f,
  +791309.917180684f,
  +776967.662555806f,
  +187.861581555f,
  +1.000000000f,
  +0.446391205f,
  +0.565818833f,
  +0.165589016f,
  +0.758593910f,
  +1.000000000f,
  +0.721675794f,
  +0.451338529f,
  +1.000000000f,
  +36860.269236216f,
  +0.288842545f,
  +1.000000000f,
  +0.193734351f,
  +0.234602901f,
  +1.000000000f,
  +780401.146839985f,
  +773089.638568733f,
  +11.756905300f,
  +773054.543329025f,
  +773189.075081224f,
  +1.000000000f,
  +791198.782254961f,
  +11.756905300f,
  +773300.210006948f,
  +1.000000000f,
  +11.756905300f,
  +773920.225908343f,
  +1.000000000f,
  +11.756905300f,
  +11.756905300f,
  +0.403560045f,
  +1.000000000f,
  +0.230753494f,
  +258609.975938007f
};
